org 1.643247 -1.111025 0.347178 0.840692 -1.053395 -0.610821 -0.196747 -0.132692 -0.590306 -0.844428 -0.088852 -0.901340 1.182352 -0.404556 0.654926 -0.407212 0.070113 1.014422 -0.580122 -0.678186 0.482794 1.361964 0.003389 0.138859 -0.507926 -0.176796 -0.296382 -1.190451 -1.126677 -0.449977 0.454746 0.573786 -0.034700 -0.975957 0.217247 0.541873 -0.506796 -1.107241 -0.422653 -0.178735 1.051690 0.346357 -0.818403 -0.584995 0.198894 0.595501 0.317809 0.573931 0.246860 -0.329028
springframework 1.663786 -0.920677 0.049904 0.572701 -0.864943 -0.597859 -0.164045 0.035588 -0.791213 -0.910210 0.078835 -0.810472 1.005879 -0.418160 0.628488 -0.413365 -0.052786 1.078722 -0.644928 -0.583032 0.350885 1.426592 0.008400 0.428012 -0.559062 -0.176869 -0.085418 -1.388496 -1.267678 -0.414985 0.103535 0.722272 0.160081 -0.993851 0.110746 0.424311 -0.526908 -1.056137 -0.385033 -0.248683 0.991500 0.292734 -0.638697 -0.945080 0.046677 0.487182 0.169647 0.631834 0.224243 -0.237828
data 0.984309 -0.413552 -0.068503 0.296927 -0.081326 -0.209982 -0.050002 -0.252330 -0.172353 -0.667573 -0.058098 -0.890558 0.534381 0.290773 0.181372 0.021360 -0.062247 0.727890 -0.873044 -0.253036 0.089711 1.177866 0.459458 -0.019381 -0.058659 -0.346175 0.378913 -0.829824 -1.048555 -0.915799 0.620162 0.421706 0.358431 -0.097229 -0.322088 1.056912 -0.045334 -1.179696 -0.264196 0.062849 0.605511 0.024908 -0.474334 -0.716289 0.271127 0.353362 0.035752 0.644999 -0.122442 -0.478614
json -0.483366 -1.106113 -0.061046 -0.111765 -0.883719 -0.700176 0.355900 -0.485241 -0.409785 -0.687131 0.527417 -1.199613 0.267576 0.050414 0.655024 -0.732129 0.374148 -0.254848 0.032711 0.269664 -0.565238 0.256215 0.195278 0.270239 -0.742946 -0.660160 -0.763517 -1.184906 0.513235 0.127527 -0.344212 0.493537 0.272891 -0.671420 0.165306 1.194393 -0.044373 -0.888301 -0.329316 -0.506299 0.262149 -0.415419 -0.862421 -0.074574 -0.804847 1.120344 -0.481375 -0.246364 -0.683255 -0.140502
application -0.658241 -1.076809 -0.419906 -0.323574 -0.555430 -1.129515 0.805733 -0.655367 -0.657137 -0.878338 0.254742 -1.033543 0.215776 -0.042244 0.427373 -0.918306 0.252067 -0.302531 0.195560 0.432641 -0.112566 0.207999 0.185008 0.243474 -1.119663 -0.853568 -0.540692 -1.380025 0.852163 0.165901 -0.416238 0.567744 0.242890 -0.371708 0.102190 0.893183 0.353268 -0.916476 -0.320326 -0.453919 0.244285 -0.592620 -0.989026 0.184256 -0.597335 1.287988 -0.281608 -0.429317 -0.302853 0.108164
rest 1.479054 -0.501330 0.105755 0.183292 -0.234909 -0.039431 -0.185899 0.410558 -0.115150 -0.956899 -0.201823 -0.378480 0.791916 -0.239128 -0.040742 -0.014823 0.090426 1.120160 -1.134325 -0.543986 0.241068 1.258102 0.443993 -0.087539 -0.054879 -0.334094 0.497789 -0.791621 -1.229034 -0.920496 0.737859 0.190868 0.164731 -0.216331 -0.136163 0.673135 -0.350325 -1.099604 -0.304791 0.141459 0.729177 0.369956 -0.566143 -0.816718 0.557361 0.140510 0.069157 0.497430 -0.003200 -0.468801
webmvc 1.456305 -0.371934 0.128410 0.094371 -0.045784 0.043957 -0.196860 0.475260 0.022349 -0.900092 -0.311273 -0.253619 0.722978 -0.241237 -0.231448 0.096761 0.042763 1.138214 -1.177494 -0.549764 0.360115 1.147312 0.497120 -0.224166 0.099742 -0.327940 0.605089 -0.627996 -1.213279 -1.009282 0.862425 0.050171 0.139801 -0.053681 -0.135822 0.612761 -0.317483 -1.068938 -0.306259 0.225910 0.724418 0.390216 -0.484596 -0.728303 0.743267 0.034394 0.078914 0.424590 0.054073 -0.460547
carts 1.316905 -0.470538 -0.102404 -0.203014 0.383306 -0.530076 1.029323 0.922610 0.278997 -0.931322 0.045786 1.057113 0.761390 -0.196033 -0.102263 0.159510 -0.136711 1.018031 -1.331119 0.064283 0.338628 -0.018068 0.318063 1.020095 0.166244 -0.336689 0.316216 -0.657222 -0.120825 -0.458162 -0.325303 0.027726 0.134435 -1.032975 0.477204 0.293609 0.326878 -0.024712 1.361165 -0.139808 -0.816328 0.204860 0.107040 -0.431530 -0.319758 0.504540 1.200702 1.268703 0.017038 0.749482
s 1.019612 -0.662419 -0.804196 -0.566727 -0.366391 -0.655224 0.659330 0.658109 0.204055 -1.035422 0.258289 0.713808 0.470274 -0.825468 -0.204240 -0.920723 -0.399658 0.908183 -0.868356 0.140907 0.491914 -0.364928 -0.072917 0.318086 -0.519748 -0.812357 -0.019149 -0.663598 0.495438 0.523230 -0.423434 0.347425 -0.444533 -0.645593 0.897672 0.076264 -0.385067 -0.115640 0.615015 0.444316 -0.968711 -0.203607 -0.583432 -0.210872 -0.719084 0.594923 0.441295 0.005982 0.232662 0.243326
info 1.288881 -0.223956 -0.372898 -0.134545 0.375629 -0.384317 0.879841 1.061721 0.091707 -0.828057 0.256133 0.908471 0.780530 -0.414262 -0.145057 0.338188 -0.190865 0.772725 -1.169937 -0.009754 0.054417 -0.115566 0.022344 1.009973 0.000789 -0.431484 0.679858 -0.671233 -0.419832 -0.422887 -0.196003 0.120463 0.085667 -0.849161 0.414649 0.031241 0.156976 0.117367 1.034385 0.039031 -0.610107 0.314575 0.148940 -0.693051 -0.256405 0.370457 1.071337 0.974809 0.046887 0.842450
java 0.692801 -0.373684 -0.566837 0.125979 -1.061149 -0.726663 0.209396 0.252665 0.616576 0.020719 -0.009307 -0.557144 1.372185 -0.966366 0.202669 0.741898 0.178031 0.603729 -0.820086 -0.943996 -0.664931 0.470627 0.226755 0.223485 -0.376728 -1.036368 -0.208174 0.349114 -1.404530 -1.116938 0.620204 0.614555 -0.064299 0.021086 0.126466 0.112166 0.692826 -0.252137 -0.023756 0.676121 0.778369 -0.393229 0.303654 -1.230640 -0.613760 -0.019516 0.402330 0.381521 0.221681 0.765501
o 1.014412 -0.513561 -0.762357 -0.587541 0.071540 -0.414166 0.851749 0.898764 0.117034 -1.202957 0.380083 0.779799 0.450601 -0.411762 -0.084775 -0.642252 -0.439076 0.799030 -1.004061 0.372050 0.338231 -0.219819 0.077950 0.437149 -0.398900 -0.969411 0.403747 -0.729668 0.381838 0.323322 -0.447510 0.108117 -0.309129 -0.704967 0.841343 0.097785 -0.326205 -0.103941 0.715062 0.512223 -1.114426 -0.218120 -0.589346 -0.291538 -0.649481 0.854891 0.597962 0.118504 -0.007618 0.274452
lang 1.123984 -0.331744 -0.789306 0.084591 -0.899483 -0.808133 0.400209 0.403000 0.520479 -0.055252 0.285127 -0.392710 1.201744 -1.057281 0.182730 0.548867 -0.128352 0.807940 -0.844962 -0.711458 -0.303580 0.348157 -0.071446 0.353805 -0.431124 -0.686979 -0.235505 0.100366 -1.278723 -0.877617 0.338865 0.577323 -0.182227 -0.370411 0.356961 0.050510 0.207387 -0.156649 0.110061 0.753019 0.437352 -0.332106 0.330996 -1.158084 -0.793310 0.073408 0.316042 0.428173 0.400986 0.763861
main 0.983244 -0.526842 -0.345323 -0.367770 0.035437 -0.456651 0.795821 0.501603 0.454670 -0.800410 0.082461 0.808320 0.524471 -0.558600 -0.289790 -0.343023 -0.364483 0.916741 -0.995233 -0.022087 0.429941 -0.334768 -0.013544 0.496447 -0.168421 -0.679660 0.059430 -0.807808 0.225117 -0.004876 -0.275271 0.137277 -0.166939 -0.786507 0.779538 0.260197 -0.287032 -0.211973 1.153302 0.190953 -0.682992 0.105281 -0.156914 -0.500074 -0.316247 0.220142 0.676753 0.483034 0.234765 0.642731
mapped -0.042371 -1.213135 0.235832 -0.556288 -0.439493 -0.580390 0.564021 0.465442 0.788878 -0.523785 0.483720 0.167296 0.778629 -0.725079 -0.338730 -0.747226 -0.015595 0.339124 -0.466775 0.413277 -0.438821 -0.908638 0.207808 -0.170583 0.232754 -0.547435 -0.452993 -0.182723 0.883996 0.114200 -0.148973 -0.152478 -0.081636 -0.812220 0.563699 0.680073 -0.158268 0.000419 0.253826 -0.355458 -0.606216 -0.722128 -0.827601 0.376100 -1.295941 0.937371 -0.011855 -0.282023 -0.619328 -0.051496
onto -0.174035 -1.124097 0.414210 0.181540 -1.484238 -0.523639 0.232903 -0.717039 0.075905 -0.331189 0.130781 -0.642909 0.669311 -0.349266 0.768962 -0.395683 0.428435 0.223162 -0.134089 -0.450497 -0.351544 0.550364 0.281670 0.653108 -0.860888 -0.285842 -1.677833 -0.862570 0.434647 -0.253164 -0.426093 0.502247 -0.161561 -0.893232 0.399885 1.090725 -0.124793 -0.917790 0.192849 -0.370027 0.421089 0.076579 0.061389 -0.140663 -0.350979 0.279313 -0.296522 0.221255 -0.054615 0.149622
w 0.669517 -0.844886 -0.797029 -0.628092 -0.192519 -0.761996 0.760219 0.745944 0.010161 -1.051018 0.439184 0.366668 0.683069 -0.984636 -0.287237 -1.006362 -0.149843 0.691868 -0.548616 0.529440 0.108287 -0.550837 0.080729 0.109478 -0.348987 -0.558132 0.215678 -0.545057 0.586630 0.301476 -0.281411 0.170938 -0.070928 -0.608855 0.577538 0.056141 -0.216097 0.131880 0.043091 0.030390 -0.915959 -0.477994 -1.066979 0.325711 -1.027315 1.040612 0.249893 -0.287680 -0.141517 -0.212573
methods -0.691985 -1.084014 0.064688 -0.616717 -0.526601 -1.224537 1.062464 -0.326286 0.388748 -0.426033 0.221695 -0.015592 0.578659 -0.568671 -0.272338 -0.629529 -0.425826 0.312915 -0.049254 0.507720 -0.175314 -0.721703 0.114162 -0.020516 -0.250665 -0.505924 -0.735796 -0.531578 1.100924 -0.082345 -0.458390 0.055120 0.245740 -0.498992 0.288877 0.438327 0.233915 -0.230603 0.406057 -0.280556 -0.081978 -0.938584 -0.684146 0.420297 -1.276487 0.833784 0.123039 -0.076391 -0.402536 0.449688
public -0.059769 -1.145788 0.361579 0.103536 -1.522961 -0.604305 0.159330 -0.833100 0.209289 -0.235473 0.006519 -0.701211 0.695374 -0.565628 0.669940 -0.363247 0.251821 0.448033 -0.225077 -0.659331 -0.360613 0.662353 0.235133 0.496873 -0.862154 -0.236909 -1.653255 -0.857688 0.141955 -0.366363 -0.277296 0.503293 -0.159513 -0.788660 0.285242 1.009426 -0.281677 -1.076419 0.040799 -0.257083 0.732159 0.020582 0.129602 -0.332460 -0.265861 0.053486 -0.383222 0.256319 0.033209 0.105618
a 0.856429 -0.538783 0.099435 0.040185 -0.783723 0.325057 -0.230795 0.681345 0.657906 -0.289592 0.543660 0.460904 0.190246 0.201608 0.299371 -0.339687 -0.274444 0.676963 -0.797805 -0.063451 -0.612527 -0.122822 -0.233464 0.357935 0.354689 -0.342763 -0.393107 0.106652 0.015434 0.655821 -0.332290 0.236442 -0.345247 -0.936437 0.796162 0.491931 -0.747261 0.039779 1.110689 0.348708 -0.988310 0.167411 -0.000652 -0.834207 -0.964449 0.138625 0.332806 0.570563 -0.369511 -0.024173
produces -0.748655 -0.773365 -0.496569 -0.277325 -0.327937 -1.167441 1.077301 -0.798887 -0.228601 -0.584267 0.357552 -0.727329 0.151255 0.136256 0.305299 -0.696642 -0.261444 -0.178655 0.267387 0.637313 -0.074636 -0.150719 0.061588 0.364828 -0.834491 -0.883192 -0.585104 -1.111959 0.925161 0.196597 -0.595610 0.431001 0.164971 -0.508608 0.246395 0.739438 0.202846 -0.632101 0.165445 -0.216417 -0.198823 -0.959468 -0.654509 0.109070 -0.944133 1.144676 0.007965 -0.158259 -0.152211 0.369366
d 0.756788 -0.599023 -0.798848 -0.795972 -0.004502 -0.634540 0.614756 1.028369 -0.084458 -1.202901 0.534815 0.350625 0.315275 -0.436864 -0.354347 -0.850668 -0.445501 0.882920 -0.551502 0.797285 0.186378 -0.162285 0.213433 -0.034622 -0.157921 -0.713276 0.662088 -0.581903 0.504470 0.244094 -0.105666 -0.106937 0.084437 -0.390265 0.382838 0.187206 -0.486479 -0.204543 0.026164 0.303902 -0.951316 -0.879289 -1.242969 -0.008159 -0.948390 1.184001 0.122416 -0.234708 -0.266342 -0.452531
b 1.249732 -0.244793 -0.344312 -0.029816 -0.474869 0.253348 0.052748 1.257991 0.218619 -0.669623 0.660387 0.770503 0.407516 -0.190910 0.578399 -0.235572 -0.159336 0.767597 -0.906405 0.205084 -0.582120 0.077234 -0.076766 0.664987 0.168611 -0.109329 0.016579 0.123254 -0.365698 0.592826 -0.565561 0.225870 -0.321294 -0.986854 0.682653 0.012631 -0.679884 0.558571 0.741949 0.409561 -1.389382 0.302569 -0.155659 -0.566908 -1.022967 0.347331 0.571642 0.759379 -0.460512 -0.261757
http 0.439219 -0.888425 -0.010185 0.318038 -0.592504 -0.457283 0.071483 -0.084492 -1.339192 -1.014438 -0.260936 -0.165159 0.789119 -0.757896 0.847722 -0.598633 0.540863 -0.060068 -0.250350 -0.632296 0.046547 0.893136 -0.244351 1.080704 -1.271223 -0.328186 -0.276455 -1.514625 -0.124321 0.417814 -0.325181 0.977955 -0.101312 -0.629256 0.003402 -0.068077 0.430745 -0.588402 -0.293058 -0.773352 0.779269 1.015115 -0.287719 -0.332734 0.532484 0.443698 0.249871 0.141072 0.229733 0.384972
r 0.652263 -0.768436 -0.860684 -0.846580 0.052064 -0.655014 0.790961 0.930834 0.106893 -1.277141 0.485199 0.268389 0.546470 -0.528039 -0.464937 -0.861287 -0.306692 0.820026 -0.657519 0.856017 0.087110 -0.436581 0.270048 -0.215190 -0.087065 -0.705282 0.666652 -0.487214 0.555516 0.119624 0.039659 -0.144529 0.090210 -0.356618 0.442439 0.294608 -0.279736 -0.136751 -0.035580 0.274017 -1.033332 -0.908902 -1.421066 0.286143 -1.065425 1.355056 0.150211 -0.368374 -0.381259 -0.536302
string 1.367226 -0.261880 -0.722905 0.179328 -0.619240 -0.768098 0.348212 0.468134 0.642303 -0.009478 -0.009240 0.018417 1.234459 -1.158532 -0.111374 0.509817 -0.033435 0.867279 -0.909459 -0.758576 0.058190 0.098510 0.074619 0.240156 -0.195988 -0.433015 0.001538 0.455148 -1.136010 -0.895247 0.576135 0.422996 -0.240308 -0.194310 0.337485 -0.137440 0.408901 0.063747 0.135241 0.715841 0.266416 -0.202705 0.324128 -0.693421 -0.449449 -0.067991 0.614341 0.562130 0.705695 0.582903
repositoryresthandlermapping 0.071906 -0.838421 -0.452411 -0.772209 -0.087132 -0.481752 0.607863 0.750013 0.100370 -0.946675 0.403273 0.195030 0.428401 -0.587314 -0.355223 -0.814942 0.076910 0.243247 -0.322109 0.703935 -0.187915 -0.662393 0.207704 -0.211581 -0.100152 -0.614700 0.280515 -0.381131 0.885223 0.282162 -0.038762 -0.135072 0.020749 -0.331874 0.361381 0.296379 -0.083351 0.017425 -0.149680 -0.126812 -0.781879 -0.675860 -1.190119 0.541286 -0.902579 1.208399 -0.083834 -0.613181 -0.482091 -0.378087
repository -0.364552 -0.934493 -0.034524 -0.715169 -0.139506 -0.551323 0.563616 0.329119 0.252960 -0.702369 0.311312 0.173207 0.327450 -0.471131 -0.387183 -0.794747 0.013366 0.093786 -0.137252 0.639932 -0.252805 -0.809076 0.235894 -0.269410 -0.016457 -0.494266 -0.042610 -0.415972 1.110955 0.265710 -0.145188 -0.219038 0.122390 -0.366584 0.277823 0.405625 -0.012306 -0.069959 -0.067946 -0.378553 -0.492899 -0.691663 -1.001497 0.668322 -0.889513 0.987453 -0.129044 -0.520595 -0.570907 -0.215933
rootresourceinformation 1.315051 -0.360662 -0.180826 0.011817 -0.190278 -0.164569 0.006925 0.485948 0.225115 -0.705777 -0.163266 -0.161796 0.968562 -0.452597 -0.258656 0.177260 -0.141310 1.157121 -1.173694 -0.551810 0.080926 0.858754 0.413187 -0.128468 0.046820 -0.671423 0.751989 -0.369353 -1.328529 -1.050934 0.757980 0.212610 0.203524 -0.046026 -0.013626 0.283854 -0.050640 -0.661540 -0.112603 0.492462 0.567613 -0.034070 -0.352740 -1.038100 0.233804 -0.020674 0.350042 0.416475 0.059912 -0.126828
charset -0.096620 -1.148775 0.268755 -0.061058 -1.004964 -0.264521 -0.048364 -0.224284 -0.723305 -0.897267 0.159120 -0.731380 0.230941 -0.150877 0.689932 -0.934066 0.689408 -0.095984 0.041239 -0.055614 -0.233072 0.651669 0.238879 0.213736 -0.890545 -0.325315 -0.824937 -1.206947 0.608504 0.303625 -0.211314 0.378820 -0.001273 -0.566022 0.176965 0.952995 -0.260285 -0.968729 -0.480837 -0.664432 0.419041 0.189094 -0.776065 0.216368 0.008390 0.784021 -0.616262 -0.410123 -0.328948 -0.442623
hal -0.492134 -1.088576 -0.285489 -0.309727 -0.590932 -0.862705 0.637054 -0.270408 -0.679069 -0.874589 0.335391 -0.592074 0.171816 -0.257114 0.460211 -1.051191 0.260460 -0.306143 0.298477 0.488146 -0.134766 -0.074581 -0.028768 0.283779 -0.935409 -0.645400 -0.589943 -1.197656 1.052498 0.630534 -0.576521 0.432495 0.090100 -0.597114 0.306641 0.493486 0.037631 -0.499125 -0.247969 -0.599178 -0.056896 -0.409605 -1.048475 0.383412 -0.692145 1.280171 -0.249373 -0.571317 -0.334457 0.026720
utf -0.081804 -1.162749 0.417525 -0.006693 -1.139292 -0.168331 -0.150138 -0.287942 -0.572223 -0.800555 0.109051 -0.692352 0.263200 -0.150067 0.742546 -0.859457 0.687741 -0.039361 0.026583 -0.199463 -0.295624 0.742106 0.255571 0.215895 -0.847728 -0.236081 -1.001695 -1.126709 0.575690 0.246310 -0.178468 0.364759 -0.074176 -0.589308 0.178243 0.988133 -0.333560 -1.012788 -0.425606 -0.644954 0.494418 0.253460 -0.630629 0.166399 0.075941 0.621212 -0.658949 -0.312563 -0.313729 -0.462638
e 0.816812 -0.484042 0.271924 0.084273 -0.635857 0.353768 -0.171011 0.708682 0.849171 -0.295617 0.727718 0.414905 0.313269 0.239779 0.242709 -0.267060 -0.285802 0.704643 -0.977377 -0.022482 -0.729747 -0.208076 -0.185909 0.323161 0.608906 -0.231808 -0.383128 0.062565 -0.150449 0.528082 -0.375657 0.132066 -0.285294 -1.034907 0.789299 0.694673 -0.786647 0.086558 1.115058 0.244692 -1.088705 0.212916 -0.020729 -0.771420 -1.056930 0.090371 0.366169 0.697036 -0.677343 -0.032196
c 1.116780 -0.162027 -0.505080 -0.014065 -0.677341 0.456161 -0.394302 1.188801 0.040801 -0.677611 0.647879 0.566231 -0.036333 0.236295 0.653009 -0.127562 -0.104759 0.567521 -0.514930 0.374185 -0.701704 0.440566 -0.005565 0.344318 0.213731 -0.167864 0.316238 0.475321 -0.293902 0.614657 -0.090693 0.009693 -0.449039 -0.413350 0.417883 0.144625 -0.627227 0.091990 0.289200 0.780922 -1.435829 -0.044733 -0.359229 -0.433218 -0.962815 0.716317 0.261018 0.407886 -0.395186 -0.779009
get -0.470874 -0.738952 -0.235907 -0.338759 -0.381759 -1.193758 0.936516 -0.661441 0.373970 -0.177061 0.045225 -0.344325 0.404820 -0.402873 -0.171983 -0.369369 -0.272514 0.181519 0.018760 0.204545 0.041529 -0.410146 0.104653 0.072116 -0.397572 -0.476459 -0.658984 -0.563108 0.635262 -0.244915 -0.233417 0.259264 0.158788 -0.253432 0.184074 0.533861 0.309151 -0.359550 0.268378 -0.124583 0.089125 -0.786953 -0.284673 0.158624 -0.788276 0.523441 0.097745 0.021631 0.046052 0.462199
responseentity 0.085696 -0.875445 0.050630 0.331555 -0.784069 -0.800214 0.029807 -0.642664 -0.921497 -0.505411 -0.394301 -0.951821 0.774069 -0.824478 0.588876 -0.204425 0.432933 -0.032775 -0.009799 -0.782224 0.064984 1.002064 -0.047491 0.481425 -1.099107 -0.380837 -0.538949 -1.247574 -0.474133 -0.302736 0.107831 0.818622 0.099784 -0.196410 -0.301168 0.157537 0.531014 -0.971756 -0.755564 -0.560410 1.528495 0.425965 -0.280778 -0.428198 0.489207 0.268052 -0.146537 -0.002904 0.266335 0.410335
f 1.270035 0.055216 -0.295838 -0.131601 -0.320125 0.630572 -0.276314 1.395645 0.146967 -0.516320 0.717715 0.623791 0.148732 0.272828 0.337641 0.130053 -0.161718 0.846255 -0.646011 0.297294 -0.518594 0.289701 0.106123 0.353494 0.566377 0.117989 0.518450 0.471474 -0.505637 0.299361 0.016822 -0.203565 -0.100868 -0.627883 0.408925 0.023928 -0.758495 0.338902 0.432610 0.611136 -1.160850 0.007216 -0.129972 -0.542095 -0.626497 0.328236 0.371732 0.601879 -0.403592 -0.724750
false 0.499253 0.226841 -0.554641 -0.420474 -0.251088 0.606988 -0.215821 1.006613 -0.203376 -0.541334 0.508031 0.589254 -0.293710 0.214583 0.435132 -0.317324 -0.327755 0.261683 -0.042906 0.589510 -0.193412 0.144608 -0.076935 0.060339 0.022512 -0.216624 0.385415 0.433868 0.256866 0.852167 -0.272664 -0.277997 -0.531609 -0.178033 0.414445 -0.373662 -0.817717 0.300163 0.034098 0.896912 -1.316206 -0.357168 -0.447662 0.010733 -0.542435 0.609636 -0.044087 -0.170528 -0.163063 -0.736573
exec 0.477988 -0.021771 -0.720143 -0.677377 0.054976 0.218497 0.389620 0.996878 -0.162891 -0.976809 0.463298 0.684868 -0.194721 0.116810 0.195654 -0.610655 -0.407304 0.396559 -0.309307 0.740237 0.235346 -0.019352 0.026220 0.172964 -0.325006 -0.755480 0.457625 -0.144702 0.674680 0.818948 -0.439610 -0.246957 -0.492487 -0.337302 0.634527 -0.252647 -0.614141 0.033082 0.311181 0.786843 -1.425261 -0.533969 -0.687538 -0.010921 -0.518356 0.979952 0.189727 -0.312640 -0.103928 -0.290803
nio 0.445504 0.079878 -0.697310 -0.624413 0.023985 0.367490 0.319330 1.090892 -0.127764 -0.916328 0.493775 0.700708 -0.193992 0.182352 0.246935 -0.479582 -0.394248 0.341969 -0.286586 0.758345 0.063051 0.025485 0.024542 0.162230 -0.258276 -0.743829 0.497686 0.067821 0.554752 0.791835 -0.369626 -0.285893 -0.539303 -0.280795 0.588096 -0.297327 -0.629397 0.115592 0.293588 0.913933 -1.470948 -0.550426 -0.615799 -0.084811 -0.556631 0.926990 0.180663 -0.283028 -0.158510 -0.337909
p 0.521961 0.170610 -0.640803 -0.557811 -0.017501 0.466513 0.146859 1.130348 -0.123309 -0.797159 0.529769 0.711324 -0.190865 0.183231 0.259548 -0.360445 -0.437127 0.322019 -0.273659 0.690438 -0.038371 0.047777 -0.004033 0.126292 -0.152964 -0.633372 0.536667 0.215369 0.399022 0.755592 -0.273892 -0.325798 -0.562172 -0.249026 0.513294 -0.363250 -0.681962 0.186345 0.198782 0.957821 -1.402300 -0.505655 -0.561294 -0.103231 -0.543944 0.851923 0.153832 -0.233236 -0.176145 -0.439124
web 1.392551 0.007796 -0.407790 0.266513 0.364334 -0.261550 0.115562 0.321794 -0.666836 -0.472746 0.082854 0.475397 0.215082 -0.452078 0.049205 -0.346853 -0.131992 0.515961 -0.363154 -0.233056 1.142401 0.369871 -0.198855 0.671257 -0.447351 0.322709 0.296275 -0.671238 -0.425622 0.073189 -0.346726 0.252482 -0.250509 -0.570842 0.341418 -0.481272 -0.293927 0.003746 -0.023362 -0.020289 -0.244526 0.553762 0.121246 0.074423 0.320744 0.121813 0.613908 0.435361 0.660213 0.236362
throws 1.211654 0.061972 -0.528659 0.322757 -0.129935 -0.443326 0.093700 0.368409 0.094698 -0.078496 -0.049509 -0.014085 0.674689 -0.622808 0.042146 0.541732 0.079532 0.531919 -0.585616 -0.580248 0.385110 0.451745 0.075083 0.334066 -0.177676 -0.015090 0.142849 0.147668 -0.969227 -0.726678 0.490542 0.199786 -0.204385 -0.069897 0.092622 -0.139965 0.275530 -0.084460 -0.121576 0.448459 0.258690 0.127775 0.343573 -0.363190 0.023504 0.065885 0.478219 0.604986 0.674950 0.365413
hateoas 0.350775 -0.549235 0.280964 0.665408 -0.683754 -0.433668 -0.708258 -0.667863 -1.117590 -0.196937 -0.495836 -0.902413 0.310083 -0.334682 0.599329 -0.194145 0.466323 0.025953 0.234405 -0.680473 0.635713 1.264991 0.100021 0.332289 -0.765161 0.328655 -0.322777 -0.866254 -0.732501 -0.207519 0.115290 0.631517 0.240656 -0.146146 -0.337946 -0.064964 0.204094 -0.836952 -1.018681 -0.462723 1.384357 0.603156 -0.206436 -0.234377 0.689801 0.011165 -0.103957 0.216634 0.388184 -0.192346
m 0.791906 -0.233008 -0.365735 -0.272115 -0.761982 0.317541 0.022139 0.771581 0.800857 -0.308518 0.465023 0.873657 0.263835 -0.444117 0.172063 -0.348542 -0.304207 0.828028 -0.545634 0.063899 -0.538224 -0.403520 -0.198787 0.344790 0.113800 -0.107345 -0.441142 0.452248 0.307062 0.566781 -0.396464 -0.046309 -0.654329 -0.692067 0.873965 -0.006859 -0.748633 0.353797 0.965735 0.719924 -1.372690 -0.095430 0.034226 -0.323855 -0.845745 -0.049761 0.304514 0.284423 -0.048133 -0.286707
servlet 0.700902 -0.046918 -0.248437 0.217065 0.415670 -0.155694 0.187653 0.515572 -1.157229 -0.541539 -0.055350 0.855479 0.267520 -0.705395 0.271559 -0.644258 0.220824 -0.170767 -0.042095 -0.118342 0.602239 -0.075585 -0.388422 0.891539 -0.736358 0.403991 0.298589 -0.716090 0.169692 0.848821 -0.730449 0.491819 -0.186164 -0.553061 0.205623 -1.024513 0.150626 0.741482 -0.132502 -0.636084 -0.325843 1.030238 0.044325 0.449837 0.391236 0.103953 0.638686 0.133218 0.439408 0.273441
mvc 0.315949 -0.029370 0.080105 -0.417236 -0.068420 0.421072 0.010909 0.298489 0.782381 -0.189923 0.522743 0.010757 -0.046767 0.236858 -0.159157 -0.120358 -0.625295 0.748078 -0.570106 0.143332 -0.305538 -0.100529 -0.106636 -0.179775 0.472025 -0.209160 -0.112070 -0.196246 -0.204729 0.024147 -0.266412 -0.325229 -0.113216 -0.555779 0.441467 0.559411 -1.128992 -0.296091 0.526787 0.378789 -0.534326 -0.254400 -0.088177 -0.620713 -0.461116 -0.135091 -0.271364 0.054755 -0.595638 -0.206304
object 0.331463 -0.205877 -0.406524 -0.067508 -0.739580 -0.509563 0.184683 -0.293066 0.356360 0.137887 0.271354 -0.688094 0.531447 -0.576762 0.195271 0.224232 -0.391947 0.532301 -0.257008 -0.514900 -0.176983 0.350476 -0.247741 0.149276 -0.433769 -0.536879 -0.578836 -0.350020 -0.804688 -0.520103 -0.158263 0.387773 -0.138437 -0.359470 0.211954 0.116580 -0.268044 -0.441647 0.057989 0.454006 0.588813 -0.350126 0.238389 -0.986749 -0.520830 -0.169604 -0.211191 0.012269 0.107229 0.598225
id -0.713279 -0.724773 -0.007700 -0.711040 -0.089671 -0.595265 0.606765 0.228205 0.159479 -0.453079 0.215149 0.222033 0.217403 -0.522902 -0.388396 -0.661310 0.036547 -0.123925 0.087613 0.628490 -0.248541 -0.980152 0.189910 -0.208643 -0.091841 -0.358231 -0.133029 -0.254796 1.258246 0.310962 -0.259230 -0.235008 0.163101 -0.225803 0.176621 0.106067 0.216501 0.170212 -0.082438 -0.443080 -0.348707 -0.626064 -0.797833 0.782697 -0.814549 0.799353 -0.099730 -0.566721 -0.494252 -0.005130
persistententityresourceassembler 1.180908 0.008414 -0.219370 0.237085 0.140065 -0.138972 -0.043540 0.320827 -0.075273 -0.388174 -0.165648 -0.066515 0.516825 -0.279567 -0.031487 0.333162 -0.023682 0.719016 -0.736267 -0.492235 0.427526 0.745776 0.147890 0.167602 -0.071727 -0.047467 0.423400 -0.360774 -1.043853 -0.705313 0.444270 0.130499 -0.054039 -0.062310 -0.045162 0.142528 -0.024532 -0.473331 -0.078429 0.253484 0.416999 0.315154 0.103381 -0.554488 0.394048 -0.104054 0.263413 0.550307 0.371305 0.070370
io 0.538687 0.041468 -0.192111 0.196072 -0.143828 -0.497781 0.175511 -0.197330 0.312481 0.047437 -0.451094 -0.521307 0.889469 -0.607278 -0.368339 0.621135 0.100614 0.532238 -0.661583 -0.896824 0.023407 0.620381 0.375284 -0.251824 -0.178773 -0.654191 0.334049 -0.064053 -1.345311 -1.457355 0.858099 0.319877 0.289784 0.480429 -0.319669 0.072552 0.651090 -0.392413 -0.275420 0.342769 1.238017 -0.151062 0.265738 -0.854848 0.426046 -0.440475 0.246578 0.235292 0.418781 0.494877
boot 0.781053 0.170914 -0.103933 -0.233099 0.533469 0.160049 0.103709 -0.209910 0.001664 -0.397826 0.199502 -0.324841 -0.207579 0.332545 -0.166137 -0.101401 -0.820565 0.882214 -0.484025 -0.102431 0.495501 0.720232 -0.097292 -0.076675 0.038001 -0.341409 0.396264 -1.167608 -0.866959 -0.525742 -0.257191 0.003506 0.126148 -0.300547 0.088443 0.375000 -1.026998 -0.896983 0.293696 0.215101 0.408306 -0.047015 -0.011137 -1.080123 0.267679 -0.351850 -0.255621 0.189063 -0.114184 0.168417
repositoryentitycontroller 0.378513 0.184172 0.441158 0.174367 0.794734 0.264621 -0.233049 -0.393635 -0.320715 -0.058588 -0.557082 -0.253795 -0.145849 0.212264 -0.409830 -0.019828 -0.181020 0.277203 -0.047595 -0.225158 0.815094 0.666327 0.033173 -0.505879 0.164349 0.353783 0.558195 -0.561259 -0.524753 -0.484543 0.435547 -0.160551 0.093218 0.369454 -0.552314 0.058259 -0.307025 -0.710595 -0.444030 -0.273539 0.880200 0.423841 -0.194402 0.069628 1.277374 -0.440873 -0.271182 -0.094445 0.261575 -0.422754
search -0.881663 -0.644032 0.111901 -0.573870 0.083287 -0.608940 0.650001 -0.094179 0.163694 -0.289584 0.025988 0.130783 0.182193 -0.423581 -0.547462 -0.627042 0.015818 -0.223895 0.239523 0.569964 -0.059698 -0.918931 0.138677 -0.314927 -0.074401 -0.382647 -0.116455 -0.289704 1.187437 0.168476 -0.168391 -0.266260 0.194285 -0.075014 0.100450 0.160677 0.279286 0.040536 -0.096621 -0.488626 -0.132490 -0.638362 -0.698128 0.831845 -0.482409 0.630374 -0.093475 -0.647214 -0.340080 0.091661
serializable 0.617866 -0.061162 -0.234002 0.183409 -0.306232 -0.591727 0.210514 -0.206882 0.436549 0.062777 -0.349900 -0.594042 0.933549 -0.648382 -0.288749 0.647942 0.029362 0.640136 -0.685880 -0.900992 -0.018478 0.612329 0.341154 -0.230388 -0.165833 -0.656723 0.180068 -0.054376 -1.359467 -1.464799 0.828231 0.323610 0.248701 0.345688 -0.210261 0.171839 0.565203 -0.438850 -0.212996 0.426979 1.188894 -0.274235 0.275108 -0.918525 0.232281 -0.369828 0.218289 0.299547 0.403769 0.519953
resourcesupport 0.495653 -0.509886 0.296407 0.591241 -0.510552 -0.330603 -0.568569 -0.565551 -0.998669 -0.328810 -0.469293 -0.833668 0.304334 -0.248381 0.469651 -0.207898 0.420158 0.138035 0.053469 -0.611456 0.644326 1.242459 0.132037 0.192032 -0.660248 0.284582 -0.154428 -0.935271 -0.699404 -0.311483 0.252248 0.500724 0.223144 -0.104396 -0.331967 0.109093 0.110890 -0.897441 -0.885899 -0.413839 1.304236 0.584648 -0.320482 -0.207335 0.792167 0.036087 -0.131898 0.205696 0.342492 -0.267267
bean 0.174723 -0.580783 0.431989 0.139321 -0.209846 0.262596 -0.245307 -0.430161 1.066212 0.068584 -0.287964 0.242930 0.241729 0.191901 -0.263815 -0.305003 -0.022888 0.056849 -0.782411 -0.517375 0.104847 -0.556741 -0.232237 -0.513907 0.227228 -0.476884 -0.484248 0.205151 0.170562 0.308028 0.361795 0.234792 -0.377320 -0.213840 0.636017 0.535426 0.038989 -0.114551 0.792870 0.080442 -0.162642 0.595137 0.133512 -0.170703 -0.125147 -0.221232 0.185142 -0.053940 -0.018283 0.370295
for -0.786489 -0.232918 0.383632 -0.223191 -0.096349 -0.308572 1.022418 0.344329 0.755826 0.234465 0.241686 -0.126191 0.644808 -0.121699 -0.121030 0.721152 0.346258 -0.300813 -0.208118 0.417523 -1.050417 -0.942567 0.443388 0.065069 0.570028 -0.511489 -0.141802 0.194396 0.332547 -0.650487 0.211763 -0.446974 0.445861 -0.525429 0.064729 0.538929 0.379531 0.327399 0.557891 -0.342605 0.197719 -0.479861 -0.092709 -0.009467 -0.454011 0.307260 0.299786 0.151042 -0.527914 0.534563
httprequestmethodnotsupportedexception 1.372664 0.065639 -0.294347 0.310879 0.488048 -0.090957 0.079951 0.401351 -0.661033 -0.441300 0.045360 0.572499 0.155001 -0.293105 0.083007 -0.155752 -0.158967 0.542807 -0.393524 -0.222596 1.005201 0.353789 -0.270017 0.723842 -0.288975 0.404722 0.410069 -0.691275 -0.523279 0.076652 -0.327992 0.174838 -0.160348 -0.571342 0.286212 -0.443550 -0.283398 0.009285 0.175151 -0.118437 -0.229690 0.674358 0.270127 -0.042529 0.437918 0.016057 0.617934 0.508726 0.613276 0.276374
actuate 0.809035 0.277859 -0.082085 -0.309438 0.644437 0.196905 0.126794 -0.315007 0.116430 -0.361322 0.111462 -0.281593 -0.334096 0.299626 -0.377882 -0.113652 -0.917140 1.029702 -0.549359 -0.143833 0.734136 0.702757 -0.011520 -0.209698 0.106667 -0.174642 0.365966 -1.126932 -0.855521 -0.629435 -0.219781 -0.107874 0.155373 -0.179994 0.046042 0.424667 -1.178412 -0.969473 0.215954 0.273177 0.408364 -0.052490 0.080545 -0.971794 0.476460 -0.541243 -0.359727 0.168287 0.015944 0.030100
support 0.430598 -0.079299 0.066273 0.323569 -0.137877 -0.271381 -0.096633 -0.244151 -0.289669 -0.238770 -0.382107 -0.440180 0.303266 -0.206774 0.155084 0.263078 0.267798 0.132301 -0.261634 -0.491876 0.340003 0.775999 0.277337 0.139461 -0.324144 0.050748 -0.045247 -0.345051 -0.573610 -0.588390 0.469680 0.200015 0.075976 0.136014 -0.309274 0.224710 0.288952 -0.678183 -0.564290 -0.103280 0.867267 0.364972 0.062294 -0.152858 0.673231 0.071683 0.046198 0.345205 0.366883 -0.003435
cart 0.916375 0.043245 -0.074290 0.140486 -0.014302 -0.272623 -0.096367 -0.272298 -0.046918 -0.077251 -0.528838 0.167099 0.093746 -0.536884 -0.305151 -0.103289 -0.096955 0.791284 -0.253224 -0.562282 1.053876 0.536907 0.113128 -0.062825 -0.152871 0.528645 -0.050662 -0.324434 -0.494514 -0.423091 0.334470 0.055058 -0.050102 0.128333 -0.105924 -0.110851 -0.297428 -0.355258 -0.229819 0.079870 0.445402 0.358689 0.239811 0.047459 0.849357 -0.564504 0.038290 0.322329 0.861453 -0.278467
cloud 0.720256 0.145792 -0.019659 0.128062 0.297325 0.075122 -0.313408 -0.032423 -0.422109 -0.243459 -0.131394 0.039759 -0.201707 0.062645 -0.127976 -0.208897 -0.358025 0.552675 -0.178169 -0.221193 0.681086 0.618699 -0.169472 0.027532 -0.077345 0.123504 0.315127 -0.673395 -0.483653 0.037298 -0.105596 0.164720 0.003869 -0.001254 -0.074335 -0.115397 -0.421161 -0.408104 0.006499 -0.021035 0.254702 0.419215 -0.074710 -0.455650 0.500160 -0.259371 -0.057768 0.191485 0.281262 -0.088318
fb 1.396057 0.230845 -0.119529 0.168556 -0.046457 0.806754 -0.415962 1.032634 0.362425 -0.128943 0.441699 0.707610 0.015878 0.560527 0.108533 0.148325 -0.266846 0.982877 -0.672045 0.098566 -0.062965 0.165953 -0.187979 0.212538 0.827540 0.540029 0.398559 0.551009 -0.591474 0.234047 0.068598 -0.122872 0.103507 -0.569846 0.500653 0.053576 -0.869255 0.506036 0.976451 0.408808 -1.180580 0.369251 0.206461 -0.574721 -0.511400 -0.301478 0.440547 0.887053 -0.194584 -0.352170
context 0.735207 0.419187 -0.162242 0.031558 0.441116 0.161749 -0.426423 0.350031 -0.892307 -0.252817 -0.071367 0.370247 -0.571155 0.226488 -0.024363 -0.265690 -0.383735 0.421509 0.143937 0.010341 0.810121 0.690096 -0.200795 0.192945 -0.116687 0.294598 0.568215 -0.636098 -0.214085 0.472806 -0.230110 0.048784 0.043187 0.065235 -0.178907 -0.494656 -0.557997 -0.161575 -0.049553 -0.089260 0.056687 0.297735 -0.025344 -0.415737 0.597297 -0.169770 -0.152703 0.175885 0.471289 -0.175387
endpointhandlermapping -0.029263 -0.398852 0.249064 -0.303738 -0.588396 0.336062 -0.098646 0.545484 0.902932 -0.010160 0.687490 0.065198 0.174010 0.072208 0.063086 -0.145879 -0.217448 0.295333 -0.366645 0.309164 -0.903081 -0.457485 -0.017102 -0.207991 0.593310 -0.277436 -0.388685 0.451683 0.208374 0.307550 -0.123520 -0.293739 -0.234716 -0.566059 0.484972 0.598488 -0.717049 0.098705 0.411550 0.301357 -0.856539 -0.440234 -0.278680 -0.253619 -1.098575 0.289587 -0.191429 -0.058033 -0.828562 -0.335189
socks 0.962443 -0.056001 -0.017710 0.159353 -0.150633 -0.326498 -0.100265 -0.378739 -0.036756 -0.088568 -0.562960 0.156985 0.138056 -0.593910 -0.254191 -0.163896 -0.090938 0.874263 -0.268927 -0.643160 1.093523 0.607065 0.157790 -0.031280 -0.232127 0.580891 -0.221602 -0.383597 -0.439357 -0.452173 0.307480 0.092156 -0.076652 0.047466 -0.073856 -0.039260 -0.345030 -0.451993 -0.226314 0.083992 0.493390 0.373411 0.254357 0.093482 0.869450 -0.575177 0.012118 0.389871 0.925483 -0.334640
weave 0.897951 -0.132902 0.021083 0.193230 -0.267313 -0.327047 -0.083263 -0.461330 -0.027408 -0.065694 -0.526838 0.101751 0.152082 -0.544868 -0.164034 -0.160289 -0.074619 0.835972 -0.246932 -0.665148 1.026452 0.627687 0.175890 0.018117 -0.295003 0.564091 -0.352976 -0.380527 -0.371842 -0.450436 0.252676 0.125950 -0.086445 -0.020026 -0.041178 0.043466 -0.336614 -0.505522 -0.211124 0.083823 0.502136 0.346230 0.285568 0.100369 0.816444 -0.533760 -0.018006 0.421116 0.916781 -0.331901
works 0.757720 -0.164257 0.083374 0.240120 -0.352632 -0.276256 -0.096800 -0.532298 -0.033805 -0.013304 -0.475819 0.054793 0.128589 -0.433118 -0.033244 -0.148004 -0.031635 0.720464 -0.190489 -0.637303 0.883970 0.633055 0.189624 0.095558 -0.329372 0.524320 -0.481521 -0.344150 -0.280364 -0.414617 0.176254 0.150735 -0.104261 -0.091225 -0.006330 0.113161 -0.316726 -0.530942 -0.150733 0.079598 0.456175 0.347117 0.323941 0.079343 0.726533 -0.488966 -0.030946 0.451443 0.844666 -0.291257
class 0.379614 -0.141121 -0.278093 0.156424 0.090545 -0.411803 0.052259 -0.522663 -0.100108 -0.082130 -0.508191 -0.079166 0.129411 -0.331663 -0.191265 -0.115496 -0.055920 0.134790 -0.194572 -0.486399 1.152629 0.137811 -0.095607 -0.127235 -0.450845 -0.218730 -0.062334 -0.288273 -0.192142 -0.184390 0.215221 0.305771 -0.220194 0.174262 0.250750 -0.132535 0.353141 -0.302563 -0.068621 0.194376 0.539020 0.274385 0.154937 0.060894 0.516964 -0.295737 0.226705 -0.115645 0.619356 0.602709
type 0.659968 -0.076774 -0.421733 0.091586 0.042479 -0.237992 -0.001965 -0.383395 0.107113 -0.112971 -0.430291 0.115088 0.081299 -0.436946 -0.266026 -0.076300 -0.075783 0.442230 -0.413283 -0.535168 1.130002 0.150739 -0.040171 -0.074266 -0.321056 -0.337062 0.037246 -0.186758 -0.216805 -0.276269 0.216186 0.311753 -0.249430 0.145316 0.371020 -0.069213 0.241631 -0.337355 0.177960 0.431118 0.269063 0.357696 0.235224 -0.165216 0.448547 -0.579779 0.179313 -0.002597 0.612350 0.667432
repositorysearchcontroller 0.357874 0.512372 0.357682 0.293759 0.719584 0.215061 -0.255062 -0.362609 -0.204281 0.093773 -0.589870 -0.140465 -0.162886 0.157755 -0.457528 0.327197 -0.114126 0.228893 -0.052981 -0.445424 0.829336 0.619917 0.166547 -0.438506 0.158803 0.355792 0.453179 -0.347931 -0.660547 -0.721575 0.499974 -0.213665 0.071431 0.453457 -0.474903 -0.127544 -0.128231 -0.430275 -0.441446 -0.116943 0.942044 0.425487 0.117582 0.040826 1.306135 -0.602937 -0.097903 -0.001744 0.424079 -0.118857
endpoint 0.660545 0.423538 -0.229603 -0.432199 0.441383 0.267784 0.058817 -0.026249 0.212763 -0.327080 0.212459 -0.133328 -0.297823 0.166012 -0.341587 0.021168 -0.857451 1.059085 -0.442057 -0.026032 0.492923 0.556273 -0.050999 -0.132889 0.135078 -0.063103 0.269986 -0.810675 -0.663330 -0.455594 -0.235223 -0.264189 0.077168 -0.240074 0.061764 0.230300 -1.170590 -0.708989 0.205876 0.394659 0.087125 -0.145620 0.039581 -0.847919 0.371597 -0.480368 -0.396824 0.112720 -0.049093 -0.126868
with 0.181217 -0.511464 0.261339 0.229041 -0.106972 0.276370 -0.087185 -0.216985 0.977246 0.237278 -0.164645 0.210019 0.285332 0.290535 -0.384478 -0.209299 0.039213 -0.129705 -0.723131 -0.356286 -0.056086 -0.832801 -0.123313 -0.326199 0.389293 -0.281035 -0.264422 0.422118 0.402442 0.277370 0.277892 -0.002767 -0.251799 -0.132260 0.655781 0.486974 0.088314 0.297863 0.692631 0.057986 -0.436406 0.516869 0.118662 0.194583 -0.275997 -0.104304 0.289708 -0.050708 -0.096698 0.292114
to -0.212862 -0.158698 -0.145491 -0.127704 0.598401 -0.592021 0.843461 0.197072 0.011576 -0.082270 -0.070514 0.376416 0.543147 -0.526587 -0.343735 0.151220 0.093999 -0.254340 -0.339856 0.088638 -0.019171 -0.711523 0.085531 0.394170 -0.148205 -0.179376 0.222322 -0.137746 0.216909 -0.293556 -0.296067 0.155065 0.220733 -0.172602 0.002588 -0.263678 0.883056 0.534413 0.216865 -0.402949 -0.050775 0.092728 0.148752 0.293583 -0.180808 0.135712 0.530812 0.062634 -0.008043 0.841437
exception 0.955510 0.245025 -0.746628 -0.105233 -0.077697 -0.328645 0.404492 0.736931 0.554896 0.017750 0.184507 0.423571 0.687108 -0.730959 -0.213202 0.636709 -0.201010 0.595375 -0.718020 -0.400021 -0.046373 -0.134321 -0.052442 0.333731 -0.003842 -0.391055 0.316973 0.440303 -0.810404 -0.620424 0.244670 0.131161 -0.211030 -0.072753 0.324694 -0.396917 0.246174 0.401633 0.421798 0.721459 -0.233958 -0.148021 0.528318 -0.696212 -0.464909 -0.083764 0.548852 0.411121 0.426293 0.715435
httpentity 0.323680 -0.417666 -0.024788 0.257787 -0.258996 -0.467771 0.063741 -0.343186 -0.732075 -0.445892 -0.300977 -0.411670 0.516437 -0.530251 0.368022 -0.180378 0.222257 0.056734 -0.112273 -0.516866 0.295958 0.680456 -0.074761 0.444147 -0.748311 -0.179056 -0.129803 -0.943603 -0.373576 -0.182153 0.027929 0.530286 -0.011326 -0.190303 -0.183034 -0.037516 0.325874 -0.552240 -0.412284 -0.409230 0.890387 0.430491 -0.151956 -0.234577 0.529996 0.158447 0.074755 0.085415 0.341120 0.277297
mongodb -0.361219 -0.019714 0.271617 -0.025162 0.291269 -0.385396 0.359150 -0.557848 -0.188065 -0.142635 -0.527879 -0.416058 0.005674 0.240845 -0.023396 0.331788 0.219911 0.075751 0.013046 -0.244719 0.584018 0.595023 0.443796 -0.007961 -0.140959 -0.303004 -0.051984 -0.414728 -0.186339 -0.727801 0.150527 -0.063999 0.315084 0.280620 -0.444314 0.240574 0.688312 -0.756942 -0.108420 -0.325716 0.839479 -0.277399 0.133605 -0.002697 0.683863 0.209169 0.068905 0.127240 0.197509 0.350464
property -1.052070 -0.389669 -0.031623 -0.672292 0.169663 -0.595554 0.626017 -0.119884 0.262717 -0.062200 0.005894 0.148656 0.024936 -0.389971 -0.561546 -0.390435 -0.070477 -0.326984 0.262104 0.542642 -0.145402 -1.073808 0.125633 -0.327593 -0.005547 -0.308225 -0.084166 -0.032170 1.196649 0.156935 -0.164847 -0.253662 0.205490 0.144890 -0.008806 -0.044998 0.453718 0.247873 -0.086633 -0.378197 -0.124171 -0.670346 -0.501954 0.773362 -0.589260 0.487583 -0.093974 -0.602417 -0.325393 0.209227
repositorypropertyreferencecontroller 0.428962 0.210991 0.157898 0.036175 0.471096 0.340325 -0.237624 0.221914 -0.233952 -0.277496 -0.114591 0.135073 -0.309166 0.372893 -0.206484 -0.145161 -0.103733 0.199173 -0.079424 0.171581 0.467408 0.246687 0.020597 -0.284420 0.266338 0.249207 0.576165 -0.203948 -0.142617 0.077367 0.134857 -0.232906 0.050216 0.101985 -0.122941 -0.046102 -0.348004 -0.141615 -0.118380 -0.018703 -0.052251 0.229621 -0.351585 0.109181 0.492967 -0.017492 -0.024935 0.020963 -0.055473 -0.455556
options -0.775735 -0.699475 -0.119689 -0.321214 -0.203826 -0.857309 0.707832 -0.377380 -0.140163 -0.347008 0.098153 -0.295343 0.243844 -0.261807 -0.034353 -0.563452 -0.016578 -0.282607 0.298635 0.456238 -0.113381 -0.466743 0.017328 0.032492 -0.442424 -0.487105 -0.375027 -0.540468 0.922807 0.190340 -0.290724 0.150954 0.176469 -0.216979 0.093703 0.269294 0.385333 -0.181403 -0.040405 -0.419672 0.027493 -0.601339 -0.629244 0.479344 -0.636300 0.784164 -0.004844 -0.395826 -0.197918 0.254720
autoconfigure 0.978117 0.605935 -0.051614 -0.063681 1.063135 0.504713 -0.193770 -0.029032 -0.145378 -0.224498 -0.215884 0.281033 -0.505845 0.286042 -0.537939 0.014218 -0.625830 0.683516 -0.395392 -0.135007 1.047494 0.543372 -0.004553 -0.255004 0.316455 0.244282 0.863973 -0.559159 -0.796441 -0.432468 0.085780 -0.188148 0.083756 0.243874 -0.096789 -0.209632 -0.791211 -0.378068 0.076664 0.252505 0.199559 0.408166 0.124867 -0.467756 0.898847 -0.677090 -0.024681 0.215537 0.313073 -0.150224
invoke 0.537040 0.388400 -0.216694 -0.302752 0.515528 0.244269 0.262683 0.281943 0.370161 -0.277752 0.070907 0.361030 -0.064631 0.062971 -0.443716 0.227276 -0.464955 0.687370 -0.535387 0.031754 0.361448 -0.020008 0.005103 0.104142 0.204978 -0.004187 0.387777 -0.281263 -0.268841 -0.362218 -0.069147 -0.354597 0.014513 -0.188916 0.186744 0.041895 -0.536129 -0.138686 0.511306 0.324317 -0.314753 0.089507 0.165773 -0.347118 0.320353 -0.326474 0.094578 0.227332 0.021521 0.112761
util 0.077456 -0.069253 -0.241121 0.426724 -0.889598 -0.443091 -0.058465 -0.296852 0.336017 0.689192 -0.077941 -0.701846 0.768179 -0.518556 0.286656 0.738291 0.216961 -0.073717 -0.003424 -0.793390 -0.512393 0.182585 0.021826 0.071273 -0.272298 -0.303587 -0.423153 0.724161 -0.953658 -0.732295 0.431910 0.489869 -0.046374 0.170015 -0.076630 -0.123444 0.683190 0.000405 -0.311491 0.362557 1.000707 -0.283863 0.574627 -0.641563 -0.252198 -0.347099 0.027149 0.138313 0.468955 0.564399
in -0.024618 -0.154169 0.113205 -0.019096 -0.076802 -0.184487 0.206982 -0.262962 0.752462 0.160491 -0.015734 -0.224299 0.258146 -0.135550 -0.251837 0.313512 -0.221117 0.119473 -0.207940 -0.185124 -0.264505 -0.221135 -0.071756 -0.124711 0.113309 -0.429728 -0.155807 -0.090297 -0.319513 -0.702806 0.200977 0.034638 -0.074283 -0.038770 0.205896 0.413137 0.116301 -0.320992 0.416145 0.202456 0.308879 -0.273585 0.142138 -0.530222 -0.186031 -0.251819 0.151370 0.170626 -0.153635 0.451048
spring -0.235274 0.079373 -0.285119 0.077311 0.196641 -0.088919 -0.010371 -0.625408 -0.139259 -0.030200 0.269347 -0.721020 -0.420062 0.937761 0.312647 -0.072043 -0.228546 -0.302674 0.065020 0.359575 -0.277569 0.378031 0.049083 -0.057271 -0.008878 -0.174681 0.204287 -0.210362 -0.075473 -0.031531 -0.019757 0.288344 0.196727 0.267104 -0.325230 0.749443 0.193514 -0.478591 -0.027291 0.085330 -0.223095 -0.349733 -0.154408 -0.142928 -0.281105 0.423246 -0.143625 0.203868 -0.374679 -0.301091
handler -0.346805 -0.189773 -0.297735 -0.176279 -0.239328 -0.367405 0.250130 -0.264747 -0.056281 -0.079830 -0.093939 -0.066436 -0.029448 -0.266410 -0.022899 -0.262157 0.109162 -0.119560 0.122593 0.061408 0.286593 -0.272457 0.052291 -0.026301 -0.389797 -0.285327 -0.312146 -0.054394 0.549406 0.199264 -0.104448 0.167471 -0.127683 0.110488 0.208330 0.070229 0.286531 -0.080976 -0.029753 0.093661 -0.068796 -0.160457 -0.148602 0.352413 -0.145582 0.140072 -0.076031 -0.338104 0.142440 0.247889
ost 0.331148 0.027173 -0.269574 -0.335084 0.474570 -0.108036 0.623483 0.730947 0.231045 -0.405878 0.190525 0.703904 0.351741 -0.274575 -0.274669 -0.068866 -0.172575 0.254399 -0.559575 0.286378 0.030674 -0.571818 0.075212 0.286813 0.082221 -0.199752 0.404999 0.103267 0.212800 0.056509 -0.286675 -0.107881 -0.012463 -0.261829 0.290656 -0.224683 0.188747 0.589404 0.435937 0.135692 -0.753225 -0.069643 0.010927 0.149149 -0.362790 0.208210 0.471780 0.106814 -0.154919 0.269659
startstop 0.358238 0.000873 -0.357041 -0.400669 0.423846 -0.082754 0.636871 0.818860 0.165122 -0.504449 0.278632 0.749480 0.314585 -0.309854 -0.253832 -0.207942 -0.227689 0.262529 -0.567200 0.364726 0.022251 -0.613680 0.035203 0.291433 -0.002618 -0.275870 0.396664 0.058615 0.339845 0.227181 -0.375199 -0.086742 -0.073749 -0.303999 0.388924 -0.253948 0.061605 0.628039 0.431230 0.193032 -0.900915 -0.076340 -0.104807 0.178772 -0.437581 0.304686 0.442035 -0.000525 -0.185722 0.189092
defaultedpageable 0.202565 -0.029604 0.186072 0.429251 -0.054036 -0.306285 -0.089853 -0.570594 -0.416593 -0.085334 -0.446816 -0.615851 0.223025 -0.119584 0.119614 0.233927 0.246201 0.027474 -0.079732 -0.553223 0.446433 0.777179 0.201157 0.077183 -0.379772 0.115154 -0.100342 -0.503228 -0.582973 -0.659758 0.425703 0.229694 0.204622 0.200958 -0.390968 0.226201 0.363319 -0.701781 -0.575272 -0.265017 1.139148 0.350378 0.168786 -0.150796 0.833159 -0.135669 -0.022445 0.281080 0.411075 0.140990
head -0.928487 -0.499403 -0.141885 -0.337983 -0.006069 -0.739336 0.704249 -0.434115 -0.170804 -0.226542 0.084468 -0.312045 0.042943 -0.099111 -0.099653 -0.501744 -0.019319 -0.426239 0.403916 0.538294 -0.098678 -0.538866 0.001177 -0.053465 -0.374411 -0.425998 -0.270485 -0.442374 0.979598 0.196006 -0.296779 0.097200 0.193205 -0.030089 0.005482 0.221934 0.389953 -0.108056 -0.080504 -0.400406 -0.021343 -0.631583 -0.589635 0.532531 -0.531442 0.724359 -0.085436 -0.483157 -0.219463 0.251225
post -0.937500 -0.542272 0.287616 -0.143601 -0.481106 -0.652637 0.519919 -0.341565 0.385386 0.282705 0.032706 -0.226787 0.420278 -0.376507 -0.096272 0.060054 0.082716 -0.254021 0.152879 -0.056711 -0.447708 -0.517758 -0.016714 0.041683 -0.185411 -0.352425 -0.772498 0.008329 0.451614 -0.232231 -0.290391 0.166931 0.130708 -0.143405 0.109530 0.194565 0.626699 0.034476 0.345730 -0.208692 0.396152 -0.247193 0.064974 0.007374 -0.676117 0.081367 0.047921 -0.158402 -0.292308 0.781009
cb 0.720391 0.032831 0.253853 0.176811 -0.376524 0.849483 -0.648543 0.706936 0.465902 0.041893 0.632301 0.482761 -0.169629 0.578215 0.303890 0.001573 -0.167982 0.495873 -0.343627 0.059347 -0.676496 0.003500 -0.183569 0.221920 0.777311 0.469571 -0.086517 0.539279 -0.298138 0.583690 -0.192937 -0.085946 -0.070372 -0.653301 0.426842 0.228522 -0.866041 0.406871 0.745343 0.242809 -0.975378 0.353537 0.207341 -0.523106 -0.615337 -0.254092 0.142520 0.588917 -0.548551 -0.579938
resource 0.600549 0.099578 -0.146631 0.337815 0.296192 -0.395134 -0.028303 0.019580 -0.702284 -0.149039 -0.228800 0.404941 0.091525 -0.457631 0.097493 -0.195109 -0.012882 0.012172 0.161387 -0.314115 1.074801 0.146601 -0.371087 0.573241 -0.501598 0.457613 0.067343 -0.501122 -0.138915 0.334166 -0.369323 0.289267 -0.145467 -0.327638 0.132878 -0.800325 0.157063 0.280314 -0.162232 -0.300877 0.134075 0.609153 0.339999 0.192928 0.515967 -0.132138 0.585899 0.263653 0.689317 0.503210
annotationmbeanexporter -0.104655 -0.222663 0.265717 -0.115801 -0.357395 0.531332 -0.243303 0.305242 0.872554 0.066070 0.348120 0.493303 -0.094872 0.360888 0.036812 -0.365636 -0.138574 -0.024736 -0.395203 0.124751 -0.571326 -0.713927 -0.278007 -0.196454 0.447885 -0.142610 -0.423704 0.583357 0.501881 0.834991 -0.188654 -0.038114 -0.401233 -0.397673 0.604467 0.241703 -0.472409 0.447212 0.792603 0.230545 -1.009210 0.102439 -0.019673 -0.048927 -0.790948 0.091500 0.054225 -0.031862 -0.435908 -0.141324
j 0.259247 -0.302012 -0.093622 -0.304774 -0.297334 0.191854 0.144851 0.586584 0.686085 -0.305207 0.494336 0.540208 0.159108 -0.075753 -0.077472 -0.478502 -0.257705 0.356645 -0.543716 0.260331 -0.359341 -0.626707 -0.153304 0.036704 0.278805 -0.312830 -0.189743 0.164617 0.450372 0.626421 -0.333246 -0.046165 -0.364413 -0.530220 0.689859 0.204783 -0.549993 0.323928 0.705894 0.325734 -1.117671 -0.143197 -0.255008 -0.126539 -0.865072 0.258081 0.186816 0.051825 -0.395851 -0.059908
jmx -0.308448 -0.252955 0.063641 -0.007454 0.026685 -0.153335 0.482957 0.039520 0.446733 0.206118 0.046113 -0.051278 0.386822 -0.030084 -0.238448 0.203053 0.160017 -0.303607 -0.206735 0.064839 -0.404422 -0.738511 0.118946 0.038161 0.217234 -0.222055 -0.095759 0.222029 0.330664 -0.197755 0.092319 -0.174492 0.058919 -0.025246 0.221681 0.291384 0.294620 0.392677 0.261231 -0.102822 -0.176532 -0.008466 -0.006336 0.349472 -0.383170 0.277083 0.269918 -0.035794 -0.207909 0.293065
name 0.308303 0.320157 0.049660 0.127858 0.544529 0.551889 -0.272969 0.152805 0.292927 0.162207 -0.208718 0.741998 -0.313436 0.239276 -0.422792 -0.046464 -0.102266 0.001086 -0.215608 -0.065902 0.435164 -0.430091 -0.175774 -0.206133 0.446204 0.149063 0.443042 0.425151 0.224236 0.342492 0.106010 -0.174682 -0.150002 0.123019 0.230637 -0.352126 -0.015157 0.438177 0.468210 0.128900 -0.529731 0.515906 0.294833 0.152263 0.362089 -0.505546 0.257029 0.030393 0.237871 0.133255
of 0.181409 -0.105756 -0.332472 0.011508 0.033198 -0.370860 0.147351 -0.613741 -0.010124 -0.044313 -0.416787 -0.163361 0.079792 -0.373647 -0.215405 -0.066979 0.015519 0.203516 -0.168739 -0.403036 0.927458 0.155604 0.097350 -0.117421 -0.413625 -0.286420 -0.132237 -0.251725 -0.098546 -0.404124 0.173721 0.282990 -0.139294 0.278691 0.178547 0.068277 0.366455 -0.446058 -0.063745 0.241295 0.469069 0.154420 0.134451 0.075673 0.414506 -0.370974 0.008905 -0.171714 0.468790 0.534254
requestmappinghandlermapping 0.301702 -0.277885 0.066520 -0.256225 -0.609898 0.396366 -0.139745 0.640078 0.965906 -0.005853 0.464403 0.511240 0.149218 -0.013346 0.074565 -0.135664 -0.191578 0.462202 -0.445791 0.177906 -0.707434 -0.456021 0.027524 -0.049427 0.551214 -0.121956 -0.410693 0.728745 0.330307 0.366270 -0.125772 -0.231153 -0.357722 -0.490412 0.584862 0.322738 -0.548743 0.305099 0.696348 0.467532 -1.071322 -0.316281 -0.032156 -0.172539 -0.938575 0.080107 0.020681 0.161433 -0.410107 -0.364781
ff 0.768783 0.183477 -0.297056 -0.138520 -0.368093 0.859859 -0.486539 1.118004 0.105867 -0.339712 0.592673 0.699419 -0.283553 0.422128 0.430645 -0.240536 -0.263353 0.426030 -0.220134 0.492471 -0.459520 0.032616 -0.188132 0.056719 0.421937 0.117771 0.285376 0.665075 0.023890 0.883566 -0.185689 -0.264448 -0.380220 -0.391426 0.499740 -0.169171 -1.032365 0.491895 0.386138 0.704274 -1.484369 -0.034606 -0.290668 -0.178038 -0.743181 0.317020 0.036711 0.150720 -0.376696 -0.815038
delete -0.858902 -0.298420 -0.064948 -0.165488 -0.083061 -0.707429 0.584823 -0.570240 0.133331 0.158948 -0.054038 -0.245141 0.126178 -0.194978 -0.153725 -0.114956 0.020543 -0.348448 0.323921 0.185984 -0.093195 -0.484542 0.067274 0.018212 -0.287531 -0.226061 -0.445167 -0.135016 0.650364 -0.111040 -0.200291 0.104513 0.172543 0.063354 -0.048409 0.138711 0.560390 -0.015119 0.059062 -0.294479 0.185079 -0.473151 -0.055434 0.352720 -0.407236 0.232491 0.005757 -0.190202 -0.013821 0.444185
mapping -0.078211 0.043732 -0.149375 -0.120448 0.220318 0.071987 0.144743 0.428078 -0.224345 -0.122393 0.238034 0.467583 0.041811 -0.213481 0.039066 -0.307209 0.016851 -0.207288 0.059814 0.302390 -0.116504 -0.468240 -0.133429 0.228895 -0.075872 0.212835 0.138066 0.113160 0.427829 0.573706 -0.436977 0.007354 -0.058420 -0.231359 0.143845 -0.447444 -0.011929 0.682622 0.056943 -0.187933 -0.587476 0.169578 -0.065369 0.371315 -0.274873 0.102481 0.152781 -0.110495 -0.128033 -0.010574
text -0.811296 0.029278 0.188557 0.610385 -0.451216 -0.044420 -0.130457 -1.005122 -0.252086 0.409217 0.167886 -0.913364 -0.269108 0.777276 0.702435 0.018239 0.260082 -0.670757 0.687218 0.190051 -0.346111 0.311886 0.146426 0.218070 -0.273924 0.091357 -0.703904 -0.040642 0.280585 0.088950 -0.138310 0.232382 0.099017 -0.084060 -0.212953 0.575685 0.177182 -0.293904 -0.250596 -0.197847 0.144888 -0.327153 0.131610 0.180477 -0.180741 0.240637 -0.276253 0.148196 -0.017474 -0.270223
db 0.107322 -0.115797 0.199329 -0.120707 0.801114 -0.510155 0.678645 -0.196805 -0.143762 -0.323230 -0.387047 0.254672 0.164923 -0.089380 -0.467775 0.057803 -0.015492 0.199645 -0.353322 -0.051500 0.733144 -0.049926 0.245479 0.216046 0.006047 0.000305 0.261678 -0.662282 0.150929 -0.541726 -0.092473 -0.079741 0.320621 -0.085952 -0.150927 0.061391 0.547641 -0.215974 0.293239 -0.493854 0.309828 0.135146 0.071609 0.218506 0.523522 0.123008 0.366096 0.314778 0.212099 0.551400
driver -0.398080 0.045611 0.270644 -0.107284 0.498940 -0.339495 0.415769 -0.466128 -0.081969 -0.017380 -0.553593 -0.215478 -0.078561 0.302445 -0.174056 0.347163 0.201334 0.046373 -0.052462 -0.141732 0.574236 0.365440 0.437446 -0.008031 -0.000157 -0.201907 -0.006661 -0.313871 -0.090048 -0.669643 0.105544 -0.127242 0.335301 0.266583 -0.401534 0.208051 0.721909 -0.590753 0.056743 -0.369679 0.629706 -0.260233 0.237259 0.073626 0.644645 0.176257 0.136221 0.127772 0.179356 0.412299
accdf 0.903022 0.104889 -0.012151 0.092929 -0.459016 1.015892 -0.766009 0.936947 0.343821 -0.113770 0.667502 0.620595 -0.349177 0.621234 0.428272 -0.080447 -0.210844 0.561942 -0.324605 0.206245 -0.693614 0.107313 -0.204605 0.160639 0.739043 0.416008 0.095067 0.705774 -0.256337 0.801631 -0.199618 -0.139422 -0.233602 -0.555741 0.481940 0.114357 -1.041063 0.443576 0.661253 0.510884 -1.308565 0.290022 0.052791 -0.475071 -0.714433 -0.084603 0.080196 0.464166 -0.534319 -0.833105
ad 0.800094 0.266665 -0.126210 0.143303 -0.342174 0.876869 -0.651986 0.926743 0.397337 -0.063343 0.534303 0.682171 -0.373396 0.361065 0.460502 -0.022776 -0.213633 0.357057 -0.319588 0.244789 -0.605534 -0.000421 -0.284515 0.117034 0.573816 0.357186 0.007265 0.743687 -0.336507 0.841190 -0.276845 -0.132829 -0.344519 -0.380013 0.442767 -0.069017 -0.981024 0.636910 0.567796 0.531720 -1.385137 0.303483 0.066353 -0.371495 -0.760144 -0.117486 0.056502 0.394098 -0.476541 -0.648152
at -0.210888 0.031813 0.034731 0.245128 -0.412756 -0.176702 -0.261919 -0.497577 -0.017924 0.341543 -0.198185 -0.569712 0.276410 -0.161619 0.135120 0.310957 0.127678 -0.114009 0.228987 -0.547702 -0.130910 0.390244 0.123272 -0.103614 -0.191438 -0.193820 -0.187250 0.121906 -0.548478 -0.494185 0.313268 0.224514 0.061083 0.428270 -0.252807 -0.007840 0.317828 -0.327619 -0.469143 0.084616 0.874353 -0.086330 0.197843 -0.260075 0.216234 -0.309119 -0.130806 -0.066913 0.190059 0.136857
beb 1.336167 0.040445 -0.077519 0.115860 -0.096866 0.520467 -0.230809 0.981299 0.466661 -0.319468 0.448043 0.753378 0.165642 0.113746 0.173492 0.073934 -0.316756 0.900200 -0.908300 -0.022725 -0.235169 0.095834 -0.153823 0.352023 0.609689 0.177316 0.238923 0.274235 -0.625460 0.237708 -0.204370 -0.001725 -0.182271 -0.682844 0.537916 0.091849 -0.722455 0.399404 0.858233 0.388180 -1.074604 0.437149 0.176143 -0.639409 -0.525846 -0.123120 0.501960 0.836226 -0.286861 -0.215405
bf 0.746563 0.287882 -0.293123 -0.228893 -0.143930 0.963074 -0.492780 1.129566 0.034886 -0.331600 0.632985 0.758422 -0.393119 0.443556 0.328069 -0.192607 -0.260876 0.434710 -0.126260 0.519946 -0.382801 -0.000548 -0.130328 0.039352 0.530730 0.277359 0.436086 0.665681 0.059292 0.877593 -0.220326 -0.339967 -0.300712 -0.309234 0.451078 -0.264577 -1.012930 0.592760 0.320070 0.663415 -1.444272 0.003795 -0.176569 -0.087421 -0.567321 0.181914 0.021636 0.074031 -0.399457 -0.912343
compact -0.409172 0.182228 -0.007649 0.263395 0.038208 0.096146 -0.134048 -0.651579 -0.113896 0.252851 0.171046 -0.786976 -0.365332 0.831303 0.411917 0.121699 0.045637 -0.462857 0.233502 0.187060 -0.323312 0.325494 0.115297 -0.011169 0.025755 0.029864 -0.074434 -0.024089 -0.105645 -0.111321 0.075482 0.175379 0.182493 0.193161 -0.341684 0.640910 0.138672 -0.350117 -0.157440 -0.022580 0.067941 -0.224358 0.070680 -0.079406 -0.020703 0.173201 -0.232960 0.204942 -0.244065 -0.304691
dc 1.233192 0.173030 -0.113109 0.149421 -0.075444 0.585495 -0.315566 0.970443 0.396063 -0.191585 0.443151 0.752237 0.074679 0.202100 0.215275 0.212607 -0.228440 0.748516 -0.659722 0.012772 -0.256114 0.117842 -0.138919 0.377795 0.594911 0.321114 0.255650 0.421887 -0.635606 0.235446 -0.095568 -0.061367 -0.123777 -0.579351 0.452984 -0.050505 -0.646730 0.474946 0.775672 0.410450 -1.035977 0.387033 0.287025 -0.587559 -0.491934 -0.188850 0.453030 0.811325 -0.223280 -0.246784
df 0.774361 0.379910 -0.168452 -0.003798 -0.234078 0.997630 -0.661355 1.033835 0.185027 -0.168523 0.637112 0.776794 -0.472686 0.463423 0.372106 -0.129314 -0.255426 0.404781 -0.211288 0.422175 -0.531290 -0.030991 -0.265648 0.018569 0.630335 0.391841 0.306968 0.817919 -0.112981 0.930408 -0.263483 -0.255679 -0.363631 -0.272991 0.419641 -0.180440 -1.080348 0.683596 0.401630 0.605055 -1.498733 0.209650 -0.094012 -0.179707 -0.645947 0.017228 0.027260 0.216982 -0.494167 -0.919669
domain -0.267078 -0.121361 0.385802 0.417737 0.088355 -0.123899 -0.217093 -0.861526 -0.683839 0.021910 -0.411296 -0.775835 -0.095302 0.279681 0.246914 -0.086269 0.253435 -0.293588 0.373908 -0.243277 0.327218 0.710773 0.116938 -0.083866 -0.326242 0.251828 -0.122743 -0.709555 -0.204318 -0.277488 0.152164 0.268671 0.246364 0.208193 -0.498580 0.315707 0.201018 -0.683741 -0.601949 -0.528037 1.025345 0.297742 -0.126905 0.089405 0.788415 -0.073890 -0.299787 -0.002808 0.133997 -0.178793
ea 1.093811 0.187608 -0.034671 0.138214 -0.229335 0.905061 -0.573420 0.949580 0.353978 -0.032548 0.541746 0.643265 -0.140776 0.606702 0.270240 0.059199 -0.209810 0.746814 -0.448446 0.167911 -0.322743 0.095180 -0.216994 0.177414 0.783915 0.548555 0.199897 0.664092 -0.379753 0.506199 -0.064616 -0.135924 -0.000453 -0.553756 0.511485 0.051831 -0.940091 0.550352 0.842077 0.400513 -1.221534 0.335981 0.186098 -0.460935 -0.588709 -0.265937 0.258257 0.681474 -0.328812 -0.532146
ec 0.692244 0.316133 -0.131005 0.064630 -0.303328 0.897343 -0.591603 0.953275 0.361527 -0.074918 0.551525 0.717527 -0.384268 0.327303 0.451993 -0.100901 -0.231907 0.297333 -0.272408 0.316519 -0.565143 -0.084707 -0.294369 0.095227 0.512711 0.308306 -0.000237 0.752315 -0.204438 0.940314 -0.337967 -0.162517 -0.381349 -0.383667 0.474499 -0.145560 -1.016600 0.709360 0.550333 0.548385 -1.426661 0.251242 0.022082 -0.290835 -0.745529 -0.104484 0.026808 0.293441 -0.485912 -0.636473
efd 0.638167 0.444108 -0.247171 -0.130960 -0.078724 0.994583 -0.545267 1.021403 0.100226 -0.212811 0.604994 0.818947 -0.514872 0.440294 0.319278 -0.200963 -0.300256 0.318128 -0.101573 0.533356 -0.380848 -0.097775 -0.254695 -0.035378 0.537865 0.330553 0.403139 0.775750 0.077384 0.961197 -0.293392 -0.340896 -0.393994 -0.193303 0.410220 -0.316764 -1.064419 0.724696 0.327921 0.658893 -1.501381 0.080829 -0.171365 -0.046146 -0.560401 0.095126 -0.013033 0.070477 -0.425846 -0.902956
na -0.487244 0.150050 0.014665 0.217162 -0.332388 -0.126813 -0.259047 -0.557958 0.162522 0.630363 -0.236155 -0.580767 0.226326 -0.148756 0.041519 0.465919 0.182746 -0.331486 0.352671 -0.514205 -0.290980 0.131916 0.133429 -0.200148 -0.113734 -0.164532 -0.217515 0.424476 -0.500135 -0.557236 0.385240 0.175124 0.068562 0.603931 -0.293978 -0.065248 0.495120 -0.115206 -0.500331 0.121648 0.837868 -0.180154 0.338676 -0.158215 0.143009 -0.417915 -0.144094 -0.205334 0.151404 0.209851
resourcenotfoundexception 1.133473 -0.021477 0.033259 0.238856 0.413426 0.095011 -0.108707 0.218076 -0.458867 -0.536014 -0.157385 0.201705 0.151664 -0.041645 -0.069699 -0.111241 -0.097868 0.612393 -0.527422 -0.272938 0.781162 0.666871 0.006233 0.281344 -0.084967 0.210444 0.504634 -0.761530 -0.638300 -0.255733 0.090761 0.069691 0.017750 -0.298085 0.010937 -0.002171 -0.364103 -0.444420 -0.009481 -0.095898 0.188810 0.636753 -0.059116 -0.233364 0.754635 -0.106373 0.301890 0.404704 0.313780 -0.107213
sort -0.150522 -0.131011 0.402472 0.442172 0.090326 -0.086211 -0.237755 -0.780223 -0.719341 -0.038634 -0.389538 -0.680040 -0.092215 0.271509 0.275082 -0.125055 0.241153 -0.230147 0.323314 -0.250154 0.366541 0.721993 0.095181 -0.035987 -0.328108 0.298151 -0.109119 -0.729458 -0.217495 -0.208116 0.104740 0.255182 0.201069 0.147198 -0.438157 0.298101 0.129922 -0.657484 -0.550040 -0.525481 0.949322 0.362063 -0.110293 0.080690 0.794758 -0.088707 -0.248087 0.036346 0.143287 -0.179109
x -0.583565 0.126569 -0.193541 -0.037929 0.300472 -0.197922 0.135327 -0.718209 -0.179355 0.098279 0.068703 -0.730267 -0.445414 0.709044 0.104767 -0.058148 -0.060007 -0.520164 0.305187 0.351115 -0.135528 0.141797 0.076311 -0.215721 -0.076143 -0.109825 0.120572 -0.211328 0.179462 -0.085304 0.063262 0.159745 0.234715 0.408397 -0.415912 0.570226 0.311930 -0.362067 -0.217990 -0.119452 0.079103 -0.363225 -0.183426 0.159342 0.007208 0.304283 -0.254849 -0.073101 -0.222943 -0.207106
controllers 0.513631 0.453183 -0.191991 0.117064 0.250313 0.024678 -0.188484 0.001288 0.105761 0.239900 -0.363185 0.083311 -0.004315 -0.313806 -0.306819 0.294700 -0.078656 0.328200 -0.091059 -0.363613 0.551737 0.260840 -0.008934 -0.198587 0.085241 0.260954 0.304635 0.131968 -0.617587 -0.361680 0.395949 -0.053325 -0.061920 0.396658 -0.190725 -0.408474 -0.067527 0.055956 -0.207578 0.260259 0.350669 0.177094 0.317018 -0.144427 0.636087 -0.602960 0.029325 0.062336 0.563108 -0.026559
javax 0.020002 0.317815 -0.046665 0.234594 0.416957 0.216100 -0.149633 0.052325 -1.014991 -0.081880 -0.301754 0.581200 -0.224275 -0.143452 0.264641 -0.179763 0.291620 -0.508421 0.338307 -0.252307 0.410111 0.084523 -0.419510 0.635186 -0.508182 0.426173 0.241634 -0.366532 0.143853 0.708660 -0.400255 0.334606 -0.094073 0.024381 -0.126365 -0.847914 0.333872 0.501318 -0.090450 -0.524220 0.049875 0.971470 0.341066 0.286874 0.748112 -0.247298 0.321089 0.014581 0.400661 0.261643
list -0.613644 0.116304 0.134336 0.659353 -0.638162 -0.013598 -0.229036 -0.977677 -0.245574 0.585919 0.082276 -0.805721 -0.175257 0.537702 0.758704 0.151269 0.243356 -0.537915 0.690490 -0.175479 -0.296803 0.404284 0.033544 0.302762 -0.407128 0.173040 -0.840699 0.111056 -0.008369 0.037097 -0.177932 0.316583 -0.028501 -0.074284 -0.096840 0.315771 0.111343 -0.212114 -0.234013 -0.034996 0.337825 -0.113216 0.456096 -0.029600 -0.025477 -0.091921 -0.262559 0.179552 0.229905 -0.080478
path -0.479633 -0.242243 -0.029715 -0.090021 -0.048833 -0.619914 0.284379 -0.371835 -0.232687 -0.053088 -0.172036 -0.214279 0.077652 -0.278055 -0.022889 -0.238841 0.081885 -0.305761 0.374872 0.049781 0.468039 -0.178200 -0.107941 0.068147 -0.426515 -0.084117 -0.341301 -0.357836 0.519434 0.108850 -0.182953 0.118579 -0.012046 -0.027923 0.025645 -0.095756 0.371109 -0.034610 -0.238601 -0.298919 0.286071 -0.210441 -0.082511 0.417352 0.051721 0.215238 0.062069 -0.291325 0.212133 0.376534
connection -0.482044 -0.108892 0.191392 -0.195444 0.610047 -0.371920 0.492122 -0.373427 -0.251983 -0.095277 -0.510724 -0.094884 -0.096146 0.091647 -0.259633 -0.063772 0.224793 -0.168303 0.005497 0.145527 0.567880 0.003042 0.279847 0.023839 -0.129556 -0.123053 0.059190 -0.496391 0.372831 -0.208447 -0.109118 -0.103935 0.204244 0.078707 -0.338820 0.129382 0.544514 -0.363788 -0.035331 -0.525798 0.392630 -0.057230 -0.048014 0.342378 0.611896 0.197433 0.038482 -0.045337 0.147436 0.292460
customerid -0.091515 -0.090367 0.329670 -0.214541 0.160190 0.231898 0.097817 0.296864 0.310231 -0.060478 0.187647 0.566758 -0.096531 0.290751 -0.110995 -0.122447 -0.235295 0.091451 -0.182984 0.365239 -0.155155 -0.455583 0.020371 0.018574 0.470554 0.160671 -0.069525 0.256435 0.517937 0.272237 -0.263136 -0.291345 0.013769 -0.242244 0.177563 0.065630 -0.119628 0.301736 0.519453 -0.114933 -0.664768 -0.101035 -0.026092 0.300363 -0.416351 0.147616 0.161789 0.175515 -0.374702 -0.079440
eligible -0.928142 0.098801 0.209437 -0.251509 0.085573 0.057221 0.493515 0.370760 0.277265 0.264106 0.292286 0.033264 0.059504 0.150687 0.038106 0.450534 0.268107 -0.562426 0.331934 0.612659 -0.904773 -0.745237 0.230184 0.013277 0.419379 -0.154671 0.068823 0.430876 0.520693 -0.046558 -0.015106 -0.477104 0.311657 -0.141604 -0.085955 0.069626 0.209523 0.538564 0.177871 -0.244646 -0.178543 -0.491480 -0.131350 0.248899 -0.410384 0.298225 0.044787 -0.150816 -0.521553 0.087778
endpointmvcadapter 0.478868 0.612893 -0.175553 -0.219154 0.656901 0.429192 -0.027898 0.186765 0.206946 -0.090769 -0.028868 0.308027 -0.293018 0.181327 -0.390560 0.188375 -0.483906 0.545438 -0.339706 -0.053613 0.482766 0.103043 -0.093596 -0.035629 0.220472 0.172602 0.491421 -0.223462 -0.384920 -0.190584 -0.045439 -0.353834 -0.030970 0.013249 0.067691 -0.141942 -0.632509 -0.105139 0.260690 0.308725 -0.172599 0.208265 0.255826 -0.307616 0.571643 -0.524839 -0.055957 0.119109 0.123461 -0.026047
filter -0.180784 -0.011096 -0.005934 -0.029719 0.087063 -0.021392 0.095037 0.053494 -0.040516 0.033299 0.040191 0.050219 0.054186 -0.065794 -0.030159 -0.029099 0.043016 -0.120244 0.018053 0.082037 -0.064962 -0.194332 0.007431 0.021062 -0.010997 0.062995 -0.017895 0.083041 0.157614 0.108323 -0.120912 -0.006027 0.041504 -0.044593 -0.014989 -0.104750 0.093534 0.219251 -0.017409 -0.103832 -0.083594 0.030221 -0.008758 0.152527 -0.067303 0.022112 0.006586 -0.085096 -0.051289 0.053142
filterregistrationbean 0.010074 -0.054867 -0.105750 -0.075082 0.085190 0.044947 0.073026 0.312426 -0.260525 -0.170319 0.164696 0.331701 0.044757 -0.187597 0.121126 -0.373521 0.040656 -0.118310 0.061861 0.209143 -0.013368 -0.280217 -0.124210 0.204753 -0.144610 0.140888 0.036545 -0.037034 0.344425 0.566718 -0.391396 0.062176 -0.088178 -0.264745 0.147333 -0.350806 -0.075903 0.457788 -0.018558 -0.180474 -0.445336 0.163311 -0.132392 0.301320 -0.211938 0.162245 0.109376 -0.111678 -0.077430 -0.073297
inetaddress 0.549256 -0.109781 -0.237906 0.065558 -0.370583 -0.114923 -0.028155 0.219146 0.152038 -0.036891 0.110287 -0.008654 0.448296 -0.379008 0.041731 0.035594 -0.074892 0.317429 -0.306093 -0.226227 -0.178028 0.104368 -0.042024 0.142524 -0.107809 -0.184982 0.025712 0.050295 -0.432609 -0.158983 0.153961 0.236433 -0.115445 -0.121541 0.214934 -0.036876 -0.102367 0.017717 0.018389 0.307554 -0.008403 0.026032 0.025233 -0.419840 -0.259112 -0.076314 0.160063 0.161843 0.080699 0.079747
not -0.878623 0.163464 0.206963 -0.193781 0.033157 0.218599 0.293066 0.393562 0.232280 0.318710 0.324869 0.053681 -0.065980 0.264956 0.101696 0.406484 0.261790 -0.579644 0.409550 0.618360 -0.896381 -0.681206 0.176037 0.006856 0.464340 -0.042640 0.046991 0.534973 0.516060 0.112022 -0.028905 -0.483804 0.278054 -0.112576 -0.067943 0.006547 0.073255 0.601039 0.135068 -0.200035 -0.286729 -0.412748 -0.136870 0.241951 -0.409035 0.240937 -0.014086 -0.185853 -0.536108 -0.073897
basepathawarehandlermapping 0.089234 -0.326333 0.025715 -0.363809 -0.188804 0.096625 0.026336 0.560382 0.249734 -0.308801 0.303246 0.263839 0.193123 -0.225989 -0.094762 -0.425841 -0.161485 0.278661 -0.125564 0.418972 -0.296705 -0.400973 -0.023583 -0.220751 0.267442 -0.134901 0.020707 0.173037 0.403894 0.373596 -0.067686 -0.237105 -0.154068 -0.297753 0.294076 0.039946 -0.390075 0.231563 0.055874 0.043952 -0.648405 -0.338174 -0.628947 0.218109 -0.647797 0.502179 -0.104617 -0.276391 -0.398106 -0.407990
entities 0.644097 0.394409 0.015810 0.106961 0.344881 0.168794 -0.208881 -0.115095 -0.253801 -0.014388 -0.410331 0.326387 -0.277879 -0.100976 -0.212739 0.052224 -0.090712 0.388769 -0.081277 -0.330719 0.840552 0.455071 0.029612 -0.057703 0.027197 0.604599 0.279926 -0.133796 -0.438276 -0.185233 0.213614 -0.107430 -0.018469 0.223025 -0.193157 -0.246714 -0.321882 -0.147758 -0.239801 0.053726 0.212346 0.485086 0.277535 0.098000 0.956338 -0.556009 0.005764 0.247698 0.588400 -0.340555
etag -0.209955 0.148451 0.103875 0.322586 -0.026365 -0.340772 -0.102386 -0.644614 -0.212816 0.385332 -0.467188 -0.585953 0.151808 -0.251307 0.014940 0.442497 0.288719 -0.313689 0.262734 -0.556298 0.287178 0.416321 0.092546 -0.007971 -0.326594 0.141154 -0.206744 -0.025117 -0.452563 -0.604493 0.366679 0.177703 0.072740 0.425970 -0.437656 -0.103848 0.538689 -0.361286 -0.622570 -0.172604 1.134868 0.193499 0.365642 -0.002038 0.663780 -0.304909 -0.114455 0.015609 0.472910 0.330733
extends -0.034925 -0.254034 0.066771 0.450000 -0.390539 -0.392451 -0.203791 -0.506591 -0.758714 0.048339 -0.320775 -0.452902 0.298966 -0.516466 0.467255 -0.000969 0.228987 -0.218540 0.320242 -0.567192 0.207516 0.559694 -0.202195 0.375696 -0.652100 0.100958 -0.332240 -0.517130 -0.409428 0.016569 -0.049884 0.509174 0.029730 -0.020432 -0.216512 -0.351178 0.391093 -0.280924 -0.529626 -0.333168 0.993779 0.391845 0.177723 -0.181296 0.440300 -0.133643 0.003981 0.037375 0.393146 0.371236
multivaluemap -0.222792 -0.215521 -0.200469 0.223880 -0.864373 -0.518893 0.016844 -0.354258 0.220198 0.556289 -0.057404 -0.648030 0.598677 -0.557222 0.252776 0.417266 0.231488 -0.199423 0.164944 -0.570512 -0.474841 0.019010 -0.008803 0.005159 -0.341147 -0.283288 -0.531645 0.515661 -0.535960 -0.453303 0.275053 0.432225 -0.027497 0.168954 -0.073566 -0.081001 0.594565 -0.014271 -0.346533 0.173074 0.863956 -0.352420 0.361095 -0.377360 -0.313827 -0.198787 -0.122369 -0.088501 0.331461 0.449598
persistententityresource 0.158951 -0.159942 0.090063 0.075900 -0.181583 -0.139324 -0.095355 -0.169663 0.019018 -0.163484 -0.250273 -0.434026 0.349006 -0.136072 -0.106798 0.134097 0.122419 0.275218 -0.282565 -0.352554 0.008927 0.493685 0.271763 -0.241850 -0.074603 -0.275860 0.074415 -0.211649 -0.536131 -0.599545 0.447034 0.100293 0.177602 0.223556 -0.217347 0.279495 0.142890 -0.513800 -0.308763 0.056389 0.734215 -0.010649 -0.122024 -0.340703 0.357468 -0.099166 -0.114905 -0.001866 0.039161 -0.055774
repositorycontroller 0.384003 0.612252 -0.095727 0.115529 0.689283 -0.065229 0.114850 0.005471 0.105867 0.301718 -0.451893 0.271093 0.089045 -0.293036 -0.558376 0.628298 -0.049266 0.203718 -0.231185 -0.453218 0.602963 0.095712 0.031418 0.003700 0.055090 0.110400 0.623120 0.107139 -0.684340 -0.795123 0.359288 -0.150456 -0.001993 0.444874 -0.283388 -0.509613 0.404132 0.097019 -0.096525 0.184130 0.503671 0.342559 0.608607 -0.199299 0.854471 -0.647795 0.304187 0.186755 0.616840 0.484419
resources 0.247716 -0.125770 0.098297 0.441212 -0.515281 -0.242931 -0.506511 -0.447597 -0.507367 0.206722 -0.357135 -0.567942 0.272316 -0.376900 0.333044 0.174479 0.195247 0.068119 0.170552 -0.638434 0.323130 0.758078 -0.043972 0.154951 -0.419623 0.181852 -0.255422 -0.236385 -0.778901 -0.276331 0.127544 0.431812 0.051985 0.016920 -0.209251 -0.293935 0.166210 -0.359012 -0.611678 -0.080545 1.003494 0.331757 0.133011 -0.379324 0.373471 -0.292653 -0.058399 0.135991 0.392007 0.085738
uri -0.624132 0.360211 0.186143 0.656025 -0.381988 0.338658 -0.376604 -0.741529 -0.262837 0.595195 0.190674 -0.631364 -0.432862 0.827899 0.752749 0.185037 0.224079 -0.646537 0.696547 0.032681 -0.370130 0.312115 -0.010596 0.269279 -0.152080 0.289488 -0.598354 0.250635 0.039432 0.261581 -0.201968 0.146564 -0.017093 -0.042255 -0.112547 0.255897 -0.030724 -0.007861 -0.134017 -0.026618 0.015930 -0.028553 0.455577 0.009624 -0.009050 -0.112305 -0.247842 0.169206 0.049044 -0.238390
server -0.200824 -0.354196 0.149345 0.239028 0.005125 -0.164347 0.232055 -0.289396 0.142104 0.298013 -0.125482 -0.288391 0.292545 0.112457 -0.112863 0.030039 0.208422 -0.444518 -0.095216 -0.113509 -0.139944 -0.473315 0.035922 0.027049 0.023279 0.006086 -0.184514 0.072573 0.268578 -0.068564 0.105450 -0.007237 0.041716 0.089492 0.136951 0.277674 0.351524 0.283403 -0.001447 -0.218293 0.101312 0.227059 -0.016068 0.443126 -0.109476 0.189835 0.195827 -0.064709 -0.103136 0.188135
actuator -0.573571 -0.359728 0.398038 -0.094965 -0.338505 0.016092 0.051508 -0.091676 0.296407 0.072225 0.146395 -0.037661 0.073705 0.074809 0.091139 -0.193710 0.143618 -0.309066 0.224000 0.255827 -0.337936 -0.344444 0.075399 -0.118366 0.157151 0.025802 -0.434572 0.228417 0.596635 0.126220 -0.176660 -0.142708 -0.007162 -0.124136 0.062726 0.304964 -0.015168 0.143213 0.059817 -0.275814 -0.282649 -0.224628 -0.133293 0.380081 -0.457234 0.243196 -0.177403 -0.244018 -0.407752 -0.154377
as -0.296034 -0.207194 0.141227 0.261915 -0.017654 -0.250900 0.170766 -0.482190 -0.078307 0.340317 -0.226598 -0.515651 0.200881 0.067978 -0.016365 0.125551 0.254401 -0.476642 0.109047 -0.236898 -0.005113 -0.138930 0.061911 0.041553 -0.148597 0.013056 -0.227740 -0.093551 0.077116 -0.215326 0.128451 0.075416 0.061991 0.242269 -0.058960 0.212085 0.407763 0.036826 -0.237440 -0.232072 0.479641 0.151853 0.040894 0.316879 0.186841 0.101852 0.073917 -0.062230 0.048356 0.189146
been -0.139361 -0.106034 0.108444 0.091752 -0.099279 -0.076100 0.052005 -0.173584 0.000063 0.059520 0.032616 -0.225717 0.123402 -0.067843 -0.015762 0.042355 0.068256 -0.036248 -0.024740 -0.093297 -0.046482 0.008987 0.074438 -0.016100 0.051729 -0.133084 -0.135239 -0.125305 -0.017445 -0.093471 0.052609 0.036066 0.097500 -0.115135 0.057152 0.137370 0.075602 -0.113129 -0.084762 -0.079124 0.252410 -0.061942 -0.018018 0.018870 0.045590 -0.031416 -0.018884 -0.071770 -0.056057 0.044693
core -0.782983 0.245517 0.143388 -0.082330 0.409887 -0.202249 0.199293 -0.523182 0.121348 0.448388 -0.411866 -0.215273 -0.229731 0.191253 -0.244208 0.442382 0.160000 -0.353206 0.325275 -0.107392 0.205295 -0.096170 0.271913 -0.199954 0.061220 -0.082590 -0.058648 0.135917 0.048032 -0.556396 0.168226 -0.176498 0.258401 0.533299 -0.389897 -0.036756 0.675347 -0.163399 -0.080860 -0.213359 0.567035 -0.287586 0.314250 0.231197 0.399448 -0.147908 -0.022728 -0.185177 0.141674 0.390466
detected -0.387014 0.112811 0.218571 -0.051869 -0.266151 0.523439 -0.179792 0.131523 0.708403 0.410525 0.308529 0.034102 -0.198705 0.387896 0.097299 0.242739 -0.025573 -0.094020 0.131239 0.289014 -0.837731 -0.410391 -0.019747 -0.156194 0.556780 0.037681 -0.267086 0.722013 0.195843 0.091596 -0.038926 -0.330891 -0.131573 -0.097356 0.187786 0.278528 -0.269057 0.242180 0.455881 0.268995 -0.579886 -0.285442 0.126456 -0.089856 -0.515140 -0.159651 -0.077223 0.034448 -0.502872 -0.255274
dispatcherservlet -0.123553 0.047351 -0.258660 -0.119625 0.372786 -0.322481 0.320849 -0.062775 -0.519213 -0.193521 -0.226869 0.051774 0.023919 -0.423943 -0.108541 -0.095295 0.063970 -0.260635 0.195283 0.018526 0.460473 0.034465 -0.019310 0.138831 -0.604746 -0.258213 0.223585 -0.498415 0.241650 0.013207 -0.021049 0.074358 -0.100669 0.159582 -0.109278 -0.460282 0.336150 -0.114097 -0.472415 -0.113062 0.285787 0.068469 -0.204875 0.259992 0.451025 0.162062 0.119566 -0.347981 0.425137 0.326751
endpointwebmvchypermediamanagementcontextconfiguration 0.994681 0.718930 -0.313711 0.023518 0.968808 0.286667 -0.022742 0.157308 -0.012471 0.004960 -0.311533 0.487558 -0.169786 -0.152698 -0.598628 0.354969 -0.437071 0.591161 -0.489533 -0.362103 0.950453 0.314213 0.017190 -0.085073 0.222459 0.176328 0.937447 -0.064655 -0.944769 -0.628474 0.269076 -0.095832 0.044325 0.448613 -0.145367 -0.550991 -0.248934 -0.001329 0.073619 0.403870 0.269492 0.369393 0.490195 -0.452221 0.834321 -0.791561 0.227533 0.267185 0.612582 0.248418
exposure 0.052673 -0.095144 -0.048698 -0.019468 0.024048 -0.192478 0.370607 0.196879 0.113966 -0.032083 0.096935 -0.043019 0.373240 -0.180358 -0.106208 0.244598 0.054202 0.083611 -0.204110 0.018097 -0.195448 -0.166312 0.137473 0.162278 0.074731 -0.154580 0.084437 -0.074540 -0.131175 -0.352729 0.071078 -0.070603 0.110610 -0.114134 0.057364 0.152152 0.102489 0.080307 0.101125 -0.025016 0.060806 -0.065135 0.002858 -0.035196 -0.162324 0.166507 0.214472 0.146835 -0.057551 0.209946
has -0.066841 0.000340 0.100520 0.111653 -0.013807 0.082895 -0.105340 -0.160094 0.052344 0.091927 -0.002736 -0.064017 -0.030845 0.029820 -0.057373 -0.018768 0.008738 -0.038483 -0.014243 -0.108844 0.041933 -0.023826 -0.013576 -0.098974 0.110275 -0.040858 -0.067808 0.008102 0.010845 0.061923 0.040563 0.025054 0.020658 -0.041507 0.080403 0.024747 0.003886 -0.032781 -0.025307 -0.010475 0.093520 0.033398 0.055079 0.028778 0.093463 -0.161734 -0.039053 -0.096123 -0.015837 -0.002275
httpservletrequest 0.295625 0.082869 -0.090867 0.170863 0.331571 0.118548 0.003169 0.283698 -0.991192 -0.395214 -0.234522 0.810543 -0.019687 -0.269805 0.369508 -0.241964 0.287907 -0.303569 0.066861 -0.247856 0.374789 0.085258 -0.413455 0.916102 -0.548227 0.324064 0.252876 -0.596810 0.209195 0.778367 -0.479540 0.405692 -0.157953 -0.273758 0.050585 -0.739269 0.325089 0.428757 0.204582 -0.549443 -0.179846 1.062999 0.286852 0.154345 0.606177 -0.073372 0.523739 0.229049 0.381851 0.390522
profile -0.341232 -0.297740 0.296160 -0.245526 -0.179192 0.085579 -0.065292 0.291517 0.158249 -0.069966 0.235353 0.206813 0.045025 -0.072584 -0.031995 -0.359236 -0.085421 -0.079052 0.162272 0.404201 -0.373185 -0.510154 -0.085932 -0.211789 0.272498 -0.035241 -0.151002 0.225180 0.567905 0.467659 -0.143353 -0.228424 -0.066735 -0.219509 0.166513 -0.004358 -0.172302 0.293228 0.037954 -0.201974 -0.381552 -0.256011 -0.463844 0.352972 -0.578613 0.391671 -0.125163 -0.294034 -0.433623 -0.245557
registering -0.363472 -0.143148 0.192152 0.023749 -0.046234 0.217618 -0.110465 -0.217874 0.489306 0.270934 -0.045864 0.059758 -0.093625 0.246936 -0.144350 -0.128161 0.046429 -0.392342 -0.029228 -0.013899 -0.207420 -0.585067 -0.111838 -0.262739 0.203288 -0.053693 -0.255871 0.413678 0.468578 0.341099 0.007834 -0.082848 -0.119017 0.055117 0.208733 0.146556 0.076138 0.308055 0.244399 -0.044378 -0.324883 0.123799 0.040112 0.325639 -0.261969 -0.020385 -0.043430 -0.246127 -0.189595 0.050292
resourcehttprequesthandler 0.712203 0.330602 -0.213200 0.190275 0.450586 0.008359 -0.057983 0.331309 -0.322388 -0.127462 -0.106096 0.591289 0.016951 -0.225480 -0.039214 0.071906 -0.106432 0.189433 -0.164753 -0.266855 0.636189 0.117646 -0.217445 0.411348 -0.137592 0.343010 0.376303 -0.129821 -0.367208 0.151131 -0.154902 0.115366 -0.108720 -0.108121 0.077817 -0.629612 0.003684 0.337643 0.048463 -0.009279 -0.144375 0.575407 0.446878 -0.071602 0.445764 -0.263499 0.490681 0.354942 0.494486 0.302641
simpleurlhandlermapping -0.469607 -0.190063 -0.112745 -0.281034 -0.171738 -0.145391 0.139964 0.090494 0.123388 -0.047215 0.136546 0.092471 -0.097174 -0.099649 -0.038181 -0.319950 0.008265 -0.196212 0.204214 0.337146 -0.174577 -0.540807 -0.049008 -0.162290 -0.043148 -0.168198 -0.193907 0.208155 0.677007 0.493861 -0.155399 -0.057682 -0.113761 -0.030818 0.198606 0.024323 0.043206 0.209673 0.015483 0.018204 -0.424686 -0.369759 -0.322301 0.393024 -0.489959 0.348917 -0.101039 -0.371348 -0.199749 -0.059005
tomcat 0.177729 0.144579 -0.134061 0.070466 -0.112236 0.322128 -0.318604 0.289224 0.048341 0.038049 0.271571 0.232596 -0.249818 0.320327 0.146754 0.123952 -0.088942 0.050818 0.019526 0.158039 -0.390919 0.051882 -0.169711 0.050985 0.322453 0.200059 0.155702 0.413251 -0.156123 0.238261 -0.070845 -0.024104 -0.071625 0.037319 0.007792 -0.005406 -0.150215 0.174650 0.250209 0.219776 -0.597924 0.029924 0.116867 -0.157927 -0.443761 0.022164 0.022440 0.145285 -0.220144 -0.190355
url -0.711312 -0.147137 0.070879 -0.212187 -0.103523 -0.207011 0.138035 -0.062689 0.151219 0.118822 0.063386 -0.025715 -0.085591 -0.001162 -0.044064 -0.154956 0.082643 -0.405819 0.349883 0.313320 -0.226796 -0.501448 -0.059563 -0.119930 -0.017987 -0.090561 -0.297378 0.220467 0.690983 0.334159 -0.124300 -0.107019 -0.030764 0.033233 0.053562 0.026262 0.225595 0.237201 -0.014639 -0.155845 -0.208617 -0.373586 -0.167250 0.426915 -0.359790 0.270025 -0.076148 -0.329732 -0.205275 0.050606
patch -1.312499 -0.258324 0.128850 -0.397617 0.159637 -0.576348 0.621737 -0.339143 0.054494 0.167036 -0.043488 -0.100243 -0.086458 -0.086724 -0.370058 -0.210151 0.028078 -0.574730 0.491562 0.488363 -0.172007 -0.846731 0.009850 -0.253670 -0.083222 -0.216536 -0.249960 0.000871 0.987773 0.098797 -0.255517 -0.117421 0.289309 0.213549 -0.108404 -0.002649 0.646485 0.214648 0.049704 -0.381273 0.113004 -0.483192 -0.310868 0.630520 -0.442054 0.341631 -0.066902 -0.529167 -0.309580 0.434652
internal 0.099334 -0.010843 -0.117886 0.196283 -0.436947 -0.099856 -0.249288 -0.199449 0.051276 0.276023 -0.048694 -0.361363 0.367279 -0.284675 0.102241 0.202951 0.033500 0.008245 0.054752 -0.425756 -0.227973 0.230807 0.026270 -0.021805 -0.161803 -0.176353 -0.095857 0.172137 -0.531452 -0.308490 0.269535 0.260512 -0.049152 0.235232 -0.060066 -0.034114 0.109100 -0.114199 -0.344665 0.215719 0.502141 -0.014293 0.136790 -0.330887 -0.012714 -0.271705 -0.035911 -0.015415 0.149954 0.058795
net 0.224926 -0.038712 -0.142566 0.141997 -0.408057 -0.105117 -0.163493 -0.041494 0.064758 0.136757 0.005920 -0.282846 0.336739 -0.275749 0.091212 0.119494 0.025434 0.106845 -0.068746 -0.304822 -0.199855 0.211307 -0.015407 -0.002090 -0.148067 -0.171401 -0.070066 0.119187 -0.457599 -0.211289 0.216327 0.212140 -0.054414 0.083556 0.018166 -0.033430 0.005485 -0.091897 -0.218112 0.226922 0.315558 -0.008757 0.067416 -0.343913 -0.081066 -0.157427 -0.013935 0.011122 0.095871 0.032139
annotationconfigapplicationcontext 0.040911 0.374682 -0.025000 0.144522 0.207765 -0.041307 -0.074846 0.073707 -0.608431 0.138919 -0.049761 0.307078 -0.330373 -0.018057 0.043266 0.007929 -0.140123 -0.182835 0.307732 -0.024482 0.329017 0.050528 -0.351480 0.390018 -0.130469 0.351792 0.055935 -0.235699 0.150716 0.446962 -0.343404 0.072454 0.053050 0.023821 -0.162579 -0.520587 -0.066610 0.322729 0.120615 -0.209738 0.038137 0.234380 0.286965 -0.067273 0.175990 -0.155748 -0.092312 0.165634 0.369418 0.336711
autodetected -0.353060 -0.051140 0.131487 0.055904 -0.109903 -0.174105 0.172208 -0.156482 -0.100667 0.125500 0.035907 -0.346365 0.142852 -0.084386 0.058166 0.186946 0.162813 -0.170851 0.156644 0.017318 -0.203119 0.019248 0.147470 0.038144 0.007946 -0.067173 -0.119657 -0.094732 -0.017860 -0.247215 0.074323 -0.043049 0.183002 -0.039907 -0.136008 0.134747 0.167830 -0.088764 -0.200537 -0.169307 0.391342 -0.173269 -0.040831 0.063668 0.060339 0.060740 -0.055853 -0.057110 -0.090436 0.038652
embedded 0.300204 0.264963 -0.102706 -0.087392 0.181194 0.336623 -0.395233 0.222857 -0.220884 -0.013892 0.097699 0.103767 -0.520469 0.451610 0.083702 -0.106190 -0.263641 0.256636 0.113421 0.132363 0.220152 0.441348 -0.007502 -0.126634 0.173503 0.098480 0.326237 -0.011945 -0.190688 0.256753 0.014631 -0.101006 -0.029449 0.154595 -0.067968 -0.036225 -0.501905 -0.102133 -0.090367 0.164346 -0.187898 -0.002302 -0.045758 -0.214668 0.154112 -0.045638 -0.251255 -0.044826 -0.011999 -0.441183
env -0.545350 -0.214751 0.173667 -0.194211 -0.329032 0.055214 0.060254 0.208887 0.538224 0.294203 0.286765 0.113934 0.122161 -0.136086 -0.052093 0.026309 0.073694 -0.285386 0.073423 0.271860 -0.675878 -0.675183 0.029828 -0.251267 0.326331 -0.125517 -0.288422 0.685621 0.463968 0.228029 0.015934 -0.185509 -0.129248 -0.026787 0.149352 0.110953 0.087885 0.454281 0.135915 0.063453 -0.432651 -0.388031 -0.091621 0.283815 -0.783740 0.199197 -0.077186 -0.220921 -0.441637 -0.036409
is -0.233342 0.323849 0.021479 -0.162416 0.020303 0.488868 -0.024959 0.639377 0.151011 0.140140 0.381436 0.346519 -0.236464 0.350897 0.179413 0.240493 0.056892 -0.183276 0.256685 0.548247 -0.642257 -0.354797 0.059267 0.051104 0.468048 0.175251 0.195471 0.569279 0.255199 0.332495 -0.085279 -0.422070 0.067579 -0.145802 0.047589 -0.128007 -0.328330 0.585587 0.196817 0.105255 -0.671125 -0.207204 -0.050964 0.065167 -0.362980 0.102514 0.005690 -0.006169 -0.386153 -0.383764
item 0.676454 0.465144 -0.014243 0.099056 0.457606 0.250131 -0.186083 0.019916 -0.221927 -0.004490 -0.370945 0.438059 -0.273207 -0.064387 -0.229362 0.113319 -0.120682 0.370188 -0.131882 -0.273105 0.776253 0.386037 0.001282 -0.015766 0.091026 0.562002 0.419026 -0.061938 -0.439926 -0.163113 0.174992 -0.147806 -0.026276 0.203293 -0.166023 -0.319250 -0.306300 -0.034931 -0.133337 0.099433 0.083636 0.498120 0.307107 0.054745 0.902143 -0.552526 0.083185 0.286912 0.530431 -0.269822
items -0.382889 0.057331 0.290763 -0.223626 0.321179 0.268833 0.087135 0.226970 0.226420 0.033691 0.184355 0.532120 -0.240187 0.375945 -0.149162 -0.119025 -0.236569 -0.144278 0.026272 0.479517 -0.177145 -0.569476 -0.047135 -0.074370 0.454141 0.163392 0.070808 0.322471 0.599776 0.344202 -0.290428 -0.336606 0.049328 -0.058530 0.079834 -0.075384 -0.035762 0.390678 0.428380 -0.128538 -0.619967 -0.158325 -0.044039 0.388985 -0.367781 0.107665 0.116099 0.014646 -0.439961 -0.001744
itemscontroller 0.204276 0.556436 -0.149273 0.188290 0.293944 0.077383 -0.228148 -0.031980 0.108663 0.435805 -0.313799 -0.108967 -0.007536 -0.150314 -0.262515 0.513398 -0.002167 0.025197 0.053553 -0.325963 0.259976 0.182740 -0.033276 -0.235317 0.150855 0.141815 0.344000 0.359751 -0.690657 -0.442084 0.455758 -0.044033 0.018902 0.520212 -0.297645 -0.433879 0.154094 0.156519 -0.270225 0.230968 0.486826 0.101020 0.387951 -0.230971 0.520558 -0.573650 0.001193 -0.012232 0.409324 0.132037
located -0.440962 -0.092567 0.293056 -0.090991 -0.329844 0.472338 -0.332270 0.077029 0.571397 0.170639 0.235954 0.250280 -0.286818 0.441766 0.196550 -0.299332 -0.018511 -0.318496 0.022023 0.205775 -0.582053 -0.531689 -0.253772 -0.231799 0.296016 0.056586 -0.451297 0.589496 0.511793 0.812111 -0.193352 -0.041943 -0.322773 -0.140461 0.305061 0.130375 -0.332070 0.391918 0.420514 0.109608 -0.715271 -0.009323 -0.028714 0.111955 -0.656343 0.116217 -0.145664 -0.173143 -0.384678 -0.266208
managed -0.503814 -0.127504 0.340622 -0.034027 -0.253412 0.402663 -0.314545 -0.130541 0.585856 0.225559 0.075690 0.161674 -0.243588 0.409893 0.114975 -0.245333 0.042059 -0.397709 0.026385 0.093304 -0.451926 -0.535652 -0.236106 -0.321030 0.254370 0.010572 -0.458631 0.548546 0.479204 0.670360 -0.067026 -0.008172 -0.279998 -0.039909 0.260063 0.158327 -0.148964 0.307327 0.358722 0.042462 -0.487885 0.067425 0.027576 0.167189 -0.490289 0.036764 -0.143736 -0.238002 -0.291490 -0.149085
mbean -0.371352 -0.233400 0.194929 0.278768 -0.152461 -0.267767 0.043350 -0.556086 -0.221033 0.270217 -0.205288 -0.618812 0.143776 0.045669 0.102436 0.015936 0.248010 -0.410568 0.265370 -0.208064 -0.003552 0.064101 0.037303 -0.033341 -0.227031 0.048224 -0.303063 -0.174149 0.039847 -0.154605 0.096409 0.132202 0.090191 0.215469 -0.157807 0.188123 0.320127 -0.125093 -0.382948 -0.268051 0.616410 0.064324 -0.048987 0.265666 0.201844 0.105295 -0.076840 -0.127406 0.036033 0.055548
refreshscope -0.013171 0.120473 -0.018054 -0.073489 0.252574 0.186591 -0.058393 -0.051544 0.296381 0.121797 -0.123731 0.338852 -0.187004 0.035681 -0.225443 -0.011280 -0.077138 -0.007823 -0.088553 -0.050799 0.191264 -0.289598 -0.084949 -0.176352 0.164717 -0.040674 0.083656 0.252922 0.159545 0.101024 0.045677 -0.079379 -0.081133 0.108734 0.123988 -0.115273 0.109735 0.173786 0.244312 0.112004 -0.237709 0.114140 0.215650 0.049731 0.084876 -0.336245 0.052004 -0.050550 0.064133 0.230366
startup -0.200905 0.117574 0.130958 0.047409 -0.087622 0.123471 -0.256078 0.032071 -0.178156 0.210939 0.037696 -0.085605 -0.257872 0.219189 0.172446 0.042422 0.003096 -0.143036 0.241396 0.013783 -0.146795 0.182428 -0.110192 0.161274 -0.024551 0.230643 -0.058919 0.108169 0.033593 0.179383 -0.159500 0.055287 0.034764 0.099655 -0.165669 -0.081092 -0.072425 0.049453 -0.063213 -0.051550 0.039305 -0.073600 0.191898 -0.145795 -0.025920 -0.110024 -0.080302 0.125910 -0.039723 -0.078671
void -0.173329 -0.201111 0.277447 0.213142 -0.592845 -0.126434 -0.150140 -0.630976 0.162543 0.369977 -0.329163 -0.213385 0.065727 -0.196182 0.189043 0.104438 0.242608 0.052890 0.164292 -0.446699 0.061850 0.328253 0.218661 0.057237 -0.255809 0.352157 -0.793909 0.128543 0.074551 -0.333256 0.112375 0.098044 -0.092120 0.058423 -0.103238 0.238315 0.060036 -0.336728 -0.149048 -0.019962 0.475244 0.096496 0.417570 0.155373 0.302280 -0.368444 -0.214978 0.196800 0.398546 -0.142679
by -1.168765 0.172636 0.293314 -0.202086 -0.065657 0.037640 0.381141 0.077448 0.341317 0.504740 -0.037811 -0.085756 -0.070015 0.062260 -0.051852 0.426397 0.348431 -0.786386 0.438128 0.439560 -0.741141 -0.768663 0.186153 -0.230369 0.281869 0.052746 -0.227548 0.653609 0.643672 -0.052982 0.160285 -0.368833 0.152887 0.110770 -0.231202 0.003730 0.432653 0.541205 -0.067094 -0.243239 0.081201 -0.348214 0.057299 0.486063 -0.129919 0.035678 -0.150567 -0.251252 -0.227783 0.065214
com -0.559880 0.090394 0.248121 0.081628 0.108561 -0.144917 0.006216 -0.566211 -0.166304 0.198494 -0.324773 -0.363629 -0.120790 0.160021 0.001545 0.206966 0.170169 -0.261543 0.341883 -0.205187 0.214118 0.228732 0.188087 -0.112676 -0.076892 -0.017668 -0.112726 -0.086224 -0.023950 -0.331486 0.089513 -0.022226 0.198925 0.379684 -0.371207 0.036704 0.431944 -0.328884 -0.292352 -0.274779 0.698775 -0.080244 0.153090 0.159342 0.481934 -0.129678 -0.146890 -0.093184 0.126215 0.138026
followpropertyreference 0.306413 -0.008076 0.095626 0.068400 0.120543 0.106261 -0.090773 0.101722 -0.129180 -0.213431 -0.007626 0.027994 -0.086758 0.172135 -0.035511 -0.147964 -0.055762 0.168242 -0.065548 0.087106 0.240846 0.181563 -0.011608 -0.091729 0.086534 0.097558 0.204843 -0.200992 -0.071405 0.053213 0.023922 -0.066131 0.000628 -0.067767 0.006400 0.038696 -0.219829 -0.120776 -0.018297 -0.002286 -0.045162 0.102639 -0.229490 0.049554 0.164317 0.079257 -0.002876 0.055649 -0.027233 -0.235082
propertyid -1.233357 -0.023492 0.114899 -0.358730 0.321781 -0.378913 0.379717 -0.418635 0.126140 0.328985 -0.128592 -0.045436 -0.218983 -0.054330 -0.470450 -0.095101 -0.033078 -0.566430 0.523882 0.413515 -0.120943 -0.838786 0.054067 -0.392181 0.106569 -0.023055 -0.066219 0.205158 0.886992 0.057139 -0.067125 -0.254556 0.276354 0.430688 -0.266189 -0.137703 0.559567 0.285472 -0.182535 -0.381138 0.163657 -0.482276 -0.197057 0.705031 -0.236647 0.126272 -0.153786 -0.513700 -0.221820 0.197092
put -1.319160 -0.159989 0.108476 -0.350435 0.138919 -0.538126 0.540537 -0.362229 0.105111 0.294776 -0.104245 -0.163778 -0.085160 -0.121374 -0.394844 -0.076162 0.046671 -0.602127 0.522056 0.379764 -0.187507 -0.786846 0.002503 -0.326622 -0.055363 -0.193731 -0.233310 0.129327 0.825125 -0.013383 -0.145444 -0.113771 0.279215 0.346560 -0.177321 -0.059870 0.680282 0.213542 -0.036138 -0.300673 0.240377 -0.470798 -0.209760 0.561493 -0.350350 0.205120 -0.117794 -0.566323 -0.219596 0.442358
consumes -1.112311 -0.224591 0.263813 -0.118967 -0.062849 -0.341121 0.303254 -0.385982 -0.118281 0.239989 -0.067990 -0.288980 -0.094684 0.035879 -0.064167 -0.068180 0.210414 -0.597684 0.509043 0.166128 -0.237771 -0.390259 -0.040978 -0.111667 -0.190316 -0.099454 -0.397217 -0.017435 0.600759 0.059280 -0.247112 0.032115 0.201923 0.173602 -0.141080 0.047149 0.601162 0.059688 -0.001147 -0.350399 0.358804 -0.111358 -0.075858 0.345593 -0.170024 0.126366 -0.133018 -0.405051 -0.265391 0.395207
actuatorendpointlinksadvice 0.905816 0.582279 -0.382515 -0.011231 0.811784 0.168032 0.087539 0.358948 0.052925 -0.042257 -0.222910 0.658195 -0.006439 -0.239571 -0.464842 0.358125 -0.318090 0.493585 -0.482923 -0.281249 0.739849 0.105395 0.001900 0.066073 0.172370 0.130435 0.860542 0.051996 -0.725145 -0.450402 0.193457 -0.086624 -0.021295 0.302151 -0.021490 -0.582493 -0.061590 0.207781 0.184495 0.378097 -0.002772 0.312371 0.468227 -0.320342 0.579646 -0.583385 0.379644 0.335955 0.556530 0.333959
all -1.193281 0.157225 0.306719 -0.129288 0.027239 -0.054178 0.340632 -0.145400 0.228535 0.524988 -0.169391 -0.182015 -0.120666 0.077177 -0.082113 0.431679 0.364072 -0.803224 0.482685 0.324310 -0.515918 -0.659773 0.205269 -0.227279 0.208526 0.055587 -0.245059 0.518293 0.594196 -0.137134 0.172055 -0.320440 0.199299 0.246247 -0.311741 -0.014551 0.531239 0.374340 -0.135757 -0.303778 0.275425 -0.307348 0.096815 0.515582 0.066069 -0.032116 -0.161427 -0.283147 -0.135963 0.139424
alps -0.253128 0.215638 0.084074 0.159572 0.058388 0.149944 -0.219719 -0.254687 -0.209883 0.210246 -0.125561 -0.244106 -0.257499 0.251647 0.094186 0.092014 0.132942 -0.265694 0.324826 -0.096444 0.051262 0.217533 -0.037083 -0.117112 -0.057662 0.193584 0.001621 0.064705 -0.121316 0.027814 0.045343 -0.014980 0.050265 0.249697 -0.190783 -0.048092 0.038723 -0.084573 -0.284928 -0.037484 0.286908 0.123535 0.150310 0.068213 0.350199 -0.192327 -0.192751 -0.116677 0.080686 -0.111310
annotation 0.034696 0.416820 -0.037771 0.129681 0.313285 -0.084283 -0.116983 -0.033154 -0.720253 0.120827 -0.175181 0.209945 -0.381179 -0.001609 -0.024855 0.014325 -0.113350 -0.161141 0.364113 -0.069699 0.522160 0.217103 -0.252603 0.285680 -0.190210 0.344246 0.146113 -0.332627 0.074819 0.312304 -0.242959 0.063790 0.109579 0.181018 -0.283253 -0.532300 0.011083 0.166348 -0.068398 -0.258391 0.251033 0.221803 0.229856 -0.032024 0.424251 -0.177845 -0.152580 0.090940 0.448324 0.262674
auto -0.815563 0.013466 0.004951 -0.399215 0.406956 -0.309071 0.859850 0.271424 0.404948 0.140165 0.199510 0.134306 0.262985 -0.111888 -0.302122 0.474397 0.145909 -0.430760 0.069037 0.464366 -0.636447 -0.932574 0.239970 0.092200 0.273495 -0.447679 0.240883 0.169316 0.507273 -0.341816 -0.050946 -0.372111 0.333136 -0.020126 -0.047162 0.062979 0.543570 0.407757 0.382466 -0.187686 -0.139140 -0.597300 -0.036173 0.172126 -0.397802 0.384086 0.241623 -0.081321 -0.381714 0.555690
beanpostprocessorchecker 0.295163 -0.396436 -0.035951 -0.164062 0.017841 0.027127 0.003887 -0.181927 0.532649 -0.181265 -0.113800 0.262399 0.174436 -0.165289 -0.268608 -0.302369 -0.223042 0.346279 -0.452869 -0.201493 0.244825 -0.256604 -0.171964 -0.332337 -0.048080 -0.457242 -0.139405 -0.111889 0.113772 0.142204 0.155899 0.146238 -0.252652 -0.015406 0.446528 0.233660 -0.084325 -0.229012 0.427286 0.237973 -0.272437 0.176185 -0.107766 -0.138910 -0.099870 0.025991 0.098743 -0.195643 0.069213 0.128097
beanpostprocessors -1.174145 0.094464 0.273711 -0.150536 0.069284 -0.134237 0.459244 -0.102197 0.270370 0.480951 -0.107874 -0.168333 -0.012670 0.036322 -0.090664 0.477387 0.370286 -0.764202 0.426117 0.359289 -0.576755 -0.716212 0.250491 -0.165077 0.249444 -0.054571 -0.171374 0.441159 0.576084 -0.211126 0.159112 -0.355181 0.267458 0.183894 -0.265860 0.036271 0.554106 0.354802 -0.045441 -0.330807 0.272026 -0.362483 0.063175 0.458054 -0.011561 0.034536 -0.081417 -0.252321 -0.204338 0.230094
beans -0.396242 0.026997 0.085319 -0.215301 0.109064 0.142507 0.079939 0.285788 0.180420 0.077702 0.135180 0.293433 -0.173271 0.065267 -0.054678 -0.024959 0.032388 -0.346935 0.124086 0.349760 -0.282395 -0.572344 0.070223 -0.044215 0.189949 -0.000862 -0.050396 0.354835 0.566672 0.274826 -0.154951 -0.169060 0.016169 -0.046200 0.033974 -0.043698 0.130272 0.344994 0.178886 -0.064052 -0.536527 -0.203159 -0.096843 0.322376 -0.271458 0.144934 0.037155 -0.148873 -0.316451 -0.100144
cc 0.030480 0.390513 -0.086151 0.050008 0.397965 -0.159256 0.143520 0.074659 -0.408315 0.120302 -0.157862 0.309222 -0.150313 -0.132667 -0.141125 0.186344 -0.110131 -0.129611 0.135610 -0.073490 0.379506 -0.031930 -0.206287 0.355484 -0.103120 0.228607 0.217283 -0.199639 0.037596 0.071633 -0.195276 0.022189 0.109217 0.140681 -0.206630 -0.489942 0.181024 0.284510 0.122720 -0.151465 0.136761 0.152728 0.334502 -0.055996 0.261305 -0.182440 0.065410 0.195477 0.392335 0.490313
configurationpropertiesrebinder 0.095953 0.243304 -0.032339 -0.022276 0.241932 0.283212 -0.183003 0.105509 0.134555 0.105002 -0.030512 0.344857 -0.288365 0.146162 -0.155399 0.005237 -0.152222 0.009484 -0.022872 0.035552 0.156419 -0.176025 -0.113134 -0.086378 0.186556 0.075167 0.195915 0.222369 0.092667 0.206191 -0.033344 -0.097734 -0.087455 0.093775 0.080648 -0.193223 -0.095747 0.165420 0.199895 0.129234 -0.297988 0.143634 0.180375 -0.032122 0.090819 -0.244721 0.015205 -0.021263 0.098061 0.034469
configurationpropertiesrebinderautoconfiguration 0.421091 0.348716 -0.103085 0.047552 0.353030 0.415229 -0.384760 -0.109007 -0.059147 0.046902 -0.078907 0.169562 -0.372117 0.193125 -0.134034 -0.035057 -0.275257 0.234863 -0.039800 -0.128529 0.486556 0.280525 -0.101485 -0.181661 0.150603 0.218345 0.268577 0.047454 -0.361528 0.020977 0.019743 -0.004917 -0.098860 0.262975 0.045945 -0.206213 -0.362825 -0.064581 -0.005270 0.296621 -0.079982 0.306461 0.179456 -0.134013 0.335290 -0.481894 -0.114106 0.012428 0.163562 -0.156959
date -0.606918 0.159117 0.312054 0.147058 -0.048267 0.192281 -0.350909 -0.266420 -0.130566 0.415654 -0.076909 -0.282118 -0.353152 0.320226 0.128931 0.069605 0.139038 -0.479474 0.458145 -0.013837 -0.217529 0.058201 -0.083975 -0.047554 -0.001523 0.320657 -0.163056 0.249653 0.156001 0.175883 -0.075034 -0.000781 0.059372 0.308585 -0.306158 -0.065675 0.056680 0.061822 -0.283826 -0.169831 0.239041 -0.081455 0.204513 0.110673 0.119374 -0.203392 -0.211514 -0.084920 -0.063804 -0.159082
enhancerbyspringcglib 0.091461 0.291083 -0.031733 -0.021252 0.121468 0.425238 -0.344430 0.196812 -0.028897 0.098498 0.180402 0.253746 -0.377084 0.290096 0.063052 -0.037226 -0.166550 0.003585 0.159972 0.147966 -0.098499 0.023312 -0.112217 -0.007285 0.238802 0.275353 0.109499 0.301629 -0.020090 0.347727 -0.182415 -0.101100 -0.053031 0.070540 0.034873 -0.212565 -0.343827 0.286741 0.061618 0.173123 -0.460839 0.083024 0.110316 -0.011803 -0.122986 -0.194203 -0.101015 0.035009 -0.144984 -0.317786
environmentmanager 0.044038 0.264983 -0.080254 -0.043307 0.306476 0.277651 -0.131652 0.019332 0.195522 0.150242 -0.089891 0.359891 -0.231531 0.083240 -0.246859 0.072887 -0.071853 -0.014673 -0.047848 -0.016566 0.230818 -0.214521 -0.067076 -0.116883 0.175059 0.064420 0.196544 0.330970 0.085160 0.066497 0.040260 -0.107836 -0.084895 0.165902 0.043624 -0.229691 0.052133 0.204190 0.208070 0.170228 -0.270717 0.159093 0.233753 0.040570 0.136999 -0.338868 0.035361 -0.015224 0.103525 0.126761
example -1.130752 0.081658 0.202621 -0.208813 0.170051 -0.130913 0.529992 -0.005072 0.291805 0.389943 0.073610 -0.105298 0.023312 0.070108 -0.115861 0.445955 0.317928 -0.704221 0.393603 0.450303 -0.646896 -0.792064 0.233067 -0.049795 0.292848 -0.175676 -0.033519 0.373296 0.602113 -0.173705 0.039987 -0.400552 0.327355 0.087920 -0.164866 0.065248 0.475115 0.425411 0.089755 -0.336737 0.086485 -0.446105 -0.044667 0.396146 -0.215933 0.174450 0.002788 -0.274460 -0.351140 0.295213
exceptionhandlerexceptionresolver -0.211909 0.042164 0.099639 -0.184457 -0.293483 0.538289 -0.173184 0.421742 0.677426 0.215517 0.439851 0.297149 -0.209064 0.356242 0.099744 0.015530 -0.102257 -0.003162 -0.006650 0.398157 -0.804334 -0.539776 -0.094097 -0.082806 0.545827 -0.032903 -0.208187 0.681799 0.415395 0.459845 -0.173732 -0.311033 -0.216343 -0.247441 0.346906 0.203689 -0.431101 0.402186 0.588337 0.309837 -0.959006 -0.275132 -0.030342 -0.084480 -0.740715 0.040297 -0.039963 0.009417 -0.534706 -0.297160
getting -1.073468 0.164071 0.346625 -0.143782 -0.077656 0.142844 0.209913 0.026950 0.287133 0.498597 0.030569 -0.108027 -0.114651 0.190887 0.010592 0.352403 0.326123 -0.696509 0.467793 0.394704 -0.735398 -0.612861 0.145910 -0.249278 0.344455 0.064049 -0.191479 0.568551 0.542521 0.005332 0.143930 -0.367821 0.165208 0.089606 -0.225841 0.061734 0.281701 0.450966 -0.079590 -0.262138 0.073430 -0.303396 0.014361 0.425351 -0.131699 0.062156 -0.174903 -0.250494 -0.294466 -0.040401
gmt -0.581240 0.111027 0.258522 0.226940 -0.001839 -0.084557 -0.223661 -0.527897 -0.293195 0.298913 -0.267594 -0.435344 -0.218839 0.145525 0.026182 0.083065 0.213336 -0.544513 0.504968 -0.138254 0.011793 0.145902 0.030868 -0.102391 -0.228774 0.239257 -0.183649 -0.037204 0.086654 -0.061824 0.030271 0.093210 0.143220 0.392853 -0.435297 -0.058925 0.295986 -0.135648 -0.484051 -0.368804 0.590799 0.008122 0.137951 0.193869 0.384370 -0.138318 -0.251192 -0.128592 0.117792 -0.015457
halbrowser -0.070084 0.644503 0.160539 0.182815 0.461648 0.378449 -0.454323 -0.031577 -0.266798 0.383911 -0.344654 0.041805 -0.408290 0.182959 -0.160394 0.329772 0.110671 -0.306790 0.253225 -0.287363 0.275182 0.211109 -0.080244 -0.199767 0.195513 0.435044 0.381080 0.282533 -0.412468 -0.107280 0.258216 -0.109578 0.074917 0.488604 -0.341486 -0.455750 0.124850 0.220189 -0.358287 -0.058725 0.389889 0.398700 0.368023 0.079992 0.848458 -0.546671 -0.098744 -0.075691 0.266587 -0.109023
instrument 0.000446 0.388263 -0.030288 0.245413 0.367703 0.109506 -0.443338 -0.469917 -0.558525 0.166039 -0.204494 -0.189577 -0.491288 0.133883 -0.072239 -0.174698 -0.106056 -0.083341 0.421524 -0.219936 0.609304 0.445468 -0.190204 -0.015332 -0.235328 0.467513 0.149126 -0.218827 -0.207800 0.084696 -0.172792 0.121623 -0.007550 0.436409 -0.351814 -0.317650 -0.048243 -0.199948 -0.443402 -0.120567 0.353758 0.283135 0.206095 0.162868 0.547866 -0.314522 -0.252207 -0.145252 0.325749 -0.144442
jar -0.992161 0.264595 0.237699 0.079477 0.176351 -0.092358 -0.082824 -0.731690 0.048426 0.644767 -0.404860 -0.476641 -0.240548 0.221093 -0.079427 0.428241 0.259570 -0.588539 0.575722 -0.225569 0.008352 -0.036357 0.196966 -0.296986 0.004173 0.011739 -0.210735 0.293766 -0.017013 -0.455605 0.213711 -0.079359 0.213284 0.676795 -0.458332 -0.059551 0.674836 -0.134148 -0.389432 -0.216250 0.774246 -0.240700 0.327353 0.279499 0.418703 -0.275012 -0.210093 -0.332650 0.095771 0.241798
map -0.139944 0.112662 -0.220394 0.214583 -0.474851 -0.334003 0.066815 -0.187366 0.510972 0.667515 -0.128140 -0.517692 0.606148 -0.402083 0.000860 0.825069 0.181015 -0.150903 -0.071784 -0.636344 -0.512609 -0.018962 0.070017 -0.064732 -0.091990 -0.379917 -0.179817 0.742597 -0.777457 -0.800462 0.475068 0.288527 0.005584 0.374446 -0.138530 -0.110294 0.742562 0.099173 -0.167585 0.359381 0.829892 -0.294957 0.566649 -0.545520 -0.168871 -0.386145 0.052812 0.032814 0.307716 0.656175
mar -0.684215 0.145811 0.307148 0.203720 0.026600 -0.017761 -0.227313 -0.496828 -0.266526 0.346206 -0.234702 -0.421579 -0.284785 0.207714 0.034196 0.083178 0.202845 -0.609958 0.549817 -0.087400 -0.073629 0.085398 -0.008240 -0.090753 -0.170008 0.272798 -0.172574 0.017019 0.166350 0.002831 -0.016493 0.062129 0.133881 0.422761 -0.439300 -0.081074 0.266117 -0.074968 -0.473399 -0.363393 0.518258 -0.041481 0.150768 0.216184 0.336967 -0.151045 -0.245662 -0.137199 0.052721 -0.053276
