t -0.076765 -0.586064 0.369571 0.666768 0.214387 -0.514844 0.380010 0.504904 0.397773 -0.579514 -0.455756 0.252976 0.219613 -0.048415 -0.630941 -0.272621 -1.476641 -0.305440 1.258938 0.471982 0.502916 0.219928 0.473838 0.220668 -0.895869 0.258815 0.121971 0.267984 -0.214690 -0.106399 0.206579 -0.291685 -0.556227 -0.056788 -0.389381 -0.369421 -0.289258 0.441323 0.263096 0.125960 -0.618517 0.839930 0.583376 -0.021334 0.262758 -0.246458 -1.065017 0.196714 -0.254753 -1.104770
i -0.019843 -0.581594 0.348000 0.497240 0.238871 -0.363384 0.451066 0.552500 0.393353 -0.707915 -0.433901 0.229372 0.189216 -0.066231 -0.735154 -0.273002 -1.383810 -0.311184 1.248222 0.498722 0.381983 0.159662 0.458286 0.176070 -0.861739 0.436461 0.247409 0.305871 -0.335220 -0.099285 0.060538 -0.302250 -0.544713 -0.130669 -0.316509 -0.403661 -0.101865 0.433375 0.212380 0.098534 -0.575259 0.704112 0.739754 -0.043855 0.199911 -0.208615 -1.124583 0.243528 -0.203478 -1.089261
initandlisten 0.110628 -0.154125 0.520427 0.083250 0.521214 0.166630 0.330022 0.542973 0.087819 -0.620117 -0.316654 -0.190737 0.181140 -0.009133 -0.762576 -0.202958 -1.292885 -0.528863 0.847587 0.102126 -0.170116 0.370199 0.181044 -0.307103 -1.095889 -0.001348 0.528685 -0.011092 -0.241281 0.186604 -0.099560 0.082773 -0.275564 -0.315205 -0.170746 -0.241614 0.155976 0.211645 0.268031 0.228048 -0.632225 0.212366 1.076754 -0.107019 -0.198380 -0.423656 -1.159745 -0.115962 -0.412364 -1.011446
control -0.196689 -0.047574 0.495239 0.064135 0.711033 0.098899 0.367725 0.453518 -0.237246 -0.731397 -0.279840 0.046668 0.172539 -0.022510 -0.764086 -0.308813 -0.977338 -0.497585 0.784423 0.015955 -0.066316 0.291678 0.139115 -0.102016 -1.303942 0.266943 0.676719 -0.312657 -0.337791 0.381414 0.177832 0.168360 -0.452014 -0.356458 -0.044641 -0.075905 0.501517 0.111105 0.457578 0.244089 -0.505262 0.391956 1.029573 -0.000922 -0.317954 -0.324453 -1.253076 0.032498 -0.244798 -1.045905
storage 0.209742 -0.069075 0.061917 0.049771 -0.055320 -0.020656 0.059510 0.642890 0.280995 -0.180485 -0.265546 -0.173159 -0.150903 -0.002727 0.069784 0.013367 -0.881625 -0.243060 0.534278 0.533641 -0.699922 0.036984 0.331760 -0.053515 -0.799509 -0.587405 0.405626 -0.025272 0.057591 0.000122 -0.183957 0.245949 0.243388 -0.561422 -0.335568 -0.137055 -0.409365 0.244672 -0.211763 -0.165859 -0.588771 -0.290356 0.120824 -0.083870 0.350982 -0.031405 -0.852713 -0.141383 -0.345317 -0.776694
signalprocessingthread -0.263214 0.046354 0.146513 -0.058033 0.190887 -0.266913 0.044101 0.357083 -0.122147 -0.412222 -0.139873 0.328295 -0.077749 0.098165 0.042400 -0.309861 -0.404863 0.060635 0.483644 0.469012 -0.417308 -0.155719 0.292414 0.459596 -0.912567 0.002224 0.593954 -0.325166 -0.174156 0.237308 0.203634 0.279484 -0.126958 -0.627610 -0.115170 0.118393 0.377201 0.090885 0.105145 -0.049490 -0.399925 -0.107457 0.110935 0.144545 0.266484 -0.062133 -0.856854 0.193121 0.068379 -0.847351
network -0.145666 -0.647833 -0.218832 0.205129 -0.231397 -0.157958 0.344929 0.551045 0.228337 -0.397612 -0.223464 0.388496 0.081230 -0.176055 -0.240768 -0.354651 -0.171965 0.323610 0.631992 0.676288 -0.000871 -0.233234 0.652997 0.317369 -0.349584 0.420323 0.382261 0.355505 -0.242180 -0.149989 -0.009015 -0.249411 -0.183062 -0.255480 -0.034173 -0.332315 0.329501 0.329961 0.034734 -0.313233 -0.614241 0.349828 -0.148099 0.028341 0.366194 0.249299 -0.734204 0.655636 -0.011201 -0.543157
data 0.270870 0.006866 0.783621 0.285690 0.372376 -0.197728 0.135336 -0.258475 0.190131 -0.104373 -0.112308 -0.104430 0.137406 0.163739 -0.263700 0.296099 -0.829031 -0.652073 0.371953 -0.426703 0.860221 0.427421 -0.325921 -0.259793 0.313114 0.050258 -0.447996 0.117152 -0.200772 -0.086802 0.097162 -0.141941 -0.332457 0.507078 -0.443526 -0.012701 -0.846241 0.113356 0.170581 0.654875 0.747626 0.571030 0.923717 -0.008791 -0.201321 -0.580870 0.275298 -0.364487 0.187925 -0.238855
connection 0.071172 -1.214828 -0.298905 0.411207 -0.524041 -0.046540 0.492224 0.394874 0.626011 -0.318946 -0.172733 0.215893 0.280831 -0.272538 -0.573630 -0.339876 0.158336 0.499509 0.437706 0.514714 0.527535 -0.178953 0.695096 0.136874 0.534142 0.830131 -0.070061 0.924656 -0.354724 -0.477310 -0.142078 -0.766006 -0.169076 0.374795 0.076214 -0.643454 0.209416 0.437646 0.037301 -0.338930 -0.452657 0.779397 -0.195132 -0.086918 0.286231 0.368775 -0.097318 0.884247 -0.026274 0.062693
now 0.029130 -1.088902 -0.097057 0.405283 -0.332670 -0.167262 0.484607 0.388926 0.582309 -0.423489 -0.192552 0.229916 0.298398 -0.174677 -0.602611 -0.383111 -0.073365 0.393569 0.553283 0.495912 0.502712 -0.124890 0.620503 0.229042 0.283286 0.820771 0.061075 0.747281 -0.416839 -0.374931 -0.034912 -0.654945 -0.218777 0.247114 -0.035886 -0.558171 0.214630 0.428304 0.099169 -0.190388 -0.420882 0.811114 0.043956 -0.053075 0.279865 0.219787 -0.286385 0.835843 0.015767 -0.222957
open 0.125010 -1.090870 -0.113157 0.444923 -0.399639 -0.244951 0.438586 0.367725 0.699571 -0.369795 -0.198339 0.171782 0.246246 -0.137531 -0.547421 -0.385427 -0.113485 0.370223 0.531213 0.530741 0.575635 -0.138130 0.549044 0.154317 0.442908 0.769808 0.016045 0.854566 -0.385746 -0.467475 -0.111019 -0.685510 -0.160336 0.317427 -0.054437 -0.607156 -0.006090 0.487220 -0.006593 -0.136916 -0.362929 0.815306 0.013874 -0.131854 0.338555 0.209925 -0.176611 0.846284 0.014804 -0.157831
db 0.047944 -0.061491 0.591001 0.123324 0.440158 0.122470 0.110294 -0.091880 -0.068201 -0.015961 -0.039434 -0.072181 0.219178 0.015519 -0.311897 0.099809 -0.374217 -0.494917 0.309209 -0.429463 0.606867 0.407427 -0.184086 -0.304114 0.036861 0.096547 -0.163086 -0.004418 -0.126989 0.089517 0.206744 -0.003104 -0.246166 0.328948 -0.182382 -0.058285 -0.284675 0.076655 0.346801 0.497457 0.353311 0.493296 0.682061 0.108709 -0.374961 -0.436316 -0.094515 -0.133163 0.058715 -0.229766
wiredtiger 0.218914 -0.355348 -0.023470 0.089797 -0.207358 -0.081064 0.122721 0.625789 0.461076 -0.263807 -0.176685 -0.063523 -0.103563 0.015190 -0.055832 -0.227515 -0.464915 0.054024 0.452699 0.618465 -0.490321 -0.105989 0.399848 0.058510 -0.397162 -0.142716 0.542468 0.214412 -0.102826 -0.155937 -0.239983 0.022506 0.253546 -0.437786 -0.153193 -0.249208 -0.145223 0.358390 -0.259937 -0.149348 -0.574460 -0.065189 0.065412 -0.136496 0.401440 0.058337 -0.653728 0.322533 -0.161164 -0.624708
connections -0.012516 -0.959985 -0.408184 0.353182 -0.435656 -0.072484 0.426542 0.326648 0.465976 -0.258792 -0.165820 0.220585 0.202395 -0.275601 -0.503294 -0.274772 0.216924 0.480855 0.315250 0.490433 0.414986 -0.181107 0.614802 0.171701 0.440164 0.759979 -0.025571 0.768184 -0.213205 -0.398490 -0.118265 -0.706075 -0.130454 0.285326 0.093097 -0.537538 0.284719 0.371206 0.002067 -0.359332 -0.479848 0.630745 -0.271607 -0.089417 0.274073 0.407632 -0.101664 0.786617 -0.044637 0.071310
the 0.151371 -0.000552 -0.154589 0.003752 -0.155162 -0.084810 -0.091634 0.310765 0.268288 -0.057369 -0.104987 -0.116641 -0.167458 0.000763 0.125525 -0.092148 -0.204819 0.041064 0.169203 0.388997 -0.463689 -0.112224 0.141589 -0.001594 -0.237790 -0.326069 0.265803 -0.003400 0.038150 -0.112568 -0.158451 0.100566 0.299764 -0.358725 -0.084110 -0.032347 -0.212862 0.150225 -0.303052 -0.142246 -0.366159 -0.219667 -0.131513 -0.097992 0.326922 0.141060 -0.284253 0.051500 -0.123884 -0.289484
thread -0.090796 -0.789525 -0.395648 0.274830 -0.389712 -0.049517 0.367960 0.428849 0.353320 -0.282134 -0.186740 0.287502 0.096992 -0.249457 -0.322950 -0.317029 0.116642 0.428301 0.437627 0.592816 0.186164 -0.245539 0.673737 0.220466 0.074124 0.564219 0.148616 0.587706 -0.173192 -0.298506 -0.106505 -0.459140 -0.154967 0.012705 0.098855 -0.441058 0.288000 0.347564 -0.003951 -0.414645 -0.549163 0.422623 -0.331378 -0.040931 0.299810 0.407270 -0.370707 0.713114 -0.063111 -0.141496
to 0.035767 -0.565170 0.342051 0.070806 -0.067997 -0.119331 0.133763 0.460150 0.123710 -0.307787 0.063469 0.234757 0.131806 0.054558 0.008732 -0.168990 -0.141731 0.108383 0.151404 0.325974 -0.071593 -0.050904 0.396606 0.203253 -0.165636 0.211927 0.540908 0.171465 -0.224287 0.083780 -0.012579 0.039689 0.149763 -0.122336 -0.174387 -0.229106 0.040583 0.265367 0.079861 0.044920 -0.201162 0.298475 0.239464 0.036397 0.224606 -0.186260 -0.370114 0.507613 0.210357 -0.515540
log -0.111637 -0.084905 0.071009 0.225275 -0.225837 0.010585 -0.145989 -0.316706 -0.054430 0.431204 0.106683 -0.073531 0.220185 -0.020340 0.222553 0.159033 0.007934 0.156719 -0.175077 -0.228040 0.163121 0.129799 0.016030 0.155802 0.164068 -0.362330 -0.617286 -0.097294 0.319528 0.017287 0.489128 -0.124088 -0.032681 0.321228 -0.243185 0.154182 -0.062770 -0.156663 0.377547 -0.069807 -0.030504 0.140933 -0.427060 0.272955 0.080150 -0.060193 0.431534 -0.277757 -0.196572 0.285053
version -0.042553 -0.063857 0.086957 0.010277 0.122412 0.052119 0.073020 0.192725 -0.094277 -0.135824 -0.026179 0.012439 0.072994 0.003269 -0.186438 -0.226593 -0.121095 -0.049364 0.236639 0.066875 -0.190476 -0.044849 0.143583 -0.038451 -0.436043 0.049346 0.274867 -0.038827 -0.082226 0.106165 -0.033818 0.154236 0.025855 -0.188641 0.034701 -0.060359 0.220498 0.021215 0.127733 -0.001152 -0.269080 0.035143 0.098495 -0.042369 -0.002803 -0.039257 -0.385042 0.133898 -0.088242 -0.229885
accepted 0.066236 -0.961953 -0.213098 0.330129 -0.457797 -0.056327 0.368927 0.304262 0.543682 -0.243172 -0.139624 0.168063 0.181571 -0.201199 -0.402155 -0.285465 0.152200 0.432448 0.315500 0.443886 0.386813 -0.166024 0.585555 0.132412 0.469524 0.605193 -0.074005 0.743090 -0.286724 -0.394969 -0.120070 -0.595668 -0.132888 0.270426 0.055992 -0.482534 0.146336 0.334445 -0.002584 -0.305353 -0.324609 0.548714 -0.217078 -0.044714 0.267646 0.323543 -0.009400 0.684125 -0.002791 0.065183
from 0.089461 -0.968326 -0.161647 0.339963 -0.441622 -0.072519 0.374140 0.283831 0.569957 -0.246366 -0.129882 0.152147 0.194516 -0.183609 -0.417633 -0.264940 0.131264 0.411085 0.301888 0.413825 0.431407 -0.140998 0.564469 0.122800 0.520867 0.628961 -0.096105 0.753900 -0.301893 -0.405101 -0.112730 -0.616304 -0.133701 0.307387 0.028616 -0.488032 0.110162 0.335597 0.002721 -0.267481 -0.265505 0.580716 -0.157536 -0.037718 0.261240 0.290003 0.036552 0.674181 0.012336 0.063420
is -0.125903 -0.087277 -0.004657 -0.021273 0.176228 0.122324 0.128408 0.320212 -0.128509 -0.225747 -0.042155 0.105965 -0.029953 -0.023630 -0.146936 -0.211847 0.070224 -0.041317 0.199651 0.151994 -0.143452 0.011846 0.182832 0.080062 -0.421525 0.165034 0.434577 -0.171688 -0.145991 0.121473 0.067206 0.107251 0.021765 -0.151295 0.085056 -0.004613 0.355465 0.097476 0.140599 -0.036282 -0.174560 0.100786 0.092619 -0.003500 -0.048403 0.077775 -0.499369 0.274353 -0.004424 -0.308895
mongodb -0.007894 0.156884 -0.073652 0.009296 0.207556 0.167963 0.084506 -0.031530 -0.237207 -0.046143 -0.113346 -0.062361 0.109409 -0.125676 -0.242170 0.191878 -0.308524 -0.204622 0.063205 -0.210748 -0.008978 0.176652 -0.082132 -0.265156 -0.250805 -0.033701 -0.160701 -0.024089 0.119899 0.061496 -0.125516 -0.063023 -0.241530 -0.049500 0.080338 -0.097174 0.050788 -0.164146 0.120989 -0.211457 -0.212033 -0.061976 0.144568 -0.009132 -0.200753 -0.036779 -0.167910 -0.343308 -0.292647 -0.004445
x -0.008168 -0.212951 0.023486 0.078976 0.035738 -0.017144 0.194173 0.385855 0.175063 -0.364684 -0.092763 0.067798 -0.050232 0.009497 -0.305274 -0.260920 -0.314129 -0.012149 0.386668 0.289680 -0.224133 -0.041944 0.234996 0.115789 -0.503440 0.199689 0.478503 0.050873 -0.185162 0.012895 -0.125612 0.016512 -0.087013 -0.329902 0.057328 -0.085229 0.340420 0.141208 -0.011575 0.012829 -0.414933 0.083089 0.319447 -0.070097 0.051312 0.042880 -0.582528 0.227564 -0.084644 -0.485155
engine 0.144963 -0.178017 -0.120395 -0.008419 -0.256519 -0.083716 0.011511 0.513066 0.314937 -0.083160 -0.114519 -0.014788 -0.165168 -0.021566 0.164840 -0.098716 -0.298835 0.095129 0.229506 0.560458 -0.571113 -0.188047 0.330168 0.104275 -0.350433 -0.297229 0.437123 0.120243 -0.001279 -0.070729 -0.217229 0.115889 0.312051 -0.443219 -0.156095 -0.155084 -0.207435 0.230640 -0.326354 -0.207247 -0.439747 -0.259926 -0.131754 -0.112075 0.393517 0.143949 -0.497544 0.184041 -0.103266 -0.441815
with 0.157466 -0.005721 0.352533 0.203351 0.058610 -0.310939 -0.036278 -0.034513 0.268488 -0.207283 -0.106686 -0.088648 -0.139735 0.197367 0.030373 -0.019511 -0.534051 -0.315182 0.211227 0.030927 0.100256 0.074543 -0.146334 0.023065 -0.124067 -0.118016 -0.075018 -0.107086 -0.174919 -0.052208 0.068321 0.085724 -0.062639 0.025973 -0.204091 0.083345 -0.532442 0.134950 -0.075949 0.333291 0.281866 0.224324 0.366299 -0.100726 0.152014 -0.221288 0.111115 -0.235922 0.123998 -0.255237
d 0.057582 0.107534 0.040813 0.004911 0.082119 -0.007589 -0.017500 -0.076555 0.037083 0.030739 0.076707 0.046797 -0.062104 0.014195 -0.048128 0.019579 -0.018123 -0.108233 -0.009441 -0.063306 0.129142 -0.069926 -0.087374 0.039798 0.096808 0.238184 0.029201 0.018162 -0.068762 -0.027247 -0.184584 -0.027799 0.008309 0.090596 0.017663 0.010756 -0.011541 0.007992 -0.060475 0.048106 0.245444 0.008106 0.169283 0.037160 -0.073605 0.011707 0.140759 -0.036473 0.168624 0.049574
diagnostic 0.265851 0.156087 0.453582 0.241315 0.128732 -0.267120 -0.039581 -0.383471 0.289398 0.039280 -0.061205 -0.140797 0.032101 0.123176 -0.136182 0.207340 -0.565993 -0.350752 0.180173 -0.284028 0.556995 0.205264 -0.368140 -0.109501 0.360510 -0.081437 -0.560597 0.120902 -0.066849 -0.169061 -0.006503 -0.174214 -0.226783 0.351917 -0.278824 0.074623 -0.691585 -0.061758 -0.065409 0.352574 0.540636 0.238614 0.471598 -0.031115 -0.051660 -0.274471 0.447716 -0.374907 0.061429 0.046468
down -0.082990 0.278589 0.214914 0.051749 0.178419 -0.368749 -0.085041 -0.023135 0.072396 -0.227663 -0.120662 0.056357 -0.213618 0.209267 0.065403 -0.078609 -0.497828 -0.174358 0.300385 0.187710 -0.156486 -0.053979 -0.058363 0.280955 -0.507139 -0.123553 0.033297 -0.288495 -0.052725 0.081808 0.170960 0.228923 -0.186397 -0.258398 -0.080500 0.207513 -0.160620 -0.017903 -0.017885 0.063484 0.058481 -0.151485 0.108679 0.034056 0.172687 -0.087783 -0.199078 -0.248387 0.036929 -0.348678
f 0.060981 0.177599 0.086066 -0.092587 0.150351 0.052550 -0.019688 -0.068589 -0.032607 0.076068 0.102326 0.060149 -0.046038 0.004475 -0.044432 0.005053 -0.015608 -0.122528 -0.026217 -0.132586 0.021249 -0.140512 -0.151880 -0.058985 0.031069 0.229025 0.105020 -0.031109 -0.112072 0.061213 -0.251118 0.044060 0.087422 0.042955 0.056542 0.080031 0.093219 -0.061400 -0.014125 -0.009702 0.214215 -0.060677 0.255125 0.038824 -0.137320 0.010854 0.090553 -0.064630 0.201952 0.061306
listening 0.028606 -0.300505 0.060918 0.082203 -0.047745 -0.126198 0.181630 0.248446 0.186870 -0.256397 -0.065958 0.134803 0.014159 -0.079931 -0.211369 -0.118261 -0.107791 0.131312 0.285141 0.292812 0.075725 -0.073440 0.278638 0.110022 -0.069303 0.248604 0.147201 0.162915 -0.218918 -0.043067 0.049270 -0.206553 -0.090907 -0.045734 -0.060116 -0.089369 0.106509 0.111645 0.018894 -0.060546 -0.118042 0.241559 0.087892 -0.019297 0.168045 0.070455 -0.235298 0.320747 0.045452 -0.254410
shutdown -0.190333 -0.257342 0.106371 -0.056847 0.014831 -0.064496 -0.011445 0.477850 -0.097735 -0.272594 -0.011654 0.323800 0.055583 0.012863 0.122346 -0.286337 -0.107705 0.196749 0.249291 0.399289 -0.398052 -0.131664 0.406624 0.343130 -0.588503 0.043534 0.711090 -0.138100 -0.098947 0.176282 0.073464 0.201534 0.109128 -0.458366 -0.079202 -0.063741 0.412000 0.170106 0.061824 -0.096777 -0.463795 -0.013846 0.032913 0.134890 0.223130 -0.066906 -0.685573 0.407338 0.096085 -0.687053
shutting -0.157334 0.291483 0.150667 -0.016281 0.190052 -0.328628 -0.060229 0.051473 -0.023868 -0.257351 -0.117856 0.108545 -0.221835 0.197357 0.094766 -0.113636 -0.426803 -0.129497 0.288884 0.262728 -0.274223 -0.101841 0.019376 0.337838 -0.624636 -0.117799 0.155458 -0.342742 -0.050265 0.146762 0.183693 0.292929 -0.171456 -0.380995 -0.049740 0.215561 -0.008465 -0.019532 0.027164 -0.004568 -0.059321 -0.233421 0.042465 0.073188 0.189618 -0.045438 -0.357845 -0.186507 0.031482 -0.424076
socket -0.044707 -0.062364 -0.036814 0.055069 0.012001 -0.058629 0.113211 0.106243 0.079478 -0.137731 -0.132862 0.048818 -0.012217 -0.041650 -0.156670 -0.078786 -0.214527 0.008665 0.322233 0.151049 0.059792 -0.011041 0.098394 0.059129 -0.180769 0.058984 0.027063 0.030841 -0.094811 -0.046972 0.031129 -0.077736 -0.157304 -0.070508 -0.045361 -0.031337 0.048707 0.083545 0.001466 0.005931 -0.109691 0.090003 0.040946 -0.019295 0.068873 0.052734 -0.266134 0.057768 -0.034794 -0.211986
time 0.300213 0.260186 0.327864 0.117622 0.105305 -0.306443 -0.130084 -0.426326 0.276038 0.112411 0.051970 -0.125346 0.022651 0.131136 -0.087595 0.179278 -0.331439 -0.165664 0.019828 -0.222212 0.416887 0.084121 -0.417280 -0.077597 0.437454 -0.043430 -0.553062 0.161692 -0.016432 -0.150034 -0.098935 -0.180063 -0.122822 0.263640 -0.107089 0.087647 -0.534382 -0.202518 -0.187362 0.177116 0.455225 0.018419 0.309355 -0.049424 -0.014819 -0.197543 0.535453 -0.262672 0.060787 0.281604
true -0.214082 0.161782 -0.259964 0.042115 -0.368755 0.309285 -0.012813 -0.085596 -0.177350 0.171889 -0.105798 0.007636 -0.202273 -0.188218 0.147938 0.133187 0.207440 -0.016868 -0.204710 -0.027047 -0.435354 -0.088904 0.151530 0.281859 -0.155027 -0.252891 -0.022228 -0.456273 0.294076 0.040029 0.158268 0.061294 0.103215 0.058563 -0.157907 0.377023 0.242482 -0.062394 0.056131 -0.109485 0.010593 -0.347142 -0.422209 0.125493 0.101265 0.458854 0.099654 -0.433045 -0.090856 -0.031561
config 0.063062 -0.080884 -0.164363 -0.066853 -0.160768 -0.181039 -0.108169 -0.170732 0.116046 0.094596 0.158884 -0.000279 0.036674 0.088705 0.147485 -0.162820 0.482051 0.341623 -0.376031 0.037439 0.112289 -0.134441 -0.153002 -0.011618 0.569398 0.137191 -0.082250 0.282258 -0.152273 -0.107483 -0.111212 -0.176169 0.155961 0.152727 0.195532 -0.135168 0.013210 0.011557 -0.227868 0.009874 0.118960 0.032389 -0.208437 -0.122645 0.024917 0.005638 0.333777 0.391143 0.111594 0.447150
for -0.215284 0.092368 -0.322945 0.033296 0.017118 0.046803 0.061914 0.142274 -0.136315 -0.120390 -0.116676 0.152986 -0.130445 -0.133611 -0.105019 -0.093756 0.081524 0.038388 0.114156 0.203458 -0.217557 -0.103809 0.175216 0.146525 -0.352961 0.121372 0.228485 -0.105077 0.101114 0.052298 -0.006819 -0.027677 -0.036528 -0.195403 0.103702 0.024577 0.291108 0.053228 -0.033271 -0.183984 -0.331187 -0.069763 -0.149433 -0.026782 0.030448 0.273353 -0.333154 0.133941 -0.122784 -0.210900
access -0.071935 -0.087991 0.211306 -0.159416 0.198345 0.154285 0.158081 0.202257 -0.163548 -0.295370 -0.019197 0.014154 0.086306 -0.000889 -0.212623 -0.140653 -0.014937 -0.060833 0.088205 -0.001275 -0.134130 0.025794 0.037312 -0.056938 -0.317921 0.127594 0.381231 -0.094589 -0.209748 0.172764 0.015697 0.162614 -0.064497 -0.128943 0.061589 -0.043997 0.333859 0.029748 0.170248 0.013236 -0.103644 0.085306 0.308710 0.020177 -0.141523 -0.081846 -0.346545 0.159717 0.019284 -0.259910
and -0.015306 -0.047028 0.084281 -0.153185 0.002512 0.145409 0.062986 0.055398 -0.136217 0.002566 0.089770 0.008668 0.033172 0.019002 0.069066 -0.011340 0.230876 0.014635 -0.144961 -0.087318 -0.002778 0.010435 -0.004471 -0.024690 0.024999 0.064220 0.102427 -0.017492 -0.051183 0.071893 0.036059 0.103173 0.016399 0.051167 0.063430 -0.034536 0.105983 0.007089 0.107027 0.018616 0.131858 0.037354 0.034510 0.012094 -0.066832 -0.085900 0.036088 0.094024 0.098740 0.070565
capture 0.228119 0.140131 0.412139 0.224841 0.104817 -0.272924 -0.025418 -0.271304 0.235042 -0.030771 -0.080138 -0.121379 -0.020916 0.158090 -0.052159 0.178541 -0.567881 -0.369832 0.174900 -0.206179 0.400714 0.174224 -0.292872 -0.078161 0.181144 -0.125069 -0.408610 0.019432 -0.095697 -0.123815 0.023835 -0.066033 -0.183951 0.243314 -0.276349 0.084230 -0.672372 -0.009142 -0.045265 0.363253 0.493733 0.235846 0.450168 -0.042455 0.004582 -0.270117 0.346527 -0.371214 0.072275 -0.058575
close 0.119316 -0.218820 0.145326 -0.048234 -0.027650 -0.040824 0.034663 0.119479 0.107133 -0.114211 0.159123 0.113771 0.041363 0.005310 -0.057321 0.015648 0.280941 0.164395 -0.084309 0.098573 0.115437 -0.109368 0.106193 0.009936 0.304956 0.305198 0.143170 0.147947 -0.102142 -0.068384 -0.097368 -0.095976 0.091347 0.030675 0.044987 -0.075366 -0.009580 -0.010004 -0.053496 -0.075161 0.116611 0.142181 0.074402 -0.010583 0.109407 0.032508 0.159972 0.322100 0.205783 0.067468
closing -0.043104 -0.119123 -0.009504 0.033582 -0.027084 -0.122165 0.124930 0.159398 0.074593 -0.188592 -0.088641 0.105191 -0.012543 -0.033910 -0.106240 -0.118619 -0.149978 0.063049 0.269023 0.227189 -0.035999 -0.054586 0.157110 0.127753 -0.201809 0.099510 0.099290 0.038209 -0.147917 0.018460 0.074640 -0.062951 -0.100818 -0.116786 -0.037211 -0.019379 0.128529 0.079211 0.008712 -0.014523 -0.118261 0.083154 0.028105 -0.006210 0.100269 0.037956 -0.292781 0.171612 0.006279 -0.232623
e 0.042071 0.142223 -0.006280 -0.073545 0.026414 0.042991 -0.076392 -0.139794 -0.044296 0.172407 0.108004 -0.009663 -0.037028 0.020773 0.096350 0.077037 0.100649 -0.028739 -0.160742 -0.143722 0.036977 -0.067799 -0.142731 -0.053184 0.166927 0.041863 -0.087694 -0.025125 0.028578 0.017942 -0.081294 -0.001125 0.095345 0.092855 0.028554 0.077223 -0.019620 -0.099676 -0.008886 -0.007413 0.190147 -0.086180 0.017842 0.048855 -0.077272 0.012097 0.254625 -0.102681 0.113441 0.187947
enabled -0.227954 0.126684 -0.166250 0.102282 -0.107699 0.189968 -0.013267 -0.001058 -0.181116 0.088016 -0.061647 0.039674 -0.083803 -0.115872 0.008535 0.023555 0.055167 -0.032196 -0.046765 -0.004869 -0.332934 -0.009216 0.118143 0.195750 -0.337303 -0.159680 0.015907 -0.309926 0.187103 0.119787 0.200730 0.033348 0.015628 -0.022794 -0.060457 0.225582 0.279461 -0.074503 0.106188 -0.124061 -0.188147 -0.146933 -0.225050 0.113542 -0.019134 0.275186 -0.120432 -0.184650 -0.198600 -0.104478
file 0.019869 0.143426 -0.040628 -0.126255 0.062752 0.224422 0.036474 -0.042067 -0.050472 -0.044664 -0.029838 -0.078030 -0.082877 0.005259 -0.075674 0.098930 0.145516 -0.073546 0.015124 -0.089894 0.048283 -0.033449 -0.087011 -0.103938 0.078104 0.085001 0.005068 -0.078553 0.068217 -0.126006 -0.167045 0.065809 -0.054772 -0.056697 0.045601 0.037013 -0.047446 -0.012903 -0.022005 -0.023160 0.147963 -0.118259 0.026904 -0.046830 -0.045397 0.095596 0.089582 -0.140268 0.039563 0.026691
filesystem 0.003873 0.022091 0.020558 0.066276 0.069874 0.065680 0.051821 0.176827 -0.033148 -0.041063 -0.045631 0.012244 -0.043598 -0.052655 -0.073464 0.047570 -0.132860 -0.118730 0.189732 0.046140 -0.108971 0.102858 0.134588 0.071288 -0.276897 -0.126310 0.021656 -0.139205 0.052168 0.014916 0.010832 0.047147 0.069133 -0.062730 -0.098845 0.108833 -0.021328 -0.003070 0.065718 -0.102764 -0.073899 -0.019363 -0.010150 0.028478 0.085525 0.057776 -0.212187 -0.075848 -0.089818 -0.206250
ftdc 0.024953 -0.080260 0.115808 0.142640 0.074393 -0.195822 0.084488 0.101751 0.170371 -0.231517 -0.103757 0.041760 -0.008185 0.035656 -0.223921 -0.083745 -0.509125 -0.085263 0.355992 0.172390 0.056878 0.033144 0.091539 0.112163 -0.246323 0.074639 0.025618 0.077846 -0.074032 -0.024805 -0.021141 -0.095218 -0.144678 -0.079337 -0.111341 -0.055819 -0.037469 0.083802 -0.006654 0.064461 -0.163971 0.084109 0.237341 -0.034818 0.095293 -0.073896 -0.295092 -0.013889 -0.054778 -0.316208
full 0.144228 0.282249 0.134182 0.076063 0.041029 -0.200530 -0.138457 -0.386635 0.185735 0.109946 0.005918 -0.116647 -0.055808 0.090020 -0.042463 0.128831 -0.221097 -0.085249 -0.030922 -0.167430 0.203542 0.047338 -0.309046 0.003709 0.290901 -0.092336 -0.456770 0.054838 0.070246 -0.117213 -0.055145 -0.124107 -0.108146 0.185184 -0.060236 0.125302 -0.320510 -0.179266 -0.153701 0.084594 0.301604 -0.125121 0.077299 -0.030709 -0.000606 -0.062176 0.437787 -0.339607 0.005276 0.257797
going -0.107667 -0.459783 0.098132 -0.024288 -0.064091 -0.000636 0.062004 0.481824 -0.010336 -0.263606 0.046198 0.268780 0.113848 -0.015153 0.051027 -0.260288 0.068752 0.228906 0.100264 0.364756 -0.318292 -0.114421 0.451164 0.261147 -0.332476 0.174401 0.660194 0.029378 -0.138308 0.132492 0.021585 0.092334 0.197895 -0.279929 -0.046021 -0.161091 0.362801 0.204119 0.073833 -0.107223 -0.436157 0.106685 0.033937 0.078645 0.194233 -0.026352 -0.514980 0.523391 0.104382 -0.493610
max 0.035597 0.317231 -0.198489 -0.256012 -0.033761 -0.109680 -0.260322 -0.452793 -0.167145 0.284225 0.261061 -0.028468 -0.055420 0.112612 0.365354 0.067987 0.734667 0.213418 -0.711234 -0.253699 0.104879 -0.131184 -0.446328 -0.178269 0.714080 -0.031223 -0.223708 0.071059 -0.056142 0.050220 -0.079117 0.021038 0.143662 0.148095 0.324971 0.061859 -0.053967 -0.227125 -0.276695 0.102641 0.442964 -0.218317 -0.218201 -0.085886 -0.192365 -0.054258 0.693018 0.073723 0.249497 0.791902
openssl -0.078975 -0.043187 0.032330 0.004177 0.061886 0.001848 0.067932 0.164656 -0.059734 -0.195123 -0.115685 -0.025135 0.058031 -0.007392 -0.152598 -0.144523 -0.116352 -0.013732 0.171705 0.102167 -0.172675 0.024547 0.109606 -0.045533 -0.341197 -0.065899 0.183196 -0.053290 -0.015517 0.074003 0.032780 0.119164 -0.047997 -0.147944 -0.010322 -0.062111 0.104528 0.058997 0.056633 -0.005868 -0.274179 0.045589 0.036913 -0.094479 0.022791 -0.026957 -0.401978 0.101330 -0.166990 -0.218958
port -0.062108 0.101283 -0.197699 0.033233 0.033931 -0.019485 0.034667 0.044060 -0.144463 0.067159 -0.011609 0.063441 -0.007060 -0.121777 0.020637 0.150906 -0.090952 -0.049165 0.038144 -0.008628 0.101904 0.075094 0.017608 -0.086168 -0.016182 -0.019648 -0.012176 -0.032072 0.191441 0.020114 -0.013294 -0.111831 -0.075185 0.007152 -0.032170 -0.042110 -0.016888 -0.028007 -0.024289 -0.048093 -0.054197 0.028803 -0.085724 -0.002079 -0.022472 0.034937 -0.140321 -0.081792 -0.040939 0.052048
removing -0.162777 0.124755 -0.031369 -0.090817 0.083092 0.011701 -0.068675 0.143620 -0.179352 -0.039835 -0.051938 0.137824 -0.033121 -0.008080 0.062029 -0.120898 -0.103658 0.073918 0.168387 0.127355 -0.213957 -0.052059 0.060301 0.124813 -0.383217 -0.139223 0.285694 -0.191460 0.045197 0.105267 0.002159 0.155898 -0.013251 -0.304120 -0.012441 0.072343 0.248989 -0.001866 0.000581 -0.026590 -0.220133 -0.171504 -0.039386 0.070717 0.066079 -0.020170 -0.378189 0.022264 0.000826 -0.339992
size -0.005987 0.102130 -0.045677 -0.092625 -0.184745 -0.011062 -0.311498 -0.440994 0.012347 0.468441 0.267856 -0.164732 0.139108 0.122608 0.421783 0.037717 0.457498 0.240457 -0.457269 -0.232289 0.225826 -0.076182 -0.286130 -0.046110 0.638579 -0.156530 -0.357149 0.001581 0.174201 -0.038279 0.211901 0.054044 0.135693 0.250177 -0.019691 0.036606 -0.076277 -0.169870 0.144056 0.042857 0.293954 -0.029514 -0.414783 0.172288 -0.071499 -0.082890 0.681378 -0.072801 0.079589 0.586385
statistics -0.125812 0.120843 0.002400 0.106317 -0.206254 0.061535 -0.230793 -0.449787 -0.212029 0.518605 0.213111 -0.097616 0.139071 0.012975 0.379621 0.238670 0.320280 0.176780 -0.509228 -0.393877 0.078091 0.132262 -0.167956 0.139276 0.359671 -0.438178 -0.668419 -0.121149 0.309824 0.075247 0.376273 -0.071116 0.090997 0.367204 -0.139792 0.230098 -0.034598 -0.234666 0.263149 -0.048522 0.197642 -0.022815 -0.548232 0.219405 -0.053274 -0.057878 0.624748 -0.303661 -0.115891 0.597494
wait 0.019388 0.029197 0.042664 0.059701 -0.103111 -0.093158 -0.226738 -0.441090 -0.038189 0.467928 0.206214 -0.044375 0.169552 0.042166 0.321958 0.162740 0.253454 0.201238 -0.365292 -0.303419 0.310854 0.048936 -0.203376 -0.039059 0.515958 -0.249929 -0.633242 0.045576 0.205997 0.011544 0.331995 -0.112456 0.008725 0.320310 0.000224 0.120079 -0.181792 -0.228160 0.153429 -0.007418 0.187194 0.059046 -0.335297 0.163490 -0.009695 -0.139048 0.657676 -0.115080 -0.013476 0.580334
warning 0.012827 -0.074493 0.202150 -0.079691 0.256457 0.133535 0.174582 0.316003 -0.049712 -0.376444 -0.183914 -0.084320 0.064582 -0.006490 -0.353538 -0.134048 -0.399640 -0.160647 0.373457 0.116041 -0.228264 0.099945 0.109008 -0.165862 -0.531634 -0.008569 0.411294 -0.085918 -0.185536 0.093709 -0.053841 0.148883 -0.065714 -0.252585 -0.046083 -0.094129 0.216951 0.101746 0.125241 0.008075 -0.315726 0.049416 0.447360 -0.019930 -0.084900 -0.073166 -0.628748 0.042143 -0.152398 -0.513475
build -0.102625 0.166575 0.090552 -0.106073 0.322800 -0.003898 0.027515 0.253816 -0.152585 -0.281505 -0.143855 -0.039791 -0.021505 -0.031324 -0.174604 -0.060002 -0.480523 -0.208373 0.256451 0.140319 -0.262260 0.104717 0.034145 0.000645 -0.757518 -0.069289 0.398883 -0.228399 0.020912 0.199758 0.035855 0.168834 -0.087146 -0.332727 0.008385 0.047830 0.235526 0.070416 0.081372 -0.004226 -0.480535 -0.149609 0.321827 -0.087760 -0.075603 -0.123857 -0.660477 -0.085388 -0.211324 -0.533824
index -0.106165 0.308156 -0.030038 -0.183107 0.251022 0.042361 -0.094141 0.131461 -0.237499 -0.093777 -0.025781 -0.063680 -0.067010 -0.005913 0.008338 0.046707 -0.184952 -0.126303 -0.002032 0.041037 -0.328727 0.048953 -0.076074 -0.012196 -0.550192 -0.133665 0.301881 -0.299801 0.117448 0.217340 0.032369 0.210628 0.024246 -0.310885 0.087809 0.141424 0.245211 -0.034059 0.022363 -0.025696 -0.333937 -0.316496 0.141809 -0.069446 -0.103437 -0.077383 -0.374445 -0.133333 -0.142774 -0.270551
a 0.046289 0.179432 -0.047946 -0.091448 -0.002885 0.031583 -0.112243 -0.180562 -0.050044 0.219849 0.137033 0.000344 -0.056981 0.014244 0.142781 0.087515 0.177092 0.011035 -0.236671 -0.147110 0.017402 -0.106350 -0.158747 -0.028323 0.226033 0.044348 -0.091991 -0.032442 0.042553 0.008287 -0.112899 0.008214 0.123736 0.101504 0.053675 0.098296 -0.004896 -0.117633 -0.039506 -0.046775 0.228090 -0.129663 -0.052808 0.059700 -0.065312 0.048223 0.325907 -0.113270 0.143565 0.258480
conn 0.044807 -0.775395 -0.134548 0.262784 -0.215269 -0.041488 0.341928 0.319680 0.314832 -0.297930 -0.150883 0.114357 0.235891 -0.194760 -0.498096 -0.199616 -0.105561 0.198783 0.372768 0.326691 0.339282 -0.049805 0.374423 0.075915 0.142547 0.588463 0.036058 0.541234 -0.252841 -0.228703 -0.085464 -0.468810 -0.102671 0.215901 -0.004870 -0.443404 0.155599 0.320161 0.085145 -0.101947 -0.416898 0.574826 0.101216 -0.123060 0.143658 0.120660 -0.261197 0.565481 -0.048407 -0.138463
threads 0.025798 0.378096 -0.202100 -0.292347 -0.010126 -0.074216 -0.246086 -0.455844 -0.242805 0.303981 0.241036 0.004136 -0.082876 0.091458 0.349720 0.129092 0.737252 0.167604 -0.756635 -0.302904 0.128176 -0.130973 -0.456661 -0.203748 0.692706 -0.064509 -0.261186 0.011099 -0.033787 0.076989 -0.080557 0.036423 0.105710 0.126198 0.367702 0.114954 -0.084155 -0.290003 -0.283525 0.094772 0.480378 -0.240603 -0.185789 -0.092721 -0.223438 -0.068951 0.745389 0.022181 0.274977 0.823289
users 0.043310 0.127720 0.368283 0.015281 0.256450 0.079148 -0.040502 -0.220335 -0.089912 0.162074 0.035430 -0.072769 0.062014 0.049712 0.008799 0.199658 -0.108602 -0.327716 0.024363 -0.370575 0.370794 0.235367 -0.225843 -0.186466 0.209259 -0.066544 -0.223195 -0.092322 0.011944 0.056531 0.164686 0.087549 -0.089137 0.252069 -0.139646 0.083515 -0.312234 -0.023228 0.139396 0.317262 0.431235 0.182419 0.324260 0.105268 -0.247486 -0.265563 0.197780 -0.234151 0.097528 0.026916
end 0.053400 -0.694721 -0.215038 0.204265 -0.288882 0.016916 0.270234 0.190171 0.270483 -0.149023 -0.065808 0.089231 0.206409 -0.189638 -0.371143 -0.133292 0.152647 0.260571 0.161406 0.215966 0.333995 -0.085720 0.305880 0.052222 0.363677 0.529766 -0.071867 0.522853 -0.187783 -0.246080 -0.085623 -0.459406 -0.028331 0.297815 0.044530 -0.381109 0.140803 0.245038 0.049939 -0.131453 -0.273857 0.488336 -0.066982 -0.093725 0.113758 0.175464 -0.003367 0.512668 -0.006233 0.108152
starting -0.025157 0.096649 -0.142718 -0.064721 0.069567 0.099916 0.001087 -0.005061 -0.192157 0.011627 -0.019347 -0.018060 0.073220 -0.144283 -0.071020 0.141031 -0.013903 -0.056093 -0.074617 -0.166708 0.027640 0.130315 -0.077023 -0.212047 -0.030607 -0.042462 -0.084991 -0.025712 0.120470 0.056443 -0.013259 -0.098185 -0.125134 0.017975 0.092458 -0.071502 0.068932 -0.150538 0.039091 -0.120423 -0.092652 -0.034602 -0.040902 -0.048748 -0.134518 0.012449 -0.089191 -0.148982 -0.152680 0.137492
c 0.028393 0.083072 -0.123421 -0.057843 -0.093784 0.014297 0.026395 -0.036354 0.059923 0.016476 0.077165 -0.031408 -0.107181 0.041031 0.123878 0.044764 0.228491 0.035925 -0.175893 0.001577 -0.053333 -0.040855 -0.095297 0.068238 0.221415 0.048207 0.038749 -0.000757 -0.023145 -0.082257 -0.146458 0.021279 0.054153 0.015934 0.073140 0.071172 0.022905 -0.009174 -0.162527 0.047571 0.141735 -0.168017 -0.015614 -0.070826 -0.051521 0.105899 0.234236 0.028509 0.081599 0.160902
configuration -0.056268 -0.064765 0.018342 -0.069050 0.095312 0.101099 0.120733 0.148365 -0.127120 -0.116658 0.000252 0.094959 -0.025765 -0.001086 -0.058845 -0.086004 0.155122 -0.037511 0.049649 0.023273 0.035994 0.017099 0.086920 0.025906 -0.128636 0.190412 0.206413 -0.030935 -0.098909 0.042499 0.004577 0.043887 -0.031406 0.022550 0.091792 -0.054975 0.178173 0.073990 0.096088 0.029356 0.055114 0.097872 0.093136 -0.028131 -0.063008 0.000462 -0.158737 0.172105 0.086850 -0.083584
current -0.035972 0.426236 -0.060142 -0.024270 0.055999 0.004708 -0.185349 -0.227219 -0.145535 0.270866 0.039846 -0.111172 -0.052276 0.092041 0.251265 0.194165 -0.085581 -0.242756 -0.149996 -0.262575 -0.031594 0.048609 -0.349088 -0.089098 -0.030649 -0.272785 -0.202910 -0.195450 0.230681 0.046076 -0.027029 0.280617 0.061635 0.063072 0.034988 0.137732 -0.294904 -0.110788 -0.111686 0.117341 0.161889 -0.226241 -0.125487 -0.069095 -0.188027 -0.068736 0.142583 -0.393340 -0.054055 0.276310
dbpath 0.073644 0.086339 0.089511 0.036481 0.099213 0.032980 0.010675 -0.132376 -0.067656 0.124153 0.036440 -0.070365 0.068877 -0.042630 -0.000652 0.229615 -0.066994 -0.180492 -0.054516 -0.249031 0.327978 0.175953 -0.165099 -0.228209 0.311820 -0.030606 -0.222258 0.035647 0.084078 -0.016566 0.005680 -0.117305 -0.071644 0.237647 -0.091598 -0.023745 -0.260801 -0.051774 0.030452 0.145876 0.280810 0.131780 0.159878 0.022697 -0.146924 -0.130391 0.195434 -0.153279 0.067607 0.172457
message 0.090073 -0.056132 -0.037389 -0.014975 -0.066438 0.036836 0.059802 0.211191 0.140049 -0.098471 -0.026777 -0.030786 -0.109717 0.040136 -0.028364 -0.075890 -0.044595 0.008413 0.081557 0.183579 -0.272209 -0.046036 0.076249 0.004922 -0.115943 -0.017742 0.288501 0.052442 -0.060760 -0.051086 -0.175551 0.048393 0.121006 -0.218944 0.033621 -0.020907 0.066944 0.103952 -0.141495 -0.008360 -0.174196 -0.116086 0.083273 -0.075320 0.068343 0.055787 -0.202691 0.121852 -0.029253 -0.183433
on -0.111902 0.026397 -0.290254 0.014758 -0.041495 -0.027673 0.043211 0.092023 -0.072194 0.008269 -0.043556 0.117787 -0.045104 -0.110440 0.013765 0.021864 0.074805 0.104319 0.027279 0.157285 -0.027370 -0.067012 0.133332 0.058484 -0.063717 0.086575 0.079382 0.017746 0.132010 -0.008052 -0.010814 -0.092339 -0.022446 -0.090692 0.053773 -0.041396 0.155665 0.043851 -0.049438 -0.172248 -0.201301 -0.023999 -0.227473 -0.002864 0.065828 0.160968 -0.162517 0.093743 -0.052216 0.019663
recover 0.008607 0.152289 -0.129778 -0.038047 -0.127086 0.013704 -0.133350 -0.215184 -0.049911 0.206843 0.104082 -0.060522 -0.044450 0.040355 0.172562 0.087416 0.344945 0.071894 -0.306553 -0.121235 0.059494 -0.029540 -0.099309 0.026807 0.320158 -0.001762 -0.219353 -0.005376 0.132289 -0.085057 -0.023607 -0.028540 0.057693 0.150154 0.043267 0.061443 -0.121963 -0.076334 -0.096566 0.022597 0.281469 -0.118875 -0.246408 0.018073 0.018818 0.066927 0.479368 -0.104227 0.079846 0.336851
txn 0.018807 0.172709 -0.124652 -0.046209 -0.087081 0.031969 -0.115265 -0.181955 -0.037539 0.175649 0.115622 -0.057014 -0.075269 0.045538 0.149128 0.081019 0.328387 0.034395 -0.287936 -0.109450 0.035694 -0.042865 -0.121059 0.034114 0.314963 0.044658 -0.136647 -0.010148 0.096904 -0.080335 -0.089599 -0.013084 0.084531 0.127295 0.065494 0.062395 -0.091960 -0.050876 -0.126507 0.035639 0.300845 -0.140062 -0.172287 0.008748 -0.015686 0.071116 0.431795 -0.079882 0.108994 0.320787
v -0.057755 -0.054431 0.114477 0.041948 0.142482 -0.023036 0.052866 0.195499 -0.084054 -0.157389 -0.053675 0.022048 0.051389 0.019158 -0.150096 -0.158701 -0.224134 -0.098833 0.279135 0.068117 -0.099117 0.044043 0.122889 0.008288 -0.440441 -0.009011 0.242087 -0.061378 -0.065813 0.095693 0.041877 0.116434 -0.036951 -0.187656 -0.012796 -0.060692 0.104572 0.043831 0.115831 0.046371 -0.243796 0.071569 0.119934 -0.025832 0.002566 -0.100691 -0.389930 0.108884 -0.093236 -0.317235
using 0.049556 0.051477 0.039293 -0.080366 0.052825 0.094064 -0.002304 0.073356 -0.017278 -0.066783 -0.076022 -0.114900 0.003675 0.007310 -0.071001 0.014890 -0.105338 -0.046923 0.079728 0.017978 -0.158837 0.041030 -0.012863 -0.137266 -0.105862 -0.143120 0.097157 -0.048070 -0.011175 -0.010204 -0.040896 0.099175 0.056950 -0.088850 -0.041845 0.001583 -0.007150 0.009954 -0.009144 -0.033307 -0.089328 -0.085109 0.107135 0.003872 -0.016375 0.002078 -0.144860 -0.079054 -0.088423 -0.123906
active 0.097978 0.023765 -0.149865 -0.096983 -0.182137 0.025282 -0.058844 0.286892 0.134374 0.016105 -0.032411 -0.068611 -0.158001 -0.027720 0.203926 0.012372 -0.064825 0.053886 0.002899 0.288333 -0.497237 -0.131943 0.135772 0.024242 -0.201494 -0.294329 0.221356 -0.014506 0.057094 -0.022292 -0.179387 0.126143 0.268686 -0.314080 -0.059252 -0.020995 -0.127431 0.068076 -0.263850 -0.188071 -0.218547 -0.322034 -0.176554 -0.059902 0.233365 0.144515 -0.225779 -0.002972 -0.089517 -0.168385
detected 0.056662 -0.048023 0.223917 0.031286 0.160747 0.022203 0.155084 0.069963 0.027913 -0.180566 -0.123204 -0.013685 0.024880 0.039157 -0.205447 0.013492 -0.336236 -0.230487 0.235746 -0.046811 0.169277 0.147559 0.028335 -0.090014 -0.104952 0.082790 0.034328 0.061033 -0.130151 -0.001057 -0.040044 -0.027172 -0.123699 0.084365 -0.124020 -0.048309 -0.129638 0.127486 0.073059 0.199622 0.104759 0.135284 0.387596 -0.050692 -0.082866 -0.174982 -0.125696 -0.061971 0.021754 -0.255736
recovery -0.051975 -0.027113 -0.155873 0.016750 -0.056667 -0.061553 -0.083085 -0.160798 -0.055704 0.180947 -0.020781 0.058146 -0.012287 -0.065621 0.150644 0.036491 0.132842 0.114278 -0.121772 -0.103500 0.102325 -0.015300 0.008622 -0.070462 0.150784 -0.103290 -0.224937 0.014125 0.141340 -0.006055 0.175638 -0.064325 -0.027308 0.107091 0.082796 0.052984 -0.073987 -0.073630 -0.044679 -0.008008 -0.005022 -0.034563 -0.250077 -0.018324 0.003898 0.031660 0.205712 -0.064918 0.025530 0.186873
after -0.012339 0.524110 -0.064812 -0.118143 0.049628 0.069470 -0.250714 -0.335217 -0.216602 0.371523 0.112528 -0.160378 -0.090932 0.123096 0.319493 0.219488 0.088630 -0.210348 -0.321465 -0.372548 -0.070629 0.059165 -0.437808 -0.142955 0.071340 -0.344843 -0.262477 -0.254462 0.270763 0.067422 -0.024830 0.305319 0.114340 0.100020 0.054834 0.206345 -0.253828 -0.197821 -0.102061 0.123800 0.281579 -0.317517 -0.163832 -0.039280 -0.231874 -0.076520 0.306084 -0.439315 -0.035176 0.409659
allocator 0.019425 -0.087956 0.102128 0.002334 0.104702 0.052221 0.112399 0.191399 0.003593 -0.155359 -0.083064 0.000776 0.047916 0.013130 -0.172207 -0.062103 -0.287891 -0.081772 0.209830 0.089887 -0.066715 0.044415 0.099487 -0.001998 -0.293904 0.013668 0.214493 -0.020448 -0.091431 0.058420 0.027505 -0.019263 -0.056177 -0.108818 -0.017303 -0.005313 0.098722 0.038163 0.068126 -0.008846 -0.183058 0.052196 0.253236 0.019295 -0.023787 -0.066861 -0.294723 0.051181 -0.095919 -0.276782
arch -0.018116 -0.077056 -0.007567 -0.015746 0.003864 0.047118 0.044595 0.188803 0.058666 -0.188412 -0.030056 0.008258 -0.046783 -0.018255 -0.149679 -0.182489 -0.098308 0.032524 0.144128 0.137794 -0.195757 -0.052674 0.143110 0.071982 -0.319956 0.073404 0.299918 -0.022038 -0.043983 0.028077 -0.036856 0.059849 -0.047230 -0.223488 0.087071 -0.005749 0.302694 0.009790 0.005779 -0.015028 -0.298015 -0.001225 0.131476 -0.024839 0.020774 0.027334 -0.305843 0.077205 -0.069370 -0.216428
archive -0.120421 -0.007988 -0.105138 0.083074 -0.179124 0.154788 0.075490 0.108951 -0.047285 -0.028993 -0.159064 0.020687 -0.092088 -0.143921 -0.046157 0.025573 -0.116262 -0.078654 0.083767 0.101455 -0.272241 -0.012341 0.196970 0.165674 -0.283408 -0.094373 0.120881 -0.234065 0.098055 0.022652 0.077718 0.005678 0.002900 -0.017308 -0.135137 0.142706 0.155554 0.055745 0.049132 -0.052288 -0.132306 -0.113342 -0.092062 0.036558 0.095266 0.244717 -0.190364 -0.198771 -0.094489 -0.253710
b 0.037196 0.130954 0.040447 -0.073129 0.069744 0.033174 -0.026219 -0.057996 -0.046983 0.068675 0.074203 0.024290 -0.005120 -0.009689 0.000604 -0.009148 0.071895 -0.044760 -0.060651 -0.097577 -0.019743 -0.096018 -0.097160 -0.040662 0.028189 0.107412 0.064983 -0.037722 -0.060761 0.044389 -0.149576 0.073563 0.064039 0.013004 0.056685 0.064758 0.067643 -0.046270 -0.023664 -0.011798 0.143729 -0.082824 0.089417 0.005801 -0.074777 0.013975 0.085420 -0.058026 0.117763 0.100802
base -0.038763 0.114480 -0.043728 -0.015421 -0.016133 -0.109549 -0.123779 -0.242036 -0.131260 0.151908 0.124926 0.007924 0.019496 0.030601 0.170387 0.044140 0.276223 0.131050 -0.360065 -0.180344 0.043212 0.052238 -0.187760 0.036752 0.284448 -0.103185 -0.273657 0.068430 -0.022653 0.047756 0.012371 -0.088377 0.063878 0.166372 0.087115 0.061889 0.000667 -0.110112 -0.089784 0.029480 0.172753 -0.020662 -0.172533 -0.021171 -0.072486 -0.066990 0.285719 0.046671 0.037757 0.398308
bit 0.023942 0.062913 0.061742 -0.073188 0.003610 0.133810 -0.087999 -0.183394 -0.022513 0.216647 0.096252 -0.054034 0.026520 -0.006431 0.109340 0.065851 0.327542 -0.016919 -0.213286 -0.199277 0.121962 0.069076 -0.143631 -0.074935 0.326178 -0.049304 -0.161864 0.010214 0.042528 -0.001713 0.064966 0.015319 0.074128 0.162018 0.021217 0.060642 -0.082017 -0.017816 0.030483 0.129375 0.224657 -0.014022 -0.031657 0.074775 -0.139155 -0.021937 0.262374 -0.029252 0.077487 0.210609
cache 0.050199 0.091511 -0.099054 -0.165358 -0.134329 0.005615 -0.200055 -0.253535 0.083291 0.252248 0.178406 -0.099793 -0.000041 0.110131 0.273373 -0.058441 0.483360 0.199495 -0.339170 -0.081797 0.135266 -0.156183 -0.224071 -0.058596 0.565099 0.077993 -0.054566 0.026639 0.039504 -0.122175 -0.018238 0.027804 0.146347 0.127883 0.079433 0.008018 -0.031710 -0.071124 -0.065183 0.059722 0.306946 -0.074419 -0.241400 0.030723 -0.033996 0.040078 0.471714 0.094547 0.159707 0.378411
checkpoint 0.148930 0.235798 0.042138 -0.085183 -0.062183 -0.048286 -0.235031 -0.458780 -0.008617 0.406733 0.243109 -0.077295 0.040429 0.074099 0.263917 0.202269 0.412725 0.110284 -0.467559 -0.328683 0.225568 -0.025796 -0.356017 -0.077935 0.644493 -0.112041 -0.508584 0.038169 0.126777 -0.034640 0.044419 -0.049756 0.099416 0.270553 0.098177 0.164264 -0.206643 -0.270840 -0.075544 0.019103 0.419099 -0.137920 -0.178481 0.055767 -0.065338 -0.062465 0.759325 -0.117449 0.115665 0.659060
cmd -0.037734 0.339186 -0.066141 -0.003084 0.042159 0.013086 -0.153145 -0.185731 -0.126804 0.235107 0.034030 -0.100206 -0.018445 0.060294 0.197338 0.162069 -0.042696 -0.197179 -0.136941 -0.225885 -0.013349 0.031717 -0.287677 -0.078680 -0.000671 -0.237948 -0.197050 -0.155432 0.202613 0.028201 -0.000624 0.220260 0.045011 0.089129 0.069123 0.096597 -0.235392 -0.072288 -0.088091 0.087124 0.112981 -0.184043 -0.123467 -0.044065 -0.166302 -0.045589 0.152707 -0.328626 -0.057696 0.262830
code 0.001254 -0.093434 0.084299 0.127465 0.013868 -0.193633 0.039105 0.119972 0.126740 -0.214311 -0.110729 0.036035 -0.071187 0.080385 -0.052104 -0.111158 -0.321605 -0.090943 0.222342 0.147670 -0.034295 -0.016203 0.057886 0.084766 -0.284606 0.019521 0.107482 -0.057477 -0.101914 -0.001561 0.055784 0.034537 -0.077991 -0.080505 -0.046760 0.005059 -0.105455 0.106553 -0.014784 0.053694 -0.062722 0.135600 0.123010 -0.058029 0.116944 -0.040964 -0.151601 -0.016496 0.002910 -0.241763
compressor -0.022905 -0.038996 -0.031785 -0.021767 0.011237 0.179787 0.129025 0.210705 0.032953 -0.218978 -0.159050 -0.023009 -0.099086 -0.035350 -0.157367 -0.013135 -0.174893 -0.123546 0.240252 0.115653 -0.119609 -0.032658 0.165888 0.019523 -0.261979 0.095784 0.250350 -0.118626 0.024756 -0.080859 -0.103996 0.084351 -0.028005 -0.173554 -0.094660 0.005990 0.062595 0.149231 0.034745 -0.003673 -0.105072 -0.082769 0.080835 -0.025166 0.060516 0.135974 -0.291412 -0.096062 -0.021400 -0.355178
core -0.021078 0.140596 -0.010756 -0.026863 0.057541 0.138353 -0.002975 -0.084120 -0.199354 0.104809 0.015080 0.025513 0.009791 -0.045950 0.001908 0.166025 0.089814 -0.065107 -0.118470 -0.198466 -0.042442 0.087287 0.003528 0.014245 -0.009709 -0.087720 -0.182451 -0.124088 0.124980 0.071161 -0.012105 0.029384 -0.003062 0.018891 0.019758 0.156237 0.033444 -0.166825 0.073185 -0.133702 0.112261 -0.080782 -0.088288 0.060751 -0.061757 0.043006 0.101722 -0.198539 -0.052937 0.124128
create 0.065699 0.006356 -0.113405 -0.116938 -0.157437 -0.030548 -0.133248 -0.175125 0.125973 0.166101 0.141777 -0.056903 -0.009397 0.095955 0.189471 -0.104128 0.462658 0.229873 -0.290515 -0.004452 0.125786 -0.157881 -0.148898 -0.023721 0.546441 0.139105 -0.012927 0.097999 -0.016302 -0.149759 -0.060989 -0.053066 0.146324 0.125142 0.093666 -0.036335 -0.018303 -0.005406 -0.120299 0.043223 0.236120 -0.032812 -0.205033 -0.026206 0.022854 0.075004 0.380011 0.202797 0.137030 0.314740
database -0.027474 0.011450 -0.098264 0.040394 0.000118 -0.062675 0.016000 0.105573 0.048702 -0.068695 -0.075888 0.005795 -0.020630 -0.035863 -0.038623 -0.056354 -0.108829 -0.004141 0.130401 0.129193 -0.113873 -0.017224 0.083429 0.041592 -0.187605 -0.031340 0.092406 -0.016082 0.019611 0.003771 -0.005606 0.004061 0.003342 -0.142153 -0.009248 -0.008934 0.017640 0.033758 -0.055280 -0.053146 -0.210680 -0.001205 -0.025564 -0.011180 0.062954 0.087713 -0.188485 0.046184 -0.095022 -0.159515
diaglog -0.048014 -0.214357 0.009919 0.038660 -0.041661 -0.017460 0.022448 0.175930 0.006280 -0.095149 0.058261 0.044749 0.042928 0.011670 -0.018695 -0.101777 -0.002759 0.067569 -0.013827 0.106362 -0.051129 0.012814 0.168053 0.052066 -0.149454 0.099448 0.229044 0.044095 -0.038543 0.089403 0.001972 0.027684 0.096038 -0.051085 0.021385 -0.082296 0.142303 0.109826 0.051247 -0.003110 -0.163741 0.098792 -0.010793 -0.035526 -0.004966 -0.052210 -0.181471 0.211069 0.000561 -0.119449
directory 0.148831 0.098012 0.284021 0.067133 0.021290 -0.089466 -0.086988 -0.251376 0.092196 0.077725 0.026469 -0.100033 -0.038038 0.126184 0.125745 0.166140 -0.109147 -0.232770 -0.107749 -0.267325 0.260333 0.122223 -0.269926 -0.103537 0.319051 -0.122326 -0.290745 -0.050383 -0.050883 -0.045420 0.055609 0.024738 -0.013745 0.233697 -0.160831 0.117791 -0.456275 -0.020091 -0.014082 0.302944 0.518605 0.121985 0.221892 -0.026630 -0.052125 -0.198103 0.441757 -0.279648 0.167278 0.134477
distarch 0.003078 -0.080191 0.086437 0.031468 0.095497 0.043208 0.108744 0.194122 0.044747 -0.168025 -0.053643 -0.019729 0.021819 0.014592 -0.187330 -0.089216 -0.243870 -0.079916 0.214440 0.055402 -0.108081 0.039384 0.087922 -0.030253 -0.299976 0.030035 0.205181 -0.010604 -0.090778 0.069102 -0.012270 0.019807 -0.052103 -0.154271 -0.022182 -0.032123 0.129513 0.046838 0.049511 0.028719 -0.169698 0.023430 0.237570 -0.008873 -0.031306 -0.035359 -0.322434 0.032165 -0.090429 -0.276443
distmod -0.024801 -0.026234 0.080644 0.019964 0.120943 0.042012 0.080933 0.112476 -0.042281 -0.120719 -0.071818 -0.002080 0.066291 -0.011943 -0.153995 -0.050106 -0.225041 -0.094096 0.146487 0.029994 -0.046094 0.040958 0.056509 -0.061274 -0.207640 0.019074 0.127946 -0.028273 -0.065944 0.050947 0.014305 0.028914 -0.029765 -0.028451 -0.025652 -0.050369 0.038926 0.054253 0.065506 0.024603 -0.116329 0.047800 0.177920 -0.002364 -0.016629 -0.072366 -0.231602 0.044907 -0.041922 -0.176716
dochub -0.024714 0.187435 -0.076081 -0.108072 0.059051 0.132388 -0.012988 -0.163792 -0.219927 0.118514 0.033701 -0.052424 0.020683 -0.036190 0.030541 0.197173 0.057230 -0.053999 -0.205711 -0.207499 -0.096132 0.060512 -0.131892 -0.141977 0.013673 -0.100055 -0.163942 -0.050937 0.141914 0.100013 -0.059499 0.054750 -0.079872 0.007340 0.084677 0.026220 0.083345 -0.184523 0.055394 -0.096748 0.016925 -0.226345 -0.031736 0.069247 -0.201791 -0.008377 0.139931 -0.278759 -0.090756 0.222112
ends -0.034025 0.169287 -0.018026 0.064013 0.049294 -0.028381 -0.077504 -0.051097 -0.042569 0.097410 -0.014345 -0.054569 0.010857 0.032503 0.075172 0.085173 -0.175628 -0.176702 0.042610 -0.101093 0.021737 0.031342 -0.140656 -0.037053 -0.110267 -0.139960 -0.095111 -0.077660 0.122129 -0.005833 0.001389 0.138460 -0.012014 0.055568 0.028006 0.010112 -0.198680 0.009132 -0.051579 0.061606 -0.004476 -0.062108 -0.024146 -0.035675 -0.093298 -0.049666 -0.022068 -0.214587 -0.078706 0.063206
environment -0.043217 -0.004195 0.068835 -0.004833 0.137209 -0.051404 0.039703 0.102637 -0.033344 -0.167117 -0.090470 0.012164 0.012968 -0.032776 -0.108848 -0.059508 -0.245178 -0.087457 0.169826 0.095442 -0.020204 0.050449 0.040425 0.033989 -0.303700 0.043760 0.145425 -0.046238 -0.022389 0.045289 0.035543 0.030581 -0.085574 -0.097736 -0.016870 -0.024195 0.081476 0.077866 0.057520 -0.002081 -0.215619 0.043964 0.146709 -0.045485 -0.007306 -0.043353 -0.308091 0.000340 -0.077006 -0.266394
eviction 0.024578 0.329450 -0.185403 -0.255614 -0.012011 -0.054035 -0.225994 -0.410545 -0.193761 0.274143 0.215640 -0.012615 -0.071616 0.099279 0.322898 0.110342 0.664953 0.152932 -0.653756 -0.262539 0.108590 -0.132433 -0.409593 -0.192186 0.630433 -0.032966 -0.212201 0.010882 -0.018875 0.053569 -0.068177 0.046972 0.097714 0.104367 0.304735 0.100333 -0.073223 -0.238917 -0.236650 0.092433 0.426378 -0.223942 -0.181685 -0.065896 -0.196235 -0.045243 0.666817 0.004391 0.242275 0.725810
exiting -0.039869 -0.298118 0.024180 0.141064 -0.006727 -0.087217 0.177082 0.140654 0.154404 -0.191057 -0.082362 0.093950 0.106504 -0.034691 -0.229280 -0.150446 -0.130193 0.058456 0.261957 0.161304 0.155886 -0.019918 0.191903 0.112011 -0.092341 0.279988 0.101276 0.140722 -0.174406 -0.060310 0.038713 -0.145781 -0.118242 0.014012 -0.053288 -0.154808 0.078673 0.128796 0.078700 -0.001747 -0.162405 0.299278 0.126623 -0.001266 0.069650 0.034340 -0.227908 0.249036 0.008828 -0.205879
false -0.073258 0.110542 0.002150 0.050392 -0.039192 -0.043695 -0.113248 -0.232843 -0.166114 0.205225 0.103467 -0.010383 0.040502 0.007384 0.197097 0.103201 0.163910 0.090938 -0.319108 -0.215016 0.008826 0.107357 -0.136389 0.077017 0.164737 -0.230619 -0.337979 0.006796 0.058533 0.085831 0.104277 -0.069879 0.049100 0.172095 -0.013511 0.108356 -0.003934 -0.122471 0.022212 0.007321 0.124336 -0.014215 -0.222020 0.044374 -0.070979 -0.070824 0.250414 -0.074863 -0.036508 0.338441
fast -0.109221 0.019023 0.006107 0.114533 -0.113477 0.049609 -0.058499 -0.129800 -0.114519 0.227290 0.051716 -0.026134 0.062232 -0.034624 0.146090 0.103652 0.016237 0.040445 -0.159807 -0.127548 -0.089325 0.109493 0.009594 0.141053 -0.060546 -0.273026 -0.281248 -0.113161 0.152819 0.071298 0.235754 -0.044535 0.029332 0.150127 -0.118937 0.129638 0.049894 -0.075233 0.160849 -0.048128 -0.034982 0.000746 -0.249093 0.117378 -0.000215 -0.012771 0.127247 -0.173069 -0.125938 0.134766
flush -0.039166 -0.258015 0.009457 -0.005307 -0.090352 0.026166 -0.003095 0.184589 -0.031484 -0.060942 0.126829 0.057426 0.059519 0.016248 0.062144 -0.086677 0.166787 0.128385 -0.152791 0.090326 -0.097002 -0.020765 0.181041 0.052850 -0.054882 0.105956 0.282414 0.048249 -0.036993 0.112883 -0.012311 0.049188 0.189097 -0.035547 0.039805 -0.086532 0.172580 0.099582 0.049301 -0.017870 -0.133995 0.075376 -0.068280 -0.014302 0.002941 -0.045923 -0.093491 0.285184 0.059966 -0.048673
fs -0.081195 0.176949 -0.035384 -0.114270 0.046914 0.094960 -0.122455 0.009498 -0.183316 0.104716 0.050275 0.040879 -0.027604 -0.030437 0.101411 -0.014918 0.059393 0.064031 -0.044806 -0.033130 -0.135779 -0.014391 -0.052553 -0.002121 -0.134579 -0.194163 0.120177 -0.151464 0.110700 0.081210 -0.050774 0.118444 0.064394 -0.144664 0.038278 0.100931 0.151679 -0.060780 -0.033331 -0.026080 -0.048107 -0.197054 -0.083259 0.051101 -0.035316 -0.019501 -0.093350 -0.042239 -0.014137 -0.074849
gb -0.054046 0.170727 -0.042302 -0.035755 -0.178931 0.013469 -0.304944 -0.511603 -0.142863 0.535175 0.278620 -0.122391 0.138514 0.089467 0.434834 0.175538 0.494688 0.231251 -0.583692 -0.376608 0.199023 0.015970 -0.292404 0.002067 0.615340 -0.291513 -0.562190 -0.044834 0.249186 0.038817 0.277829 0.006001 0.119401 0.319443 -0.015574 0.141400 -0.083876 -0.253408 0.176756 -0.007013 0.320113 -0.060179 -0.494857 0.181636 -0.105659 -0.091463 0.778880 -0.192724 0.011385 0.729269
git 0.025126 0.022202 0.073852 -0.026562 0.087610 0.070334 0.043562 0.125590 -0.050578 -0.106880 -0.016356 -0.045441 0.029198 -0.011153 -0.117226 -0.076721 -0.160749 -0.080073 0.124500 0.012522 -0.154240 -0.006788 0.051402 -0.063578 -0.278953 -0.005619 0.185223 -0.067667 -0.035917 0.077198 -0.042509 0.084203 0.019861 -0.139869 0.004955 -0.006068 0.126909 -0.004258 0.061653 0.001285 -0.154087 -0.034874 0.142663 -0.029257 -0.021434 -0.053926 -0.234304 -0.018289 -0.073509 -0.144909
got -0.011213 0.395666 0.074710 -0.168109 0.193832 0.009346 -0.123670 -0.160539 -0.166692 0.073450 0.037473 -0.071955 -0.095279 0.090775 0.172464 0.064352 -0.029010 -0.104318 -0.117267 -0.144278 -0.173784 0.059923 -0.221904 -0.044399 -0.192572 -0.207779 0.036540 -0.296438 0.071807 0.152346 0.067091 0.202824 0.021682 -0.164986 -0.020892 0.228250 -0.010853 -0.156147 0.031516 0.124743 0.169373 -0.245376 0.081705 0.058892 -0.056978 -0.117973 -0.002728 -0.267022 -0.016085 -0.042469
host 0.011365 0.069425 0.041141 -0.078463 -0.030366 0.120709 -0.093992 -0.170723 -0.008059 0.211376 0.096529 -0.038852 0.012563 0.006551 0.135487 0.035289 0.369976 0.032899 -0.221381 -0.144015 0.064767 0.028591 -0.132342 -0.023410 0.286844 -0.056134 -0.148008 -0.006994 0.038117 0.001302 0.059812 0.030657 0.084992 0.130735 0.040616 0.070301 -0.040781 -0.021594 0.017811 0.099622 0.189530 -0.057151 -0.086214 0.077625 -0.104386 0.013690 0.254893 -0.010238 0.069682 0.203723
http -0.016935 0.166799 -0.038657 -0.134534 0.045099 0.124727 -0.026501 -0.124380 -0.180992 0.093364 0.039206 -0.072267 0.023154 -0.019042 0.045101 0.164249 0.002638 -0.050626 -0.179982 -0.155069 -0.147530 0.045495 -0.115614 -0.135209 -0.024795 -0.123786 -0.092034 -0.035977 0.128003 0.118803 -0.043505 0.097999 -0.058715 -0.013440 0.052501 0.004680 0.099281 -0.157741 0.054535 -0.039169 -0.015675 -0.248427 0.007292 0.077224 -0.208577 -0.033195 0.080207 -0.255020 -0.081764 0.182270
idle 0.153000 0.182687 0.046373 -0.130060 -0.018465 -0.031860 -0.155947 -0.262447 0.022035 0.203997 0.219203 -0.047382 -0.012853 0.066235 0.131086 0.170186 0.406273 0.081745 -0.349238 -0.185129 0.152516 -0.069420 -0.263902 -0.096949 0.542817 0.045970 -0.234654 0.031045 0.064647 -0.072022 -0.100846 -0.021193 0.128845 0.153183 0.097580 0.101993 -0.173230 -0.207449 -0.153100 -0.004570 0.393792 -0.121613 -0.058569 -0.015135 -0.042256 0.018069 0.558744 -0.017617 0.167586 0.486253
initializing 0.100340 0.139047 0.081141 0.013200 0.066179 -0.013167 -0.059832 -0.105760 0.096334 -0.000382 -0.027622 -0.111677 -0.018335 0.033521 -0.096440 0.047290 -0.249008 -0.082550 0.026778 -0.067111 -0.015712 0.073881 -0.098729 -0.048818 0.007825 -0.102136 -0.124141 0.011579 0.044861 -0.025572 -0.091225 -0.049483 -0.007264 0.001840 -0.043179 0.036612 -0.082202 -0.060885 -0.065903 0.061522 0.003521 -0.109906 0.138974 -0.041085 -0.025135 -0.074729 0.051343 -0.215293 -0.087060 0.008264
journal -0.049304 -0.085277 -0.059904 0.046975 -0.030433 0.139783 0.166588 0.254144 0.042929 -0.250981 -0.209239 0.014047 -0.107003 -0.081863 -0.186169 -0.039725 -0.284251 -0.140191 0.324831 0.164707 -0.165983 -0.018818 0.246239 0.073793 -0.374047 0.065431 0.282726 -0.138219 0.021261 -0.049953 -0.053097 0.051292 -0.037325 -0.168595 -0.134217 0.016762 0.095991 0.177881 0.068090 -0.010092 -0.196085 -0.055509 0.071702 0.006786 0.102830 0.156761 -0.398609 -0.117474 -0.059976 -0.463785
lock -0.060031 0.085645 0.044565 -0.013696 0.087685 0.038440 -0.038885 0.056056 -0.094508 0.002571 0.003816 0.049597 -0.001443 -0.032198 -0.006361 -0.032203 -0.118306 -0.009043 0.099351 -0.006770 -0.028240 0.033432 0.001550 -0.006984 -0.194827 -0.107608 0.111290 -0.089345 0.045755 0.056424 -0.025283 0.059222 -0.018360 -0.103649 0.000569 0.046425 0.080357 0.005451 0.002609 0.001986 -0.064419 -0.036648 0.055706 0.032644 -0.035657 -0.047809 -0.171936 -0.008024 -0.036473 -0.170669
m 0.035522 0.230731 -0.136769 -0.238028 -0.089217 0.006116 -0.273370 -0.399602 -0.035157 0.313483 0.239230 -0.127978 -0.016335 0.112838 0.386276 0.039249 0.614078 0.172039 -0.489436 -0.193457 0.128758 -0.148602 -0.355681 -0.145218 0.633729 -0.011959 -0.139341 -0.008444 0.053742 -0.032411 -0.016610 0.129227 0.151517 0.126470 0.153974 0.035907 -0.041055 -0.155416 -0.087202 0.070956 0.399313 -0.193426 -0.279993 0.040154 -0.136476 -0.007264 0.608636 -0.024037 0.217881 0.578054
manager 0.061665 0.097174 0.003396 -0.151443 0.012371 0.122461 -0.017136 -0.052557 -0.042713 0.010110 0.097654 -0.016992 -0.059894 0.025566 0.019925 0.100578 0.318945 0.023705 -0.147677 -0.082139 0.048756 -0.081556 -0.090173 -0.066704 0.242487 0.139252 0.010045 -0.031364 0.041891 -0.083321 -0.141280 0.053039 0.055721 -0.004407 0.078423 0.056718 -0.053863 -0.076496 -0.068588 -0.027245 0.225032 -0.088025 -0.018187 -0.032956 -0.013302 0.074767 0.234631 -0.008385 0.146230 0.172200
modules 0.000902 -0.065555 0.107249 0.051524 0.094490 0.038878 0.099649 0.129355 0.051662 -0.181122 -0.081530 0.005003 -0.001461 -0.006138 -0.149768 -0.075531 -0.241819 -0.092655 0.198112 0.033048 -0.058207 0.082006 0.062797 -0.012497 -0.273099 0.034975 0.158386 -0.017068 -0.104343 0.070309 -0.003918 0.007432 -0.081001 -0.140778 -0.028718 -0.051848 0.068472 0.053451 0.075079 0.053512 -0.126650 0.056137 0.242983 -0.009019 -0.046702 -0.042856 -0.275321 -0.007029 -0.050537 -0.271408
none -0.021626 -0.107055 0.101733 0.085822 0.084284 -0.018255 0.115717 0.129704 0.062267 -0.192487 -0.097513 0.037572 0.006525 -0.019644 -0.144908 -0.095603 -0.260766 -0.075486 0.222878 0.082542 -0.022425 0.062248 0.086569 0.028234 -0.269291 0.061527 0.145113 0.017562 -0.107745 0.059966 0.000525 -0.013220 -0.097674 -0.131585 -0.031270 -0.067418 0.052589 0.072293 0.081721 0.051222 -0.141426 0.105269 0.207932 -0.019238 -0.016212 -0.026830 -0.293240 0.028675 -0.041750 -0.282527
not -0.131819 0.134107 -0.074924 -0.024917 0.077790 0.136814 -0.016310 -0.000152 -0.166089 -0.031544 0.012541 0.037094 -0.064776 -0.010812 -0.039439 -0.052206 0.151182 -0.032598 -0.057113 -0.036079 -0.163073 -0.018552 -0.007884 0.043364 -0.190042 0.026022 0.127376 -0.195175 0.012002 0.118516 0.060900 0.076252 0.012374 -0.059177 0.085756 0.126121 0.256460 -0.079973 0.044803 -0.038194 -0.041103 -0.091397 -0.026978 0.040288 -0.126172 0.134846 -0.120510 0.006264 -0.048153 -0.019323
options -0.052548 -0.177336 0.130477 0.071816 0.160210 -0.027380 0.169207 0.252892 0.062344 -0.332618 -0.112118 0.034466 0.096713 0.001082 -0.328796 -0.192919 -0.446008 -0.067639 0.361663 0.151866 -0.040192 0.075080 0.178426 0.010910 -0.487394 0.156427 0.284188 0.051403 -0.172364 0.078908 -0.026826 -0.032975 -0.158349 -0.140309 -0.025059 -0.149452 0.191153 0.115301 0.106841 0.049985 -0.330207 0.167829 0.350707 -0.063801 -0.022527 -0.107227 -0.542777 0.137608 -0.146301 -0.425689
org -0.016940 0.172389 -0.044623 -0.058978 0.074038 0.147705 -0.006444 -0.127136 -0.231831 0.119629 0.008249 0.010924 0.019999 -0.047211 -0.006591 0.182133 0.081004 -0.065229 -0.161477 -0.222585 -0.041160 0.081665 -0.057863 -0.063634 0.017905 -0.077954 -0.197504 -0.093849 0.120740 0.074476 -0.041801 0.027804 -0.051840 0.006036 0.061296 0.102303 0.044304 -0.197363 0.060234 -0.152165 0.087840 -0.119309 -0.071356 0.048247 -0.115952 0.031174 0.131295 -0.244207 -0.082011 0.167376
path -0.084911 -0.062924 -0.097504 0.067932 -0.119270 0.159509 0.148608 0.212520 0.018178 -0.184510 -0.206744 0.024128 -0.118361 -0.134764 -0.144825 -0.025659 -0.235431 -0.126657 0.261038 0.153340 -0.245377 -0.020739 0.251869 0.132372 -0.378525 -0.007916 0.244744 -0.206278 0.066124 -0.013312 0.004375 0.034210 -0.013661 -0.112414 -0.151155 0.088406 0.141028 0.139709 0.067619 -0.038919 -0.196628 -0.096068 0.003597 0.028848 0.114239 0.220140 -0.353560 -0.179578 -0.086444 -0.432912
pid -0.008505 0.146508 -0.234390 -0.099265 -0.039432 0.110057 -0.042879 -0.093122 -0.187390 0.170210 0.088424 -0.029653 0.005931 -0.117300 0.086660 0.183045 0.210615 0.028479 -0.267623 -0.178753 0.019044 0.066021 -0.122329 -0.178860 0.223989 -0.076065 -0.124135 -0.019915 0.195875 0.019308 -0.073480 -0.096625 0.013311 0.095443 0.089027 -0.007238 0.027362 -0.168775 -0.054795 -0.101733 0.066868 -0.118592 -0.190187 -0.033410 -0.111338 0.080411 0.172196 -0.145324 -0.028100 0.345199
prodnotes -0.020426 0.086271 0.015890 0.018990 0.051640 0.097790 0.019645 -0.013081 -0.131594 0.054027 0.009657 0.029455 -0.001279 -0.047308 -0.029691 0.125103 0.029193 -0.078993 -0.015544 -0.127227 -0.040988 0.095398 0.055213 0.053761 -0.081565 -0.085377 -0.135262 -0.126036 0.098281 0.045201 0.011954 0.023034 0.025447 0.016973 -0.032210 0.148758 0.015062 -0.103542 0.081726 -0.108620 0.081375 -0.035392 -0.064100 0.052112 -0.013285 0.036393 0.020822 -0.139559 -0.050432 0.024693
read 0.003752 0.034668 0.086510 -0.125788 0.057006 0.140197 0.049815 0.062966 -0.072713 -0.056761 0.016648 -0.064098 0.025124 0.001845 -0.069893 -0.039711 -0.023413 -0.032631 -0.038801 -0.078807 -0.102944 0.051356 -0.030153 -0.072942 -0.138342 -0.013866 0.092552 -0.046492 -0.026577 0.086755 0.008987 0.078900 -0.011507 -0.047093 0.036956 -0.011708 0.126598 -0.029547 0.076535 0.004311 -0.024562 -0.045379 0.138718 -0.007546 -0.083932 -0.096871 -0.113276 -0.013555 -0.035618 -0.051141
recommended 0.030517 0.069444 -0.004425 -0.006936 -0.053433 -0.045177 -0.110311 -0.127220 0.037935 0.084223 0.071851 -0.070720 -0.112151 0.062359 0.211404 0.015954 0.186570 -0.021071 -0.190112 -0.051640 -0.000530 -0.025340 -0.132078 0.026886 0.206794 -0.075247 -0.091455 -0.104632 0.001714 -0.031510 0.024748 0.064778 0.112959 0.064484 0.010082 0.113076 -0.174777 0.003383 -0.105993 0.108188 0.253924 -0.021083 -0.095278 -0.029380 0.057257 -0.014432 0.305511 -0.066586 0.138196 0.175984
see 0.011702 0.106168 0.036463 -0.106454 0.094379 0.127491 0.019534 0.010562 -0.104795 -0.012055 -0.017466 -0.086666 0.034519 -0.013610 -0.042563 0.088988 -0.186850 -0.106571 -0.007837 -0.062509 -0.197666 0.068774 -0.030893 -0.128603 -0.208469 -0.121329 0.057450 -0.038607 0.070541 0.120620 -0.044478 0.110669 -0.064037 -0.088649 0.000995 -0.032310 0.098213 -0.077647 0.061674 0.009104 -0.117943 -0.190433 0.136345 0.047667 -0.169674 -0.076218 -0.138948 -0.194679 -0.115014 -0.029048
session 0.042000 0.274054 -0.161087 -0.248873 -0.050432 -0.020961 -0.259271 -0.409889 -0.093160 0.277783 0.242861 -0.094893 -0.041116 0.106781 0.369722 0.071614 0.645395 0.150362 -0.537809 -0.216859 0.105065 -0.136035 -0.386955 -0.175615 0.620085 -0.011091 -0.157215 0.000795 0.013159 0.003705 -0.044092 0.115024 0.130976 0.111560 0.215510 0.041722 -0.042620 -0.172293 -0.155994 0.087924 0.418305 -0.222356 -0.238287 -0.013646 -0.160955 -0.017354 0.614273 -0.016092 0.219479 0.635396
setting 0.075067 0.088700 -0.095447 -0.119120 -0.125439 0.040838 -0.116493 0.080913 0.044428 0.107298 0.060127 -0.085136 -0.093194 0.008589 0.227750 0.031435 0.059070 0.065318 -0.154117 0.082571 -0.345353 -0.098423 -0.000972 -0.001284 -0.063391 -0.317215 0.068900 -0.056660 0.052679 0.012696 -0.108697 0.141071 0.239414 -0.186191 0.001778 0.031305 -0.109545 -0.056805 -0.184801 -0.096711 -0.038017 -0.278749 -0.165406 -0.007277 0.106258 0.083012 0.017637 -0.060678 -0.066268 0.030384
signal 0.016571 0.517743 0.035461 -0.224810 0.174816 0.046512 -0.200591 -0.288364 -0.209174 0.217054 0.082971 -0.136660 -0.134662 0.109479 0.274375 0.142167 0.084359 -0.133248 -0.270851 -0.262979 -0.156529 0.088752 -0.344518 -0.118131 -0.060224 -0.306222 -0.091984 -0.318198 0.154681 0.151062 0.046940 0.233877 0.059111 -0.093080 -0.001181 0.282464 -0.093550 -0.236070 0.004475 0.150634 0.314044 -0.326051 0.021153 0.057173 -0.113577 -0.116869 0.189596 -0.388758 -0.026173 0.133500
snappy 0.001860 0.001794 0.000306 -0.068046 0.043851 0.186294 0.094325 0.153705 0.013237 -0.186611 -0.102629 -0.039458 -0.086584 -0.003149 -0.128254 0.008246 -0.067413 -0.093421 0.168328 0.064302 -0.057412 -0.033146 0.085439 -0.022362 -0.161573 0.096541 0.187682 -0.083868 0.018594 -0.089929 -0.141612 0.085838 -0.032383 -0.144697 -0.049166 0.005183 0.027873 0.101917 0.010491 -0.008832 -0.018156 -0.076930 0.091248 -0.045916 0.023786 0.094641 -0.179892 -0.060476 0.005483 -0.246462
sock 0.026648 -0.021282 -0.026013 0.084849 0.069542 0.049677 0.068873 0.022963 -0.006198 -0.042723 -0.084509 -0.027976 0.067949 -0.073674 -0.150088 0.026899 -0.175416 -0.099060 0.119709 -0.031620 0.079608 0.061847 0.015916 -0.118848 -0.083273 0.039676 -0.062367 0.057773 0.015300 -0.043549 -0.061425 -0.082541 -0.115562 0.006618 0.006908 -0.100465 -0.024865 0.010436 0.064619 -0.088060 -0.140089 0.093445 0.101605 -0.001251 -0.038869 -0.010044 -0.105354 -0.087135 -0.132168 -0.083862
sockets 0.032362 -0.204702 0.080694 0.083766 0.003802 -0.058253 0.114111 0.164156 0.102993 -0.154575 -0.045500 0.071833 0.020597 -0.063221 -0.154742 -0.061122 -0.112662 0.030078 0.157968 0.161675 0.070179 -0.024505 0.174922 0.033762 -0.058612 0.152707 0.115568 0.113944 -0.102725 -0.037580 0.008429 -0.134101 -0.042188 -0.009808 -0.044095 -0.084033 0.007581 0.067006 0.038452 -0.050662 -0.099525 0.181255 0.112091 -0.017938 0.101235 0.014892 -0.121272 0.177569 0.000444 -0.194109
strongly -0.009426 0.081943 -0.051313 -0.033942 -0.024809 0.033647 -0.095737 -0.105893 -0.033701 0.118334 0.106039 -0.045953 -0.082539 0.036578 0.198747 0.015806 0.293714 0.006412 -0.203329 -0.085937 0.015138 -0.010831 -0.108945 0.036633 0.199488 -0.023086 -0.066633 -0.132326 0.017444 0.001079 0.045927 0.060187 0.118308 0.075034 0.043761 0.128896 -0.055671 -0.040126 -0.053673 0.047943 0.245275 -0.039809 -0.157131 0.001843 -0.018555 0.023882 0.257614 -0.010737 0.114217 0.209291
target -0.001391 -0.065769 0.055864 -0.040345 0.077061 0.081746 0.058677 0.186695 0.019962 -0.216341 -0.039586 -0.023269 -0.029909 -0.033704 -0.194392 -0.164566 -0.171158 -0.015910 0.156042 0.109187 -0.203934 0.000607 0.117938 0.022264 -0.364683 0.048200 0.290817 -0.040250 -0.048753 0.065200 -0.024879 0.087896 -0.053116 -0.213366 0.070239 -0.020355 0.283542 0.005257 0.045632 0.010895 -0.303806 0.001448 0.200986 -0.022414 -0.005147 -0.025929 -0.352939 0.043107 -0.082224 -0.248517
tcmalloc 0.013759 -0.121028 0.092327 0.043198 0.076411 0.003118 0.105068 0.167702 0.032235 -0.136156 -0.086936 0.037354 0.054147 0.013534 -0.158249 -0.058455 -0.272146 -0.056553 0.218618 0.101264 0.010899 0.043784 0.108533 0.022936 -0.238785 0.046492 0.156287 0.006880 -0.080223 0.025235 0.049249 -0.050244 -0.067777 -0.076310 -0.031212 -0.024524 0.047671 0.053180 0.059035 -0.005100 -0.150251 0.113899 0.216192 0.030307 0.003400 -0.062310 -0.247373 0.074644 -0.061935 -0.256256
terminate 0.012290 0.566959 -0.064984 -0.175263 0.056236 0.083329 -0.277918 -0.376445 -0.256171 0.389905 0.139207 -0.171448 -0.117489 0.146676 0.355157 0.203784 0.143892 -0.199364 -0.376869 -0.398093 -0.093611 0.078911 -0.470392 -0.169878 0.076291 -0.395310 -0.266906 -0.304179 0.266150 0.090012 -0.014469 0.309010 0.116892 0.073361 0.057722 0.233552 -0.214967 -0.249232 -0.082060 0.142401 0.345217 -0.365102 -0.131177 -0.003060 -0.229158 -0.091323 0.346763 -0.454030 -0.038926 0.398011
terminated 0.034750 0.557263 -0.015078 -0.243847 0.115496 0.068296 -0.249671 -0.361268 -0.246221 0.312329 0.121710 -0.166984 -0.142704 0.135492 0.336847 0.169653 0.173914 -0.147647 -0.359271 -0.341108 -0.135395 0.098114 -0.423692 -0.157916 0.035155 -0.366888 -0.176963 -0.320996 0.206316 0.122542 0.010391 0.260584 0.088563 -0.027829 0.034387 0.278153 -0.140037 -0.269047 -0.024161 0.153134 0.376530 -0.379901 -0.039036 0.050371 -0.163429 -0.101718 0.309207 -0.426164 -0.032253 0.271647
tmp 0.008670 0.185651 -0.075533 -0.054582 0.024830 0.159050 -0.038583 -0.205480 -0.093819 0.133578 0.006816 -0.102629 -0.023454 -0.011196 0.027979 0.148155 0.152706 -0.056984 -0.150802 -0.199417 0.064048 0.023029 -0.179084 -0.143122 0.181047 -0.056200 -0.209277 -0.045538 0.125347 -0.066556 -0.071299 0.000573 -0.042349 0.052488 0.053193 0.039597 -0.086566 -0.096420 0.008539 -0.062666 0.129737 -0.123312 -0.073038 0.010682 -0.094810 0.045475 0.256433 -0.221835 -0.046787 0.226352
unrestricted -0.079213 -0.125669 -0.023351 0.059893 0.063234 -0.008587 0.096005 0.206461 -0.028711 -0.108485 -0.072840 0.117512 0.011740 -0.037165 -0.087381 -0.118117 -0.040972 0.008150 0.184405 0.148349 0.006143 0.004463 0.172323 0.081921 -0.231796 0.123620 0.207569 -0.003644 -0.063774 0.037459 0.058501 -0.007455 -0.030340 -0.047555 0.020571 -0.078383 0.152074 0.098897 0.107575 -0.035130 -0.153516 0.122303 0.005759 -0.016230 0.012955 0.035051 -0.324829 0.197453 -0.017212 -0.192354
waiting -0.166288 0.027462 -0.314983 -0.014319 -0.062691 0.053261 0.051395 0.115169 -0.102062 -0.030741 -0.057442 0.141675 -0.088415 -0.122162 0.020065 -0.079040 0.189947 0.132268 0.051095 0.197386 -0.156592 -0.134072 0.177137 0.122443 -0.190057 0.091756 0.163242 -0.013422 0.106553 0.017561 -0.024087 -0.016447 -0.005016 -0.169975 0.109836 -0.019529 0.222175 0.054847 -0.028137 -0.221991 -0.260985 -0.086216 -0.251697 -0.015665 0.060933 0.234595 -0.223503 0.173357 -0.070832 -0.080846
will 0.033122 0.566274 -0.054760 -0.218042 0.072010 0.076314 -0.268998 -0.379597 -0.266798 0.366705 0.145329 -0.172129 -0.135920 0.142747 0.360143 0.184785 0.193305 -0.164567 -0.390169 -0.379239 -0.111454 0.089034 -0.461418 -0.175757 0.074334 -0.392396 -0.237386 -0.319891 0.238308 0.104170 -0.008495 0.285744 0.105914 0.028927 0.057048 0.252633 -0.171785 -0.272681 -0.057535 0.147363 0.376654 -0.388487 -0.085806 0.029205 -0.202605 -0.087716 0.355929 -0.443237 -0.034821 0.354300
wiredtigerkvengine -0.123668 0.212802 0.048278 -0.088347 0.117238 -0.114600 -0.055302 0.094938 -0.103910 -0.119371 -0.047416 0.060382 -0.143667 0.111339 0.149192 -0.036778 -0.183090 -0.087011 0.103265 0.166529 -0.318120 -0.061731 0.061179 0.178065 -0.450648 -0.146194 0.187483 -0.290383 0.008293 0.159434 0.115176 0.273766 -0.032813 -0.334650 -0.011907 0.145164 0.047446 -0.019920 0.033758 -0.046743 -0.102317 -0.249183 -0.033202 0.070842 0.106142 -0.020316 -0.308577 -0.129989 -0.004638 -0.277264
write -0.008708 0.024204 0.052123 -0.178129 -0.042941 0.117956 -0.007830 -0.071881 -0.118917 0.065133 0.114170 -0.035482 0.043823 0.015471 0.100802 0.021607 0.300960 0.069913 -0.248649 -0.129129 -0.033427 -0.038195 -0.099410 -0.026493 0.141284 -0.000056 0.001067 -0.008234 -0.018502 0.056565 0.004879 0.101365 0.038428 0.058131 0.090815 0.014414 0.092123 -0.069242 0.042328 -0.022284 0.143795 -0.045587 -0.060954 0.024720 -0.053586 -0.038758 0.202305 0.026338 0.094245 0.199655
xfs 0.045349 0.156477 -0.088176 -0.083260 -0.030798 0.081001 -0.093920 -0.072753 -0.053741 0.150875 0.068969 -0.074114 -0.042089 -0.003736 0.120106 0.101588 0.216634 0.018229 -0.165097 -0.084778 -0.074436 0.018587 -0.100291 -0.053258 0.142152 -0.161097 -0.119103 -0.100085 0.083211 -0.041567 -0.017413 0.047962 0.145155 0.026335 0.014823 0.113722 -0.069260 -0.098161 -0.049366 -0.066485 0.100100 -0.149654 -0.157514 0.023719 0.019443 0.069843 0.195979 -0.112328 -0.006474 0.176970
recovering -0.018201 0.070312 -0.085389 0.006511 -0.136667 -0.014084 -0.111130 -0.221043 -0.048475 0.226410 0.087781 -0.056993 0.031997 0.022015 0.164094 0.092342 0.248005 0.114020 -0.243327 -0.127583 0.110969 0.007498 -0.058743 0.036655 0.256591 -0.061930 -0.288909 -0.012486 0.141681 -0.070145 0.089166 -0.059245 0.013507 0.173368 -0.008720 0.062131 -0.104146 -0.090960 0.006536 0.002442 0.173677 -0.026890 -0.260855 0.052254 0.041457 0.022749 0.432528 -0.120616 0.026299 0.285037
through -0.029406 -0.116375 0.018831 0.120529 -0.084342 -0.098832 -0.010972 -0.055988 0.045948 0.066208 -0.013418 0.000572 0.106909 -0.002612 0.012713 0.012363 -0.082878 0.077152 0.051063 -0.000504 0.156589 0.059098 0.071618 0.072138 0.027620 -0.029509 -0.204358 0.034237 0.068572 -0.066318 0.144239 -0.106390 -0.083630 0.117488 -0.094197 -0.030321 -0.086293 0.003385 0.093605 -0.014032 -0.043103 0.162229 -0.106361 0.063522 0.095022 -0.046589 0.098464 -0.036220 -0.058133 0.009603
by 0.062463 0.179665 -0.119295 -0.099054 -0.099375 0.045227 -0.160906 -0.137752 -0.012776 0.219395 0.081043 -0.080101 -0.073482 0.008759 0.199093 0.087566 0.313679 0.049076 -0.256409 -0.085327 -0.080415 -0.038879 -0.140387 -0.060525 0.286064 -0.150523 -0.118456 -0.054389 0.132133 -0.044033 -0.030959 0.043653 0.175802 0.010830 0.090247 0.094554 -0.107176 -0.081390 -0.123466 -0.068886 0.115666 -0.175362 -0.235626 0.013331 0.020252 0.054979 0.324567 -0.056390 0.056179 0.283325
created 0.045433 0.182383 -0.038844 -0.094036 -0.031186 0.060989 -0.152540 -0.229468 -0.065466 0.257570 0.105357 -0.075800 -0.033559 0.019233 0.185036 0.141475 0.353585 -0.006407 -0.289126 -0.210830 0.077023 0.016088 -0.201647 -0.089142 0.378786 -0.092884 -0.217316 -0.053950 0.124682 -0.030103 0.025500 0.022458 0.120250 0.127267 0.080074 0.107633 -0.130436 -0.113931 -0.044583 0.011306 0.266132 -0.096311 -0.165473 0.041663 -0.070307 -0.016376 0.420263 -0.090527 0.090792 0.347851
files 0.056129 0.113497 0.114954 -0.014035 0.059855 -0.004266 -0.004088 -0.283002 -0.054449 0.122540 0.042294 -0.038641 0.023294 0.086913 0.030915 0.171431 0.120813 -0.106144 -0.165832 -0.260705 0.341400 0.092144 -0.216069 -0.071781 0.438766 0.054951 -0.312719 0.037283 -0.022996 -0.056793 0.029276 -0.057683 -0.044195 0.307457 -0.055678 0.079714 -0.216111 -0.026578 0.060527 0.217756 0.477136 0.053461 0.078093 -0.009164 -0.120817 -0.137679 0.476609 -0.137115 0.154760 0.250828
in 0.055781 0.146464 0.085121 -0.026185 0.044589 0.012790 -0.028862 -0.309448 -0.062041 0.158572 0.063111 -0.051360 0.020702 0.079583 0.069059 0.197403 0.174961 -0.098541 -0.215867 -0.282698 0.336507 0.084417 -0.247081 -0.077957 0.476146 0.028886 -0.343257 0.017326 0.010083 -0.056126 0.029126 -0.054927 -0.031492 0.306342 -0.041605 0.099936 -0.227445 -0.051945 0.045393 0.194273 0.496581 0.035039 0.028592 0.010695 -0.125573 -0.125199 0.524105 -0.163016 0.149695 0.294709
so 0.029601 0.109541 -0.200631 -0.152590 -0.177378 0.044659 -0.133133 0.028608 0.004352 0.183744 0.083648 -0.054413 -0.113890 -0.015216 0.273870 0.044163 0.222529 0.151978 -0.248169 0.093449 -0.359431 -0.146953 0.002647 0.021007 0.034431 -0.287764 0.058173 -0.041727 0.096054 0.016999 -0.104208 0.124972 0.245957 -0.180964 0.046846 0.046707 -0.044371 -0.074320 -0.200864 -0.163521 -0.032814 -0.337715 -0.295871 -0.019518 0.099285 0.160515 0.091183 -0.029151 -0.042228 0.145867
g -0.066728 0.017083 -0.058567 -0.021212 -0.025848 -0.028006 -0.023043 0.016075 -0.040636 -0.032137 -0.023574 -0.013276 0.007380 -0.015700 0.019353 -0.014815 0.099838 0.037991 -0.041573 0.027348 -0.077363 -0.001784 0.022290 -0.007309 -0.003305 -0.082181 -0.000510 -0.025323 0.031997 0.012547 0.022650 0.060369 -0.011749 -0.016533 -0.006245 -0.013818 0.005504 0.007806 -0.029671 -0.025961 -0.068967 -0.019376 -0.128481 -0.063914 0.018169 0.019023 -0.068182 0.047749 -0.080460 0.046773
mar -0.072412 -0.060077 -0.028160 0.039421 -0.000313 -0.061666 0.030513 0.094462 0.011764 -0.108056 -0.068940 0.030008 0.018472 -0.025402 -0.052503 -0.033977 -0.050961 0.014759 0.089902 0.089698 -0.041867 0.005328 0.090408 0.032542 -0.108774 -0.021458 0.058315 -0.000568 -0.019104 0.000032 0.036643 0.008751 -0.060780 -0.049435 -0.034927 -0.056726 0.006278 0.068954 -0.004354 -0.026359 -0.137592 0.060582 -0.047682 -0.054808 0.042506 -0.001004 -0.188690 0.082312 -0.094929 -0.096741
min 0.009924 0.307966 -0.152336 -0.230311 -0.011540 -0.035731 -0.192769 -0.352638 -0.203947 0.248301 0.187760 0.003581 -0.074650 0.061589 0.274466 0.117771 0.564932 0.116872 -0.584255 -0.247465 0.107908 -0.095453 -0.349490 -0.155808 0.516348 -0.075265 -0.216816 -0.019965 -0.007683 0.061515 -0.048002 0.039946 0.077881 0.103123 0.277773 0.101495 -0.065382 -0.237786 -0.194784 0.062146 0.376468 -0.188473 -0.154917 -0.059736 -0.169881 -0.053692 0.587242 -0.006142 0.207324 0.627721
mmapv 0.018209 0.094609 -0.027260 -0.078330 -0.044420 0.048104 -0.071340 -0.076966 -0.018228 0.136422 0.033627 -0.016366 -0.071069 0.002277 0.161805 0.094420 0.117444 -0.015508 -0.111865 -0.020398 -0.071440 -0.046112 -0.050080 -0.011907 0.116959 -0.096017 -0.024954 -0.035753 0.079782 0.005079 -0.027383 0.100600 0.083889 -0.011767 -0.020989 0.055635 -0.119423 -0.050296 -0.123713 -0.024769 0.113969 -0.137346 -0.108101 -0.011649 0.000963 0.063655 0.141188 -0.090154 0.026132 0.124979
progress -0.061176 -0.141397 -0.060348 0.096835 -0.016345 -0.106498 -0.000692 -0.051199 0.012843 0.059894 -0.063003 0.084229 0.026033 -0.055744 0.027056 -0.023119 -0.102840 0.076938 0.080234 -0.002796 0.153688 0.011576 0.089103 -0.012488 -0.001564 -0.038537 -0.143496 0.054172 0.063921 -0.010819 0.169394 -0.083584 -0.086869 0.077770 0.001107 -0.004210 -0.072518 0.004517 0.025809 0.008121 -0.110159 0.099068 -0.113841 -0.001963 0.047296 -0.011806 0.017664 -0.005807 -0.007139 0.000353
ubuntu -0.024027 -0.071371 0.065294 0.063903 0.080100 -0.011639 0.086657 0.120844 -0.006197 -0.114556 -0.076923 0.020907 0.054141 -0.010387 -0.132110 -0.049717 -0.198143 -0.055971 0.177732 0.061789 0.006559 0.027072 0.069968 -0.013527 -0.179272 0.046454 0.094940 0.003592 -0.062407 0.012791 0.017459 0.001038 -0.041826 -0.021340 -0.036967 -0.064520 -0.003042 0.080342 0.054313 0.010604 -0.111714 0.091135 0.123733 -0.005686 0.010974 -0.043079 -0.213387 0.065345 -0.025419 -0.183076
verbose -0.046644 0.013588 -0.102194 0.017509 -0.068289 -0.044007 -0.135443 -0.274445 -0.074320 0.313497 0.074088 0.032221 0.038589 -0.040762 0.242441 0.092970 0.213689 0.152032 -0.237882 -0.173517 0.143561 -0.002393 -0.071925 -0.067249 0.285578 -0.172993 -0.358468 -0.009980 0.171758 0.017864 0.241825 -0.072711 -0.000864 0.181168 0.072996 0.110805 -0.083642 -0.139750 0.036549 -0.011443 0.065781 -0.025705 -0.282827 0.057468 -0.011593 -0.007231 0.377299 -0.088079 0.018731 0.353300
may -0.030707 -0.085294 0.027837 0.073726 0.021146 -0.096116 0.072049 0.117909 0.069011 -0.138246 -0.098341 0.022062 0.041168 -0.024680 -0.098649 -0.065089 -0.202985 -0.006123 0.187354 0.104912 0.042108 0.034869 0.093122 0.046978 -0.189754 0.055226 0.064903 0.007175 -0.046716 -0.023658 0.047924 -0.045877 -0.108317 -0.050024 -0.042470 -0.071118 -0.011162 0.097501 0.005201 0.001414 -0.153856 0.126878 0.057735 -0.006168 0.047203 -0.017216 -0.253434 0.068335 -0.054656 -0.215028
admin -0.008660 0.156874 -0.165031 -0.107039 -0.070020 0.061982 -0.111929 -0.141290 -0.114783 0.209836 0.115479 -0.006435 -0.038809 0.003685 0.212737 0.045346 0.398256 0.131140 -0.325087 -0.075415 -0.121746 -0.087929 -0.069113 0.003187 0.182483 -0.077658 -0.068665 -0.045039 0.117410 0.024887 -0.015160 0.072280 0.141855 -0.000276 0.096446 0.081762 0.075592 -0.118191 -0.054685 -0.081723 0.077053 -0.213140 -0.275325 0.013109 -0.024114 0.127491 0.279661 -0.031764 0.052080 0.315778
at -0.003106 0.033069 -0.045321 -0.020790 -0.014202 -0.018215 -0.031030 -0.018395 -0.034389 0.017990 -0.008522 0.013634 0.016131 -0.041805 0.026037 0.033416 0.058813 -0.004551 -0.039946 -0.042686 0.023188 0.026432 -0.035933 -0.050651 0.038983 -0.022132 -0.044185 -0.000886 0.027537 0.000219 0.031626 -0.024516 -0.043011 0.002897 0.038454 -0.020021 -0.017723 -0.045544 0.001097 -0.026101 0.002962 -0.006396 -0.062636 -0.016604 -0.024232 0.006072 -0.010708 -0.017762 -0.026432 0.067583
loop -0.010984 0.117360 -0.119132 -0.081232 -0.040354 0.033282 -0.108977 -0.170853 -0.112299 0.163178 0.046180 -0.014752 0.000309 -0.037931 0.150339 0.094582 0.285690 0.064391 -0.261334 -0.180141 0.039945 0.002787 -0.114021 -0.086588 0.227488 -0.089873 -0.189804 -0.027571 0.123205 0.010521 0.080869 -0.011833 0.026876 0.091369 0.082140 0.059410 -0.020872 -0.132073 -0.038730 -0.029214 0.128401 -0.103857 -0.213178 -0.001380 -0.050722 0.043958 0.247502 -0.082646 0.013713 0.282160
main -0.010140 0.138838 -0.122298 -0.075715 -0.076620 0.029493 -0.146460 -0.235367 -0.103955 0.201142 0.084793 -0.029162 -0.018822 -0.001442 0.189085 0.084923 0.359624 0.088539 -0.318847 -0.188453 0.039748 -0.038974 -0.126572 -0.044563 0.289130 -0.075556 -0.221665 -0.038240 0.142289 -0.006488 0.055651 0.003439 0.063938 0.115789 0.087019 0.092773 -0.041809 -0.138133 -0.061002 -0.015005 0.197253 -0.135771 -0.257611 0.001289 -0.046854 0.064446 0.380261 -0.101166 0.061884 0.334933
system -0.005585 0.133772 -0.134994 -0.096334 -0.057186 0.059248 -0.088698 -0.121071 -0.110308 0.174738 0.107796 -0.008476 -0.027434 0.003937 0.176972 0.021830 0.349037 0.111741 -0.271129 -0.058751 -0.129943 -0.078498 -0.052427 0.000487 0.130490 -0.064832 -0.049038 -0.048173 0.095513 0.032160 -0.019452 0.084675 0.132771 -0.008336 0.092437 0.063919 0.088773 -0.102952 -0.039585 -0.068359 0.054834 -0.192323 -0.234486 0.014345 -0.029181 0.110815 0.213443 -0.005092 0.045895 0.270523
ad 0.003243 0.121776 -0.091837 -0.057165 -0.065340 0.026798 -0.064573 -0.120973 -0.036888 0.127874 0.092608 -0.049182 -0.057351 0.030122 0.141012 0.063965 0.267356 0.034362 -0.227079 -0.087596 0.001134 -0.029353 -0.117508 0.012779 0.267622 -0.004599 -0.078879 -0.011102 0.049362 -0.027047 -0.063549 0.026207 0.064611 0.090534 0.063898 0.075738 -0.032716 -0.060693 -0.089553 0.029661 0.198160 -0.140420 -0.116108 0.000347 -0.050173 0.055869 0.303868 -0.033163 0.091394 0.242188
baacfbd -0.012811 -0.018818 -0.020481 0.017034 -0.034459 -0.037801 -0.016852 -0.024214 0.039573 -0.003940 0.016571 0.013176 -0.008966 0.008996 0.000640 0.002243 0.029796 0.034311 0.006240 0.007538 0.035180 0.009106 -0.005470 0.006582 0.064371 -0.036384 -0.034714 0.027055 0.014206 -0.043434 0.034135 -0.013097 -0.037067 0.004505 -0.003516 0.002023 -0.015060 0.006193 -0.021188 0.012829 0.025724 0.021763 -0.066289 -0.001606 0.025694 0.008378 0.025317 0.013017 -0.003471 0.015818
carts -0.004783 0.013752 0.056845 -0.021484 0.015768 0.054044 -0.032018 -0.064152 -0.009151 0.075465 0.034742 -0.008175 0.023179 0.017721 0.036015 0.018722 0.119024 -0.008801 -0.062404 -0.070558 0.064518 0.039211 -0.063611 -0.013275 0.107740 -0.014679 -0.067327 -0.015171 0.002757 0.017872 0.043086 0.024336 0.005279 0.053506 -0.004572 0.025611 -0.031032 -0.000101 0.028415 0.068468 0.098721 0.002369 -0.005167 0.040544 -0.055310 -0.025955 0.070869 0.010754 0.033417 0.055032
conf 0.019095 0.096697 -0.076033 -0.039606 -0.022730 0.040884 -0.074345 -0.056860 -0.048710 0.096902 0.047553 -0.045358 -0.010513 0.015491 0.111801 0.077542 0.109033 0.023221 -0.145123 -0.040486 -0.082507 -0.012303 -0.068036 -0.039252 0.076097 -0.079718 -0.052545 -0.018073 0.057451 -0.000177 -0.034782 0.027762 0.066660 -0.004043 0.021154 0.028851 -0.030519 -0.065211 -0.059352 -0.094063 0.024727 -0.110752 -0.128249 -0.013114 0.000514 0.030988 0.121108 -0.069228 -0.009617 0.139476
dc 0.005156 0.038480 -0.057614 -0.024037 -0.049445 -0.006678 -0.059153 -0.072341 0.010422 0.061459 0.055707 0.002043 -0.025921 0.008203 0.062726 0.028034 0.129461 0.046078 -0.101369 -0.029920 0.022513 -0.016540 -0.044424 0.001977 0.135914 -0.059548 -0.074861 0.009777 0.048016 -0.038840 0.016169 0.003404 0.004493 0.030330 0.021003 0.038119 0.001259 -0.040193 -0.043686 0.002184 0.075906 -0.054979 -0.113624 0.015364 0.011119 0.038340 0.121608 -0.017119 0.016035 0.123391
debian -0.003301 -0.044035 0.036958 0.039247 0.035875 -0.014151 0.045528 0.070854 -0.000418 -0.075035 -0.043452 0.029088 0.044552 -0.024085 -0.091373 -0.035638 -0.161477 -0.034483 0.113080 0.036349 0.000939 0.024133 0.060399 -0.017493 -0.112267 0.025323 0.056014 0.020738 -0.029155 0.012211 0.017223 -0.009288 -0.047842 -0.016123 -0.024509 -0.048390 0.007120 0.041068 0.040418 0.000081 -0.077362 0.056576 0.093374 0.006006 0.008577 -0.032449 -0.156360 0.038164 -0.020431 -0.124648
done -0.010527 0.307097 -0.021012 -0.131854 0.106321 0.024119 -0.196553 -0.147342 -0.158897 0.149250 0.090512 -0.077829 -0.069462 0.047263 0.171557 0.134865 0.124096 -0.059766 -0.250827 -0.187023 -0.113994 0.016950 -0.220853 -0.053493 0.035443 -0.154769 -0.044582 -0.187595 0.117464 0.105290 0.021836 0.127337 0.086635 -0.031850 0.043783 0.181587 -0.010260 -0.130482 -0.024814 0.044941 0.140556 -0.229710 -0.046798 -0.020684 -0.101444 -0.048382 0.197810 -0.207757 0.013688 0.169287
etc -0.013761 0.094166 -0.105977 -0.056970 -0.045468 0.029454 -0.078966 -0.122426 -0.058731 0.111913 0.084307 -0.014537 -0.000219 0.029467 0.094087 0.044757 0.216385 0.098148 -0.216785 -0.051772 -0.044340 -0.016636 -0.097456 -0.018446 0.151422 -0.023689 -0.088551 -0.014329 0.037991 0.004206 -0.039186 0.007588 0.065570 0.045278 0.074923 0.018187 0.028540 -0.086723 -0.055602 -0.074829 0.046063 -0.106820 -0.165059 -0.022249 -0.029748 0.031575 0.198409 -0.028414 -0.003499 0.225937
fc 0.016300 0.073718 -0.070782 -0.062041 -0.043184 0.019742 -0.012698 -0.049566 0.005608 0.052654 0.069142 -0.028612 -0.071255 0.030139 0.080148 0.030274 0.181757 0.026946 -0.140795 -0.028762 -0.043125 -0.020444 -0.089749 0.003863 0.149418 0.001858 0.019055 -0.005006 0.002065 -0.028854 -0.087321 0.015461 0.068980 0.010505 0.051921 0.063097 0.023839 -0.034648 -0.076129 0.024016 0.096768 -0.113379 -0.036593 -0.027578 -0.034206 0.056713 0.149289 0.011655 0.061843 0.119691
fd 0.033682 0.109682 -0.031167 -0.059471 -0.021741 0.009561 -0.065180 -0.113998 -0.032926 0.136183 0.082796 -0.004371 -0.029254 -0.000653 0.092695 0.044536 0.209543 0.029090 -0.187983 -0.096101 0.002993 -0.053478 -0.095991 0.002157 0.168593 0.030296 -0.038646 -0.022666 0.018481 0.002337 -0.071810 0.038530 0.074838 0.053614 0.057456 0.063265 -0.014859 -0.044282 -0.055431 0.001965 0.184354 -0.109248 -0.081652 0.004214 -0.039278 0.024130 0.239663 -0.069117 0.107738 0.200499
fda 0.043987 0.116762 -0.043660 -0.043915 -0.031300 0.022700 -0.075964 -0.132372 -0.012756 0.108910 0.097369 -0.011877 -0.062958 0.020566 0.091264 0.051770 0.179660 -0.000809 -0.172318 -0.074785 0.023720 -0.061405 -0.084867 0.022886 0.188431 0.036760 -0.050238 -0.015165 0.027504 -0.014951 -0.077326 0.024658 0.062070 0.065151 0.040714 0.045950 -0.028519 -0.051798 -0.081769 0.003123 0.198495 -0.087968 -0.072106 0.022465 -0.032594 0.050496 0.236223 -0.035839 0.101378 0.198014
fe 0.025581 0.062382 -0.080975 -0.053247 -0.060404 0.012188 0.006965 -0.036723 0.018656 0.027626 0.051007 -0.017256 -0.064381 0.028309 0.092924 0.031470 0.184829 0.024472 -0.136783 -0.013857 -0.066326 -0.042553 -0.071818 0.023491 0.141449 0.012494 0.033919 -0.004491 -0.022421 -0.040274 -0.093761 0.045483 0.061520 -0.001215 0.058521 0.067191 0.043910 -0.021959 -0.098281 0.018720 0.086653 -0.111687 -0.025744 -0.052313 -0.038256 0.071531 0.157938 0.024733 0.056981 0.131639
key -0.013454 0.139734 -0.115055 -0.112175 -0.034517 0.052969 -0.094963 -0.132764 -0.127591 0.140276 0.114149 -0.030342 -0.034939 0.016294 0.163122 0.042253 0.301121 0.077549 -0.249418 -0.098706 -0.091174 -0.030382 -0.106072 -0.001588 0.124468 -0.095049 -0.045008 -0.085436 0.082189 0.023677 -0.014145 0.065954 0.100393 -0.000757 0.072070 0.087661 0.050529 -0.130555 -0.041498 -0.017679 0.086890 -0.183102 -0.201629 0.007571 -0.036001 0.039905 0.237825 -0.046289 0.043155 0.224857
name 0.006290 0.111258 -0.096793 -0.078276 -0.039176 0.055830 -0.093543 -0.168667 -0.093047 0.174570 0.115000 -0.040549 -0.036020 0.023893 0.159763 0.042160 0.321815 0.092579 -0.250507 -0.105486 -0.034934 -0.035222 -0.113134 -0.011425 0.196286 -0.074078 -0.091751 -0.053386 0.072068 0.005179 -0.014511 0.050887 0.086439 0.045472 0.071287 0.073504 0.023740 -0.122046 -0.037731 -0.017931 0.148555 -0.112098 -0.196393 0.005444 -0.033146 0.032747 0.283359 -0.039705 0.066026 0.258109
non 0.002829 0.078224 -0.103028 -0.084429 -0.061807 0.033434 -0.046813 -0.020527 -0.021868 0.066649 0.025550 -0.011233 -0.089412 -0.011070 0.103352 0.054197 0.173077 0.033379 -0.133306 0.000295 -0.116395 -0.059658 -0.027528 0.003266 0.068058 -0.059691 -0.000377 -0.021215 0.052423 0.001410 -0.067816 0.040543 0.097852 -0.021091 0.029705 0.037686 -0.041943 -0.027503 -0.110473 -0.045640 0.045992 -0.142273 -0.106505 -0.036295 0.021958 0.078684 0.102217 -0.016497 0.018212 0.088371
ns 0.019537 0.109605 -0.059941 -0.073271 -0.035944 0.032719 -0.068501 -0.141690 -0.064962 0.153959 0.092356 -0.027577 -0.034192 0.022559 0.137689 0.054897 0.263095 0.068365 -0.221489 -0.102606 -0.015792 -0.040860 -0.095777 -0.029437 0.187228 -0.057556 -0.109431 -0.018322 0.054369 0.002014 -0.012734 0.059111 0.079985 0.043952 0.063706 0.078269 -0.013496 -0.090990 -0.036018 -0.005046 0.142578 -0.104733 -0.141150 0.000121 -0.038757 0.042951 0.245844 -0.062930 0.065788 0.241121
orders -0.009670 0.015664 0.060247 -0.038230 0.003902 0.062698 -0.032090 -0.074835 -0.009106 0.082196 0.029648 -0.017907 0.009439 -0.011321 0.028896 0.018536 0.127808 -0.020273 -0.076037 -0.070157 0.053654 0.026507 -0.069448 -0.026726 0.127660 -0.032047 -0.061625 -0.008245 0.016946 0.014600 0.028705 0.026741 0.023872 0.068921 0.011352 0.017101 -0.015926 -0.003985 0.028658 0.059780 0.103938 0.009010 -0.007051 0.046528 -0.054620 -0.033223 0.079787 -0.014713 0.026975 0.060663
properties -0.035500 0.207764 -0.075034 -0.117188 0.011389 0.035467 -0.124332 -0.114243 -0.167320 0.150528 0.107405 -0.047415 -0.040408 0.039362 0.162240 0.037712 0.256723 0.036304 -0.239548 -0.102533 -0.145131 -0.031505 -0.109199 -0.010938 0.047315 -0.132612 0.008230 -0.120094 0.098341 0.059461 -0.009832 0.125200 0.109479 -0.049698 0.084076 0.098699 0.056341 -0.109577 -0.030552 -0.006334 0.063809 -0.202191 -0.162681 0.011820 -0.059244 0.015987 0.161372 -0.053069 0.024278 0.190838
records 0.011130 0.271804 0.012226 -0.094881 0.077382 -0.004169 -0.197310 -0.174045 -0.153535 0.175016 0.120511 -0.071347 -0.055537 0.057287 0.174142 0.112364 0.110386 -0.034265 -0.242085 -0.203273 -0.036661 0.018521 -0.222847 -0.040077 0.087817 -0.180929 -0.106917 -0.179657 0.079872 0.059550 0.030612 0.160641 0.072919 0.015799 -0.003298 0.153963 -0.072921 -0.144557 -0.022281 0.066133 0.229605 -0.176610 -0.048496 -0.022095 -0.080720 -0.045804 0.240004 -0.223470 0.067473 0.196134
scanned -0.000723 0.314231 -0.021616 -0.121591 0.087829 0.022579 -0.223232 -0.192042 -0.160141 0.203907 0.125213 -0.074611 -0.071248 0.062698 0.211029 0.140632 0.174638 -0.043155 -0.309624 -0.224725 -0.091770 0.021763 -0.244500 -0.061695 0.116649 -0.179806 -0.104389 -0.187148 0.115047 0.091459 0.028812 0.142312 0.088208 0.015943 0.036491 0.197907 -0.045625 -0.160944 -0.035279 0.062258 0.228365 -0.227512 -0.090423 -0.008302 -0.102065 -0.049929 0.287825 -0.227713 0.044050 0.244305
secs 0.012363 0.188757 0.038491 -0.043842 0.087792 -0.017475 -0.129387 -0.085658 -0.103817 0.081329 0.063994 -0.036914 -0.028841 0.046087 0.090312 0.067449 -0.021218 -0.050345 -0.095003 -0.121422 -0.016057 0.034835 -0.147897 -0.021251 -0.030873 -0.128606 -0.041757 -0.146995 0.043062 0.047229 0.035768 0.128447 0.028002 -0.005971 -0.028711 0.103965 -0.063950 -0.093077 -0.012168 0.061913 0.137358 -0.101082 0.025637 -0.014961 -0.043909 -0.053620 0.096414 -0.174033 0.036733 0.048197
smallfiles -0.019308 0.098779 -0.045899 -0.065576 -0.058719 0.046895 -0.073803 -0.179424 -0.077330 0.183663 0.072253 0.007580 -0.041148 -0.010864 0.140190 0.095800 0.230199 0.032618 -0.186228 -0.109650 -0.008233 -0.043228 -0.083379 0.016881 0.197931 -0.063437 -0.126069 -0.060183 0.094949 0.013171 0.037879 0.046196 0.053584 0.089086 0.006056 0.102923 -0.031270 -0.085550 -0.048910 -0.009189 0.173152 -0.087066 -0.160468 0.030891 -0.040702 0.081853 0.268520 -0.093466 0.052069 0.234317
total 0.002979 0.310344 0.003045 -0.110309 0.076968 0.011880 -0.226291 -0.197406 -0.167219 0.216703 0.138264 -0.075468 -0.066927 0.073899 0.208495 0.132781 0.177051 -0.035273 -0.301948 -0.228916 -0.062552 0.015717 -0.238010 -0.055818 0.136810 -0.186849 -0.109878 -0.185459 0.100340 0.078614 0.037508 0.155904 0.095374 0.030992 0.017708 0.177864 -0.069631 -0.167078 -0.033543 0.070947 0.257316 -0.208337 -0.089789 -0.019057 -0.094127 -0.038593 0.299148 -0.245628 0.058597 0.253708
user 0.017451 0.014755 0.049849 -0.019428 0.015781 0.028583 -0.039465 -0.060269 -0.002020 0.071309 0.031774 -0.025310 0.007892 0.011845 0.045778 0.029801 0.138798 -0.007118 -0.072762 -0.055180 0.039868 0.011541 -0.049648 -0.018195 0.099963 -0.024071 -0.050490 -0.007892 0.013235 -0.001801 0.047750 0.022069 0.033689 0.056092 0.008009 0.028578 -0.045074 -0.005915 0.022491 0.070560 0.085461 -0.002247 -0.012940 0.053027 -0.049541 -0.013128 0.108819 -0.010318 0.053668 0.066977
w -0.006366 -0.070873 0.024202 0.039829 0.001612 -0.026329 0.026868 0.088274 0.037181 -0.054488 -0.055649 -0.006192 -0.003282 -0.020270 -0.005640 -0.015005 -0.152609 -0.015285 0.102961 0.081248 -0.045239 0.024879 0.083942 0.010089 -0.127904 -0.035330 0.026782 0.026605 -0.010437 0.008580 0.015944 -0.006611 -0.003770 -0.033174 -0.052921 -0.024830 -0.025690 0.038378 0.011517 -0.011314 -0.104231 0.030049 0.022433 0.016654 0.051665 -0.009041 -0.145277 0.011128 -0.044010 -0.123889
when 0.012315 0.144571 -0.087463 -0.079101 -0.061301 0.040160 -0.109359 -0.112318 -0.039336 0.163403 0.057947 -0.042591 -0.069990 0.031961 0.211833 0.116678 0.175709 -0.003012 -0.203327 -0.059664 -0.072646 -0.042485 -0.102131 -0.019990 0.171368 -0.105175 -0.080919 -0.050084 0.102089 -0.000925 -0.054815 0.096155 0.117205 0.008646 0.012988 0.081920 -0.121303 -0.092523 -0.128517 -0.013478 0.132632 -0.185859 -0.157540 -0.029832 -0.021351 0.061126 0.222611 -0.115592 0.032115 0.212476
building -0.007436 0.088247 -0.023694 -0.053794 0.017243 0.043152 -0.035746 -0.026517 -0.051354 0.044220 0.030895 -0.038703 -0.019499 0.000974 0.050889 0.061073 0.062854 0.010035 -0.101061 -0.036606 -0.041234 0.009697 -0.062878 -0.026403 0.023908 -0.059066 -0.000735 -0.063742 0.031906 0.021700 0.001692 0.018223 0.036445 -0.023023 0.047639 0.057288 0.020413 -0.035337 -0.019520 0.001131 0.011102 -0.118583 -0.001640 -0.003430 -0.037207 0.004418 0.047145 -0.048476 -0.010302 0.039730
bulk -0.013904 0.138151 -0.070701 -0.093359 -0.031516 0.051291 -0.077476 -0.101483 -0.058783 0.116203 0.061310 -0.061667 -0.030182 0.013110 0.117307 0.081806 0.219636 0.045408 -0.199762 -0.092238 -0.001930 -0.004158 -0.115774 -0.019140 0.157160 -0.087230 -0.079095 -0.058382 0.069173 -0.005533 0.023270 0.046652 0.063559 0.062344 0.035401 0.081229 -0.018936 -0.068259 -0.034899 -0.020370 0.124450 -0.140398 -0.125210 0.019440 -0.035288 0.013233 0.194607 -0.062151 0.015768 0.193897
command 0.020976 0.016975 0.050476 -0.007323 0.037111 0.000623 0.001033 0.014047 0.004352 -0.035020 -0.016620 -0.026145 0.003719 0.010858 -0.025342 0.000764 -0.086220 -0.036087 0.028207 -0.014295 -0.022681 0.017648 -0.007340 -0.022983 -0.082195 -0.035504 0.011472 -0.027922 -0.037678 0.035480 0.010384 0.033574 0.001088 -0.013352 -0.006868 0.004933 -0.021344 -0.007232 0.010771 0.034987 -0.003761 -0.012053 0.078124 0.007617 -0.008706 -0.042914 -0.036849 -0.048142 -0.004439 -0.043199
customers 0.007957 0.192257 0.016017 -0.104918 0.032748 0.050777 -0.101666 -0.171440 -0.111287 0.164939 0.072694 -0.073958 -0.043949 0.046336 0.154199 0.102654 0.180435 -0.022194 -0.211099 -0.155233 -0.042749 0.008218 -0.155695 -0.065509 0.131466 -0.134370 -0.084792 -0.110471 0.078023 0.052856 0.017057 0.120924 0.083387 0.038315 0.035199 0.122327 -0.060288 -0.102124 -0.022598 0.043056 0.174815 -0.139623 -0.058129 0.038571 -0.090111 -0.031988 0.226213 -0.144059 0.045459 0.191032
featurecompatibilityversion 0.027742 0.044132 0.024196 -0.039603 -0.013848 0.007908 -0.038526 -0.031662 -0.034780 0.042193 0.048968 -0.016015 -0.020195 0.027773 0.077953 0.029339 0.050800 -0.005706 -0.094863 -0.053950 -0.041112 -0.020543 -0.034285 0.002018 0.036089 -0.081371 -0.009757 -0.036575 0.017370 0.031739 -0.012865 0.057112 0.067972 0.000299 0.000758 0.031815 -0.047668 -0.044700 -0.019873 0.025191 0.084312 -0.057647 -0.006711 0.035849 -0.005679 -0.023496 0.077488 -0.041092 0.023539 0.041595
incompatible 0.013498 0.093868 -0.052980 -0.047659 -0.045640 0.036637 -0.082517 -0.146824 -0.052364 0.149028 0.097575 -0.033289 -0.020086 0.021416 0.142952 0.049239 0.246069 0.045254 -0.214264 -0.088722 0.001663 -0.031813 -0.103762 -0.011395 0.193595 -0.074223 -0.108938 -0.051018 0.050684 -0.005095 -0.007957 0.027525 0.069034 0.056029 0.042406 0.052730 -0.015811 -0.083245 -0.053242 0.006100 0.177120 -0.063696 -0.138259 0.011204 -0.032643 0.023735 0.267417 -0.078663 0.063210 0.222927
megabytes 0.014938 0.056676 -0.042431 -0.048151 -0.080973 0.038521 -0.071776 -0.125101 -0.056669 0.127170 0.089971 -0.013733 -0.033858 0.015855 0.143798 0.055065 0.237222 0.065013 -0.214122 -0.095159 -0.007950 -0.041253 -0.067430 -0.014206 0.218266 -0.023966 -0.090913 -0.012017 0.066114 -0.002666 0.006567 0.028259 0.061710 0.051011 0.052562 0.042795 -0.013746 -0.069002 -0.026377 -0.022458 0.126407 -0.080468 -0.148707 0.006998 -0.024006 0.025975 0.240974 -0.034961 0.062019 0.222531
method -0.016567 0.135395 -0.070023 -0.091256 -0.031385 0.046268 -0.061443 -0.096748 -0.067599 0.106018 0.061192 -0.053731 -0.031152 -0.000537 0.111126 0.067943 0.195290 0.037598 -0.194666 -0.083987 -0.000503 0.007298 -0.112355 -0.018808 0.133648 -0.073176 -0.067020 -0.070208 0.061969 0.006815 0.027957 0.039445 0.055281 0.056824 0.049763 0.070400 0.002506 -0.068281 -0.030022 -0.017687 0.112291 -0.134251 -0.103112 0.025056 -0.050686 0.013593 0.188909 -0.059472 0.011079 0.168730
of 0.006663 0.076809 -0.049296 -0.056760 -0.061172 0.032792 -0.064375 -0.131474 -0.049059 0.149317 0.074857 -0.024983 -0.039450 0.008319 0.129643 0.069992 0.233573 0.050623 -0.208668 -0.105286 -0.003794 -0.027453 -0.095874 -0.035675 0.224334 -0.038957 -0.117569 -0.021618 0.079648 -0.001368 0.007371 0.010466 0.056206 0.052882 0.060804 0.055116 -0.003271 -0.079043 -0.028001 -0.009356 0.125326 -0.082404 -0.150078 0.012359 -0.032301 0.035560 0.257222 -0.048884 0.048894 0.230008
ram -0.007125 0.057925 -0.025540 -0.027804 -0.031519 0.006925 -0.041081 -0.077619 -0.042013 0.088667 0.030749 -0.010036 -0.024557 0.008835 0.068644 0.049769 0.130876 0.022038 -0.102444 -0.070755 0.006526 -0.019123 -0.052122 -0.024873 0.118973 -0.021149 -0.073148 -0.014520 0.047880 -0.003831 0.003735 -0.002756 0.036259 0.022053 0.029213 0.043207 -0.001885 -0.051315 -0.007904 -0.000469 0.064696 -0.046152 -0.098361 -0.001334 -0.028153 0.025215 0.147729 -0.021388 0.022267 0.127147
temporarily -0.000059 0.099856 -0.073047 -0.083311 -0.036322 0.011253 -0.061717 -0.132948 -0.032029 0.117724 0.046952 -0.043098 -0.018345 -0.009922 0.125478 0.060618 0.214598 0.069771 -0.193750 -0.099844 0.004697 -0.011970 -0.089987 -0.009742 0.176862 -0.029426 -0.119124 -0.039509 0.038348 -0.004065 -0.000561 -0.008092 0.043875 0.069897 0.033479 0.053077 -0.023390 -0.050307 -0.059948 0.003347 0.121451 -0.081735 -0.131804 0.037489 -0.015656 0.037252 0.200638 -0.056136 0.060993 0.207883
up 0.014013 0.074540 -0.053603 -0.064456 -0.071342 0.017817 -0.052485 -0.122928 -0.050879 0.127436 0.069884 -0.016143 -0.022182 0.014268 0.154024 0.064628 0.245887 0.070822 -0.230520 -0.097474 0.009267 -0.016945 -0.064379 -0.005687 0.221786 -0.032273 -0.086373 -0.036114 0.045254 0.002539 -0.001254 0.012571 0.076292 0.070427 0.048386 0.051229 -0.027484 -0.059427 -0.041124 -0.019473 0.143045 -0.083519 -0.133918 0.031646 -0.012282 0.032072 0.240392 -0.044259 0.066863 0.200907
use 0.010645 0.115076 -0.078425 -0.093563 -0.065641 0.021463 -0.061535 -0.154067 -0.064713 0.144698 0.056497 -0.030986 -0.026752 0.010232 0.146487 0.081138 0.258254 0.080075 -0.245223 -0.126155 0.022798 -0.027853 -0.106399 -0.019937 0.227251 -0.031112 -0.129988 -0.040617 0.053231 -0.001187 -0.004199 0.006429 0.058551 0.088029 0.051440 0.052674 -0.026645 -0.063865 -0.065943 -0.002543 0.168525 -0.111505 -0.157703 0.041708 -0.017261 0.046192 0.263497 -0.057497 0.065763 0.234985
username 0.014228 0.132411 -0.057232 -0.092236 -0.026298 0.045550 -0.075575 -0.160940 -0.071669 0.146182 0.092039 -0.047813 -0.033278 0.017007 0.129552 0.076956 0.267402 0.061993 -0.239900 -0.125328 -0.011928 -0.014918 -0.127717 -0.041070 0.212483 -0.082412 -0.111470 -0.053139 0.068769 -0.002081 -0.019188 0.054706 0.073621 0.059912 0.044539 0.081603 -0.016634 -0.124379 -0.035872 0.016595 0.162089 -0.119235 -0.138975 0.012452 -0.040183 0.009345 0.269497 -0.079738 0.069097 0.230803
