t 0.889793 -0.727012 -0.774229 0.091314 -0.643056 -0.198838 0.523885 0.765648 -0.121739 0.145248 -0.172863 0.166691 0.437338 -0.558358 -0.214227 0.234672 -0.669440 0.584520 0.514132 -0.133488 -0.146858 -0.030812 -0.240922 -0.331263 0.186789 -0.065395 -0.144480 0.080461 -0.048115 0.858106 -0.759770 1.083456 -1.266631 0.825536 -0.662359 0.372018 0.666163 0.146493 -0.066449 -0.411936 -0.603795 0.767727 0.271222 -0.073795 1.045699 -0.053770 0.539540 0.131170 -0.390773 -0.340535
i 0.982947 -0.684080 -0.715929 0.159959 -0.589216 -0.137770 0.417379 0.739702 -0.124007 0.120181 -0.157987 0.223518 0.475216 -0.616548 -0.124841 0.149959 -0.538347 0.565532 0.613022 -0.121290 -0.103570 -0.018700 -0.155093 -0.253070 0.191054 -0.092125 -0.166325 0.085408 -0.022141 0.808405 -0.669804 1.065033 -1.299018 0.764030 -0.641735 0.357081 0.683981 0.010777 0.040489 -0.318614 -0.582067 0.696672 0.256397 -0.052595 0.976995 -0.010318 0.543634 0.101699 -0.457540 -0.321877
initandlisten 0.996691 -0.523539 -0.720203 0.810341 -0.565816 0.569014 0.646128 0.557609 -0.347797 0.220952 -0.289460 0.521325 0.691088 -1.077292 0.252347 0.009520 -0.349540 0.220334 0.665808 0.077033 0.097382 -0.049557 0.281323 -0.081407 0.346571 -0.079217 -0.117499 -0.195732 0.063042 0.241507 -0.350704 0.866077 -1.286910 0.626084 -0.706887 0.093358 0.632542 0.021324 0.239413 -0.016930 -0.221925 0.474394 0.150841 -0.097077 0.546673 0.042530 0.586744 -0.028321 -0.260322 -0.353811
control 0.883679 -0.618722 -0.572740 0.740849 -0.845640 0.220689 0.467080 0.225461 -0.516348 0.172475 -0.169759 0.710332 0.502287 -1.167447 0.502190 0.047786 -0.443917 0.396257 0.545857 0.205116 0.268322 0.159820 0.434079 0.056153 0.327324 -0.264924 -0.248692 -0.298168 -0.076876 0.261695 -0.524901 1.008038 -1.208575 0.412180 -0.831776 0.247779 0.856329 -0.214021 0.010106 0.030468 -0.474663 0.423165 0.169538 -0.079719 0.371937 0.225974 0.449928 0.367204 -0.274167 -0.286082
storage 0.814438 -0.198732 -1.015088 0.523188 -0.209074 0.500076 0.411845 0.410758 -0.051804 0.231016 0.104664 0.360067 0.603044 -0.659040 -0.402636 -0.063138 0.107687 0.201981 0.405555 -0.433109 0.022402 0.045988 0.049398 -0.052123 0.087370 0.102516 0.027789 0.251772 0.203399 0.449561 0.032747 0.301325 -0.711221 0.618565 0.145992 -0.359688 0.152526 0.032593 0.445503 -0.234837 -0.378128 0.144111 -0.478812 0.144587 0.422141 0.018021 0.560243 -0.583431 0.308624 -0.111989
signalprocessingthread 0.555788 -0.352464 -0.799973 0.315251 -0.623354 0.024124 0.079664 -0.081408 -0.161784 0.289780 0.267046 0.451522 0.196164 -0.745452 -0.002113 -0.132487 -0.131735 0.613387 0.142557 -0.028091 0.043111 0.497744 0.305335 0.119193 -0.221270 -0.283520 -0.090535 0.203822 -0.170665 0.484212 -0.310266 0.500495 -0.612906 0.187904 0.066287 -0.130535 0.455002 -0.378223 0.252460 -0.038103 -0.655544 -0.141680 -0.446124 0.214722 0.159478 0.371246 0.391483 -0.050873 0.156397 0.096163
network 0.510192 -0.263851 -0.340933 -0.437763 -0.350057 -0.349732 -0.270018 0.483009 0.034995 -0.147158 0.486772 0.075167 0.297959 -0.016586 -0.273573 -0.123318 0.013150 0.631385 0.466480 -0.263958 -0.118863 0.195817 0.010170 -0.239334 0.292851 -0.308424 -0.069234 0.372978 -0.108767 0.981185 -0.445209 0.679678 -0.591318 0.519408 0.095662 -0.053257 0.613301 -0.549710 0.269523 -0.264992 -0.788202 0.567680 -0.486495 0.198171 0.511923 0.207263 0.286596 0.050502 -0.288546 -0.074896
data 0.053712 -0.467007 -0.137664 0.462883 0.050653 -0.068112 0.633205 0.140592 0.157396 0.349109 -0.904654 0.009308 -0.322220 -0.271224 0.202236 0.398614 -0.651709 -0.356874 -0.160910 0.181102 -0.087711 -0.302774 -0.500338 -0.121404 -0.414420 0.463699 -0.218355 -0.363583 0.010400 -0.382661 -0.077618 0.283224 -0.663885 0.061409 -0.851758 0.554104 -0.190206 0.816950 -0.404001 -0.111910 0.539790 -0.198692 1.115174 -0.429342 0.371777 -0.305246 0.001042 0.253835 -0.281885 -0.355664
connection 0.289275 0.206565 0.331271 -1.050314 0.140260 -0.605648 -0.510973 0.827791 0.194381 -0.600902 0.553108 -0.505360 0.350886 0.825185 -0.348008 0.025410 0.228899 0.288102 0.524541 -0.321018 -0.199224 -0.302953 -0.259045 -0.507732 0.738997 -0.246795 -0.008257 0.309560 0.041582 1.044560 -0.386711 0.370419 -0.126101 0.501798 0.188288 -0.024392 0.523781 -0.403746 0.067160 -0.337246 -0.477681 1.117676 -0.271851 0.104243 0.639300 -0.088711 0.030408 0.125312 -0.679581 -0.054064
now 0.457917 0.052783 0.132220 -0.755597 -0.024672 -0.581955 -0.293834 0.743927 0.112585 -0.422638 0.379724 -0.348847 0.373327 0.504449 -0.221022 0.096110 0.084931 0.345931 0.518093 -0.193821 -0.164384 -0.270150 -0.250784 -0.422379 0.638353 -0.217528 -0.063140 0.213615 0.039110 0.994997 -0.438098 0.477234 -0.368110 0.502688 0.037337 0.053093 0.602475 -0.286119 0.003575 -0.321402 -0.467819 1.020401 -0.118272 0.113581 0.698800 -0.049301 0.100481 0.166948 -0.684793 -0.076902
open 0.460737 0.096985 0.183795 -0.821871 0.097585 -0.659498 -0.320811 0.846215 0.227091 -0.406158 0.330258 -0.516975 0.339668 0.644565 -0.300350 0.121328 0.110358 0.291592 0.573221 -0.266848 -0.303998 -0.367654 -0.410545 -0.466922 0.591630 -0.166131 -0.016711 0.287348 0.107367 1.029497 -0.374619 0.346123 -0.338552 0.535258 0.093379 0.040271 0.545025 -0.142465 -0.014810 -0.364343 -0.323530 1.042020 -0.053395 0.120001 0.795906 -0.112495 0.064697 0.050645 -0.760715 -0.025275
db 0.034711 -0.348527 -0.031061 0.377896 -0.143228 0.025889 0.366585 -0.037447 -0.077326 0.184805 -0.557517 0.171626 -0.162224 -0.358224 0.247132 0.202056 -0.486793 -0.208532 -0.152763 0.369903 0.051789 -0.162338 -0.101105 -0.134262 0.019038 0.177100 -0.181552 -0.311819 -0.005730 -0.286854 -0.107036 0.248172 -0.508118 -0.036191 -0.748119 0.303955 0.133799 0.348655 -0.272136 -0.035062 0.255530 0.022196 0.694177 -0.306016 0.171497 -0.169708 -0.078240 0.368027 -0.256327 -0.223663
wiredtiger 0.717789 -0.050492 -0.623970 0.121575 -0.094547 0.171075 0.099824 0.501349 0.043756 0.082368 0.288968 0.077744 0.545808 -0.252049 -0.335997 -0.102218 0.248091 0.236181 0.513308 -0.411401 -0.101157 -0.019199 -0.030706 -0.163267 0.182539 -0.073241 0.040526 0.302555 0.154490 0.647817 0.032086 0.140200 -0.508189 0.478816 0.307807 -0.389355 0.265808 -0.115756 0.392973 -0.204655 -0.308077 0.358959 -0.487468 0.239863 0.452387 0.060963 0.441696 -0.480681 -0.051172 0.004733
connections 0.184111 0.150336 0.363811 -0.911321 0.096704 -0.553604 -0.503602 0.657902 0.149715 -0.537637 0.467895 -0.387709 0.300144 0.726651 -0.276718 0.013490 0.221536 0.301830 0.465734 -0.236015 -0.162970 -0.255704 -0.214155 -0.392467 0.665708 -0.244635 0.028787 0.278882 0.047315 0.883436 -0.331996 0.305820 -0.057930 0.422877 0.228017 0.046060 0.456043 -0.381999 0.031780 -0.279813 -0.435910 0.941798 -0.249274 0.152286 0.447772 -0.065800 -0.042343 0.153834 -0.595228 -0.078575
the 0.342079 0.103065 -0.370601 0.109226 -0.032056 0.115754 0.018163 0.216211 0.055916 0.016595 0.181038 0.046300 0.282835 -0.093667 -0.285171 -0.096746 0.238764 0.155229 0.291941 -0.349885 -0.083092 0.021619 -0.025086 -0.016961 -0.019829 -0.008545 0.087674 0.298919 0.134218 0.328663 0.091229 -0.110635 -0.100269 0.272171 0.293256 -0.303267 0.045345 -0.054948 0.225143 -0.102730 -0.126655 0.152536 -0.415955 0.190454 0.142361 0.009992 0.233093 -0.363097 0.105854 0.076602
thread 0.249449 0.026349 0.074750 -0.756055 -0.061854 -0.422782 -0.480381 0.520014 0.111982 -0.385184 0.530574 -0.190376 0.256252 0.454221 -0.315733 -0.079343 0.181689 0.421198 0.415314 -0.290702 -0.129268 -0.031534 -0.094136 -0.310549 0.436257 -0.253149 0.027643 0.365546 -0.042100 0.890156 -0.322950 0.419783 -0.172361 0.425709 0.192808 -0.030138 0.445426 -0.516151 0.156520 -0.246877 -0.589618 0.717922 -0.444475 0.145338 0.381969 0.077081 0.085393 0.051808 -0.396612 -0.047042
to 0.321767 -0.168203 -0.468163 0.017094 -0.099860 0.027230 0.059969 0.274996 0.154781 0.100445 0.354881 0.089872 0.269668 -0.182648 -0.000466 -0.058267 0.155890 0.041710 0.055049 0.021450 -0.145676 0.177490 0.114331 -0.158547 0.198417 -0.346606 -0.242197 0.055655 -0.089225 0.542168 -0.034868 0.382106 -0.510908 0.132962 0.355382 -0.359620 0.290570 -0.281107 0.062279 -0.090254 -0.335052 0.182888 -0.309677 0.175365 0.258947 0.250492 0.268093 -0.122974 -0.244010 0.026858
log -0.661507 0.214085 0.120647 -0.360061 -0.066540 0.063326 0.187972 -0.085160 -0.018044 -0.216884 -0.023971 -0.267238 -0.096838 0.347954 -0.426508 0.201503 -0.295061 0.025547 -0.567828 0.268915 -0.106566 -0.038296 -0.138868 0.028939 -0.001541 0.123311 0.195870 0.036014 -0.143622 -0.141336 -0.233225 -0.139236 0.475260 -0.083691 0.093163 0.151647 -0.291217 0.267498 -0.309175 -0.126065 0.150533 0.144357 -0.023918 -0.162395 -0.022143 -0.196279 -0.224136 0.211292 0.439376 -0.066644
version 0.222868 0.044211 -0.175926 0.177684 -0.218606 0.134794 0.016731 0.072452 -0.177076 0.038178 0.017458 0.103251 0.163739 -0.154188 0.091211 0.050536 -0.003818 0.208721 0.154736 -0.066933 0.144389 0.060724 0.188775 0.003743 0.211078 -0.188521 0.001268 -0.052663 0.059022 0.050193 -0.182911 0.208008 -0.172513 0.090688 -0.130027 -0.160829 0.302307 -0.113881 0.163410 0.004246 -0.188134 0.141194 -0.250354 0.063178 0.212349 0.088025 0.136343 0.054729 -0.037970 0.080218
accepted 0.209769 0.212290 0.243585 -0.870805 0.142358 -0.479200 -0.415807 0.604448 0.153744 -0.444204 0.454615 -0.420856 0.251758 0.692295 -0.314488 -0.009846 0.219364 0.216611 0.369819 -0.283777 -0.138016 -0.215730 -0.225300 -0.406508 0.476488 -0.144757 0.017689 0.262575 0.000812 0.853706 -0.268828 0.269801 -0.038110 0.385544 0.188028 -0.030605 0.361343 -0.320888 0.094600 -0.251133 -0.388530 0.796601 -0.260783 0.111912 0.474560 -0.050403 0.020659 0.064971 -0.498763 -0.018136
from 0.215696 0.221741 0.274887 -0.885827 0.169864 -0.511767 -0.395683 0.634863 0.162727 -0.452783 0.418851 -0.451629 0.255295 0.720304 -0.301827 0.022015 0.206564 0.188071 0.368482 -0.265725 -0.150796 -0.265333 -0.271705 -0.431000 0.503570 -0.128798 0.007904 0.235995 0.009992 0.861447 -0.270451 0.269051 -0.057006 0.391043 0.178816 -0.000702 0.362595 -0.275992 0.064785 -0.263576 -0.351025 0.831342 -0.197090 0.108693 0.509423 -0.083884 0.004130 0.091074 -0.549784 -0.034381
is 0.234332 -0.058058 -0.116245 0.053636 -0.301556 -0.106767 -0.090975 -0.014188 -0.186010 -0.025412 0.257081 0.287439 0.187282 -0.311446 0.213894 -0.055207 0.113929 0.193850 0.221781 -0.048209 0.150905 0.104771 0.251557 0.025950 0.219799 -0.186715 -0.100826 -0.004694 -0.055333 0.206688 -0.160027 0.242186 -0.255504 0.147867 -0.083759 -0.090132 0.362239 -0.221084 0.098520 -0.034872 -0.321547 0.157802 -0.208703 0.051657 0.000728 0.231697 0.069604 0.179253 -0.099916 -0.063626
mongodb -0.014260 -0.190556 0.035795 0.085795 0.044760 0.293940 0.174386 -0.031424 -0.179711 -0.056377 -0.207869 0.163781 0.039629 -0.165247 0.085059 -0.021905 -0.150159 -0.055584 0.075218 0.087256 0.228260 0.016729 0.178303 0.011984 0.229907 -0.044308 -0.023864 -0.198987 0.007286 -0.259110 -0.104464 0.345008 -0.154242 0.015272 -0.269160 0.218989 -0.094082 -0.061852 0.031430 0.030571 -0.110374 0.055106 0.200984 -0.093483 -0.096685 -0.088545 0.095463 0.004510 0.116152 -0.198372
x 0.563725 -0.218736 -0.243875 0.056621 -0.318980 0.045670 0.011415 0.219283 -0.145649 0.036587 0.244897 0.213294 0.357122 -0.359775 0.091817 -0.139331 0.033599 0.285279 0.460957 -0.137626 0.123247 0.084084 0.148121 -0.057833 0.127062 -0.180844 -0.076125 0.060501 -0.078632 0.407083 -0.127255 0.317708 -0.433841 0.267492 -0.085858 -0.061015 0.367655 -0.270464 0.174961 -0.007677 -0.325301 0.319704 -0.226283 0.132027 0.236013 0.157887 0.332306 -0.021279 -0.231730 -0.046404
engine 0.574087 0.017304 -0.593027 0.113248 -0.026684 0.171794 0.048490 0.342910 0.057855 0.096171 0.328697 0.068276 0.451854 -0.182427 -0.369542 -0.121301 0.315696 0.152144 0.325693 -0.426825 -0.078318 0.040415 0.001525 -0.091613 0.143726 -0.030820 0.035733 0.295359 0.167811 0.538673 0.116414 0.052936 -0.276375 0.394229 0.446634 -0.456623 0.134669 -0.157644 0.372740 -0.166669 -0.342480 0.173899 -0.568286 0.268685 0.300687 0.092806 0.374024 -0.507183 0.107253 0.063900
with 0.279966 -0.120760 -0.332367 0.268369 -0.136665 -0.060203 0.339298 0.086039 0.075071 0.217027 -0.276348 0.010954 -0.077334 -0.233165 0.036482 0.216990 -0.266035 -0.101501 0.029788 -0.222670 -0.039750 -0.087050 -0.282021 -0.014370 -0.431126 0.195146 -0.104012 -0.080988 0.026374 -0.034421 0.008480 -0.011123 -0.299829 0.097754 -0.295388 0.164982 -0.087594 0.492765 -0.184699 -0.108307 0.222757 -0.147785 0.360220 -0.116882 0.312416 -0.073789 0.170566 -0.025337 0.051074 0.058112
d 0.008261 -0.034389 0.113446 -0.038516 -0.054210 -0.111484 -0.123925 -0.079935 0.026173 -0.012273 -0.020065 0.018121 -0.149426 0.011157 0.206839 -0.027935 0.078412 -0.065137 -0.015999 0.012503 -0.008483 0.022044 0.077906 0.078383 -0.029523 0.060248 -0.121377 -0.001947 -0.046883 -0.086929 0.103718 -0.078302 0.041937 -0.053534 -0.177353 0.099082 -0.068609 -0.094342 -0.029515 0.118361 0.050331 -0.070301 0.131655 0.038528 -0.097804 0.068276 0.032431 0.141802 -0.123658 -0.018535
diagnostic 0.008733 -0.232094 -0.015758 0.257979 0.134573 -0.040955 0.468853 0.061978 0.069594 0.238240 -0.711455 -0.160102 -0.238990 -0.050650 0.024414 0.276845 -0.444582 -0.198739 -0.089405 0.052879 -0.057444 -0.234468 -0.475291 0.011799 -0.444599 0.417809 -0.023032 -0.232436 0.011908 -0.333236 -0.032269 0.028948 -0.202802 0.003653 -0.534413 0.434450 -0.278156 0.644898 -0.310049 0.007594 0.465267 -0.168751 0.792359 -0.242395 0.219828 -0.330060 0.009220 0.081857 -0.126828 -0.164303
down 0.369132 -0.135077 -0.483782 0.277177 -0.322015 -0.001353 0.195751 -0.121151 -0.121024 0.267148 -0.119121 0.133528 0.004662 -0.420605 -0.017363 0.059895 -0.220524 0.272010 0.080628 -0.161599 0.054191 0.163517 -0.051418 0.137633 -0.483322 0.040122 0.043825 0.058477 -0.039227 0.086977 -0.149857 0.157645 -0.232663 0.062744 -0.154821 0.158975 0.067476 0.145223 -0.006007 -0.005207 -0.152215 -0.292474 0.034899 0.037581 0.124009 0.074808 0.238567 -0.098071 0.170992 0.131834
f 0.047503 0.036298 0.161592 0.027501 -0.139045 -0.070138 -0.151851 -0.132416 -0.009499 -0.057951 0.013143 0.089855 -0.197299 -0.047920 0.276434 -0.017911 0.097529 -0.082372 0.026949 0.007334 0.041127 0.040618 0.187942 0.150522 0.025807 -0.012088 -0.176020 -0.020567 -0.072745 -0.132655 0.120374 -0.013157 0.042438 -0.092727 -0.213619 0.072203 -0.029819 -0.177714 0.000016 0.150438 0.034095 -0.093255 0.062601 0.081052 -0.137492 0.142249 0.089003 0.268112 -0.139232 -0.017145
listening 0.268420 -0.079783 -0.170329 -0.112165 -0.159144 -0.219898 -0.064881 0.235098 0.047042 -0.052872 0.130421 -0.013442 0.156724 -0.014807 -0.044693 0.012240 0.017848 0.253816 0.319924 -0.099573 -0.076515 0.056840 -0.095788 -0.069448 0.121821 -0.092972 -0.047780 0.077600 -0.022876 0.482178 -0.231308 0.279475 -0.339178 0.235501 0.037598 0.004123 0.402147 -0.187245 0.045590 -0.068031 -0.239424 0.259041 -0.155408 0.090466 0.253942 0.032507 0.112284 0.099820 -0.233407 -0.024539
shutdown 0.283494 -0.225533 -0.552955 0.042953 -0.342220 0.082125 -0.042127 0.083067 -0.005707 0.132929 0.466647 0.300279 0.248944 -0.364836 -0.030638 -0.204328 0.082777 0.360287 0.030308 0.042669 -0.063783 0.407462 0.363699 -0.053954 0.055805 -0.413089 -0.158112 0.165865 -0.183567 0.483468 -0.157232 0.383359 -0.448904 0.136571 0.328162 -0.352433 0.337029 -0.456146 0.231468 -0.057302 -0.577320 0.038170 -0.526935 0.244694 0.098284 0.376978 0.291712 -0.087342 -0.009067 0.054689
shutting 0.389038 -0.140978 -0.531217 0.283347 -0.382289 0.015990 0.138721 -0.158329 -0.162063 0.263691 -0.021399 0.201976 0.047185 -0.500290 -0.005227 -0.000852 -0.184019 0.349005 0.088754 -0.133041 0.080428 0.238675 0.069979 0.146347 -0.426324 -0.038382 0.043746 0.114771 -0.057107 0.162135 -0.171302 0.211333 -0.263410 0.063119 -0.091203 0.101973 0.143912 0.002069 0.077410 0.014228 -0.276899 -0.277816 -0.098002 0.081810 0.077535 0.142852 0.251836 -0.093503 0.202009 0.139067
socket 0.236211 -0.109004 -0.132521 -0.007004 -0.160570 -0.125065 -0.014595 0.121502 -0.042911 0.018659 0.012192 0.067314 0.065925 -0.110810 -0.052877 0.006924 -0.104992 0.222589 0.201184 -0.098872 -0.008873 0.026225 -0.035859 -0.029178 -0.006203 0.017013 -0.017358 0.066306 -0.009926 0.233742 -0.178707 0.205790 -0.235686 0.179410 -0.142750 0.080633 0.220597 -0.056127 0.088816 -0.074211 -0.184648 0.101423 -0.051488 0.023540 0.203150 0.027092 0.081956 0.066430 -0.053628 -0.046663
time -0.083527 -0.080764 0.092794 0.160988 0.252341 0.016333 0.329700 -0.008868 0.082631 0.219138 -0.683344 -0.296019 -0.247944 0.078423 -0.012712 0.162732 -0.248355 -0.154319 -0.017994 0.058205 -0.138393 -0.143710 -0.427251 0.165777 -0.473682 0.313203 0.095111 -0.185081 0.023167 -0.405113 0.066216 -0.135926 0.050867 -0.155962 -0.257516 0.292126 -0.343701 0.528702 -0.207948 0.122187 0.566942 -0.266229 0.650880 -0.118546 0.049092 -0.301125 -0.018991 -0.098241 -0.104723 -0.017314
true -0.226841 0.175989 0.173360 -0.071665 -0.109790 -0.035862 -0.160245 -0.250433 -0.175228 -0.169479 0.585819 0.231541 0.171523 0.154396 -0.133371 0.111671 0.091158 -0.043232 -0.442651 -0.059602 0.503611 -0.110309 0.241186 -0.015884 0.097221 0.207172 -0.051367 -0.076186 -0.087104 0.020206 -0.097772 -0.136817 0.543400 0.069159 -0.028111 0.133736 -0.164462 -0.110762 -0.186931 -0.011428 -0.405765 -0.031293 -0.300493 0.016285 -0.293829 0.077970 -0.107758 0.422943 0.374255 -0.137521
config -0.172446 0.291448 0.284956 -0.268286 0.260099 -0.199415 -0.261369 0.114908 0.216103 -0.112286 -0.018681 -0.457930 -0.207270 0.417030 -0.020156 -0.052413 0.241942 -0.049562 0.131557 -0.013216 -0.355767 -0.090923 -0.171781 -0.027936 0.036389 -0.043736 0.181401 0.195750 0.091028 0.043449 0.195828 -0.376569 0.293399 -0.107928 0.340430 -0.157547 -0.034911 0.016101 0.058753 0.042405 0.290657 0.036281 -0.066406 0.102925 0.023618 -0.023370 -0.188894 -0.256594 -0.204157 0.283366
for 0.024240 -0.099341 0.005102 -0.050053 -0.262472 -0.064070 -0.232796 -0.036491 -0.100538 -0.143022 0.208781 0.262652 0.126840 -0.073784 0.028858 -0.038033 0.107148 0.290498 0.165042 -0.048898 0.145536 0.105822 0.182185 0.055658 0.123517 -0.160728 0.024347 0.120637 -0.056557 0.178078 -0.145520 0.156346 -0.021978 0.174607 -0.000316 0.059858 0.220737 -0.352732 0.027979 -0.003296 -0.380564 0.124842 -0.275913 0.097886 -0.144956 0.148574 0.021390 0.148735 -0.032133 -0.083770
access 0.261940 -0.107131 -0.121311 0.240219 -0.160756 0.107919 0.050603 0.026560 -0.150098 0.032584 0.082794 0.255115 0.160234 -0.347621 0.272843 -0.064218 0.018073 0.039393 0.149624 0.063853 0.122084 0.099237 0.240095 0.052739 0.161859 -0.181355 -0.120900 -0.141634 -0.034350 0.089967 -0.044061 0.318500 -0.325048 0.019150 -0.121080 -0.055600 0.308039 -0.188265 0.021459 0.084039 -0.144894 0.035660 -0.062149 0.029485 -0.008910 0.143468 0.100894 0.107856 -0.118372 -0.022052
and -0.043342 0.047877 0.040158 -0.039568 0.039022 0.020343 -0.067025 -0.054650 -0.004350 0.021611 0.100118 0.021730 -0.087030 -0.057213 0.152588 -0.059914 0.062600 -0.144371 -0.079448 0.062385 0.008008 0.042093 0.096481 -0.014484 0.105958 -0.092657 -0.080604 -0.060653 -0.006752 -0.073790 0.088879 0.000703 0.022798 -0.138618 0.059557 -0.087711 -0.004039 -0.042523 0.054715 0.027219 0.035051 -0.120615 -0.032051 -0.019559 -0.095198 0.096705 -0.068554 0.054856 0.010321 0.019022
capture 0.078075 -0.233620 -0.143305 0.314746 0.056339 -0.024415 0.462466 0.053118 0.076532 0.249612 -0.605617 -0.065618 -0.218227 -0.152710 0.059580 0.274271 -0.420478 -0.199177 -0.100489 -0.046223 -0.017124 -0.182832 -0.394578 0.000131 -0.440304 0.374294 -0.089560 -0.208078 0.017872 -0.265417 -0.021570 0.048036 -0.283392 0.027086 -0.504273 0.358255 -0.254154 0.635660 -0.274059 -0.044992 0.379165 -0.211303 0.681091 -0.230528 0.254741 -0.239026 0.060400 0.075983 -0.020161 -0.128071
close -0.010103 0.039210 0.059240 -0.153599 0.204631 -0.122824 -0.118466 0.030893 0.152838 0.009761 0.035844 -0.140324 0.047085 0.187846 0.051927 -0.058632 0.188437 -0.052957 0.072229 0.014530 -0.083627 0.074931 -0.047256 -0.002810 -0.008354 -0.192151 -0.117349 -0.022032 -0.015944 0.183766 0.071178 0.052392 -0.066546 -0.150976 0.246375 -0.145438 0.048992 -0.134847 -0.015504 0.075158 0.098730 -0.029482 -0.008715 0.132539 -0.042668 0.051871 0.024819 -0.028196 -0.231000 0.084176
closing 0.238011 -0.099148 -0.179437 -0.050459 -0.198925 -0.151260 -0.058840 0.122112 0.007845 -0.009280 0.110489 0.056069 0.072916 -0.113771 -0.061469 -0.012107 -0.014788 0.265885 0.240745 -0.072597 -0.052915 0.070128 -0.043651 -0.006604 0.033921 -0.038341 -0.000094 0.127043 -0.029091 0.332794 -0.189408 0.206069 -0.240961 0.193030 -0.015742 0.019921 0.313955 -0.149940 0.066874 -0.061954 -0.245021 0.149961 -0.155851 0.056939 0.182099 0.063109 0.085069 0.043935 -0.082128 -0.002570
e -0.163707 0.096499 0.179719 -0.042215 0.010278 -0.025258 -0.099479 -0.160752 0.031052 -0.047389 -0.005922 -0.016820 -0.192209 0.084368 0.101688 -0.002294 0.062428 -0.126066 -0.130452 0.045823 0.002058 0.007917 0.052760 0.096316 -0.046007 0.064719 -0.049293 -0.008368 -0.052274 -0.191193 0.124661 -0.176666 0.219871 -0.154295 -0.041478 0.038488 -0.160536 -0.033969 -0.050298 0.090821 0.129511 -0.122457 0.066236 0.016445 -0.177896 0.027347 -0.046730 0.115467 0.021946 0.012204
enabled -0.203401 0.049624 0.057247 -0.048308 -0.285324 0.033539 -0.091404 -0.177098 -0.188221 -0.211026 0.273083 0.234050 0.145640 -0.016283 -0.056550 0.088487 0.022769 0.163300 -0.185786 0.054950 0.307978 -0.017418 0.230822 0.094902 0.123809 0.053590 0.048675 0.001827 -0.108980 -0.004730 -0.198746 0.022624 0.286921 0.132170 -0.078834 0.121027 0.046963 -0.173362 -0.142246 -0.023448 -0.337229 0.118969 -0.248023 0.004255 -0.222918 0.079782 -0.067255 0.300948 0.246025 -0.131270
file 0.084878 -0.000678 0.148892 0.002586 0.170694 -0.016634 -0.072698 -0.107827 -0.055812 0.032492 -0.081088 0.098304 0.049088 0.041437 0.066511 -0.035853 0.035207 -0.106693 0.005522 -0.063113 0.175029 -0.025982 0.038257 -0.028431 -0.058440 0.007742 -0.105853 -0.106317 0.087911 -0.068683 0.069299 0.059558 -0.024115 -0.126042 -0.146485 0.045771 -0.101167 -0.011989 0.047271 0.029363 0.051504 -0.119934 0.138993 0.004502 -0.074566 0.014003 0.009633 0.071470 -0.014129 -0.045005
filesystem 0.054202 -0.084601 -0.214909 0.040141 -0.118116 0.034950 0.049138 0.008703 -0.097795 0.011686 0.119259 0.213095 0.120099 -0.162798 -0.032692 0.035410 0.020288 0.067081 -0.002171 -0.096064 0.164736 0.075851 0.103159 0.024220 0.050788 0.019048 -0.070405 -0.007232 -0.035379 0.071699 -0.134601 0.150512 -0.076651 0.122518 -0.102660 -0.039349 0.011508 -0.010073 0.037869 -0.054413 -0.212839 0.073017 -0.109108 -0.039365 0.013644 0.000586 0.085831 0.055733 0.100867 -0.131109
ftdc 0.347576 -0.175145 -0.269075 0.147300 -0.168569 0.027953 0.188197 0.252408 -0.046683 0.092755 -0.128366 0.022412 0.192811 -0.219361 -0.069234 0.077868 -0.153217 0.194125 0.236108 -0.047324 -0.058278 -0.022627 -0.091394 -0.029420 -0.045967 0.010937 0.024388 0.040613 0.005576 0.217776 -0.215342 0.267197 -0.366871 0.253197 -0.158842 0.138335 0.178396 0.071504 0.027889 -0.050059 -0.107350 0.187891 0.088521 -0.014590 0.299823 -0.050334 0.201002 -0.040170 -0.154588 -0.086236
full -0.061788 0.028635 0.092303 0.123135 0.150447 0.045005 0.201462 -0.053335 -0.023889 0.113673 -0.430362 -0.199104 -0.140194 0.084837 -0.053875 0.128018 -0.166169 -0.080743 -0.041784 0.011576 -0.034914 -0.116164 -0.284054 0.132949 -0.373337 0.255348 0.150778 -0.125882 0.023292 -0.321485 0.016981 -0.157506 0.194092 -0.100016 -0.164383 0.244049 -0.268484 0.366469 -0.150807 0.109084 0.335732 -0.219340 0.388588 -0.079861 -0.016803 -0.239459 -0.025527 -0.057970 -0.003563 -0.003416
going 0.222788 -0.070300 -0.374460 -0.080555 -0.182690 0.040672 -0.113182 0.175009 0.074179 -0.007440 0.534637 0.153684 0.303500 -0.144951 -0.022050 -0.154601 0.243491 0.189462 0.062528 0.041933 -0.084923 0.250502 0.294678 -0.107272 0.268255 -0.442064 -0.163609 0.148854 -0.122653 0.527067 -0.061677 0.302207 -0.332575 0.112407 0.443695 -0.406883 0.353902 -0.476452 0.163505 -0.068232 -0.477447 0.213792 -0.522416 0.236238 0.103240 0.323169 0.223243 -0.096092 -0.148059 0.068827
max -0.515061 0.292883 0.529733 -0.045960 0.434354 -0.044978 -0.272968 -0.383217 0.235633 0.017343 -0.262835 -0.353421 -0.596714 0.383422 0.227267 -0.136221 0.182720 -0.337494 -0.157003 0.093061 -0.238794 0.019442 -0.117647 0.137870 -0.282841 0.016609 0.140819 0.020377 0.030379 -0.535261 0.458075 -0.616177 0.607614 -0.526142 0.329493 -0.120590 -0.329144 0.038077 0.004964 0.247037 0.571335 -0.493844 0.156644 0.023181 -0.464041 -0.027542 -0.379894 -0.241123 0.007557 0.361912
openssl 0.220278 -0.058668 -0.208363 0.208453 -0.101219 0.124184 0.125019 0.148571 -0.117871 0.044826 0.002145 0.085583 0.242894 -0.181590 -0.016145 0.037879 -0.031500 0.163212 0.190862 -0.068947 0.072135 0.052798 0.071283 -0.039565 0.114387 -0.148351 0.041803 -0.059856 0.073625 0.116858 -0.178352 0.241258 -0.260360 0.124424 -0.038014 -0.077105 0.225886 -0.003732 0.123835 -0.042398 -0.170078 0.124533 -0.158599 -0.016941 0.197494 0.031808 0.119437 -0.070135 -0.001872 -0.009991
port -0.155299 -0.161373 0.102246 0.050559 0.034285 0.008237 -0.036611 -0.028759 0.015758 0.013334 -0.077443 0.075171 -0.073096 -0.013585 -0.056794 -0.036439 -0.065589 -0.072976 0.023673 0.041650 -0.082444 0.033448 -0.001923 0.002395 0.067038 -0.008706 0.013499 0.003806 0.028472 -0.092042 0.024902 0.069690 -0.019069 -0.033257 0.060561 0.122075 -0.071845 0.028529 -0.061382 -0.041834 0.010639 -0.047038 0.094995 -0.025926 -0.142117 -0.040111 -0.125252 0.049382 -0.007922 -0.193232
removing 0.099718 -0.171324 -0.253088 0.094202 -0.202740 0.091781 -0.011999 -0.076956 -0.076708 0.141957 0.147970 0.235576 0.055328 -0.257591 -0.002953 -0.160034 -0.036256 0.248483 -0.036036 0.055392 0.014201 0.276123 0.237005 0.044038 -0.113409 -0.152714 -0.048042 0.068265 -0.108695 0.082030 -0.090983 0.133790 -0.153779 0.025683 0.058290 -0.139437 0.082031 -0.194326 0.178408 0.010513 -0.266889 -0.142434 -0.254130 0.122760 -0.028274 0.191858 0.125709 -0.029383 0.124028 -0.003793
size -0.563882 0.356573 0.372053 -0.247286 0.253605 -0.050493 0.005241 -0.198276 0.114194 -0.084931 -0.138920 -0.410853 -0.263509 0.478045 -0.176125 0.049846 -0.013609 -0.121790 -0.409104 0.184428 -0.277967 -0.086379 -0.234629 0.101571 -0.196713 0.108805 0.207081 0.081983 -0.035342 -0.271585 0.209797 -0.529323 0.566004 -0.311419 0.302080 -0.031302 -0.333406 0.270202 -0.181847 0.013875 0.525877 -0.146355 0.061515 -0.041186 -0.162791 -0.144144 -0.359011 -0.024228 0.188888 0.159561
statistics -0.857394 0.313216 0.241539 -0.325380 0.046876 0.088992 0.071675 -0.239035 0.007201 -0.227879 -0.053217 -0.279846 -0.312964 0.395454 -0.284699 0.133838 -0.126609 -0.136096 -0.631935 0.289475 -0.105761 0.012691 -0.055141 0.085985 -0.030221 0.163469 0.210737 0.019461 -0.114652 -0.399077 -0.023399 -0.366321 0.687065 -0.269412 0.169955 0.091942 -0.465096 0.232335 -0.271974 -0.001522 0.253840 -0.072551 -0.080964 -0.154577 -0.248483 -0.181978 -0.313522 0.143831 0.475970 -0.001709
wait -0.640287 0.254067 0.310528 -0.281198 0.225054 -0.005699 0.043963 -0.209184 0.134056 -0.079729 -0.188318 -0.390724 -0.359406 0.422178 -0.219348 0.046497 -0.175891 -0.133891 -0.418532 0.216640 -0.224962 -0.007636 -0.235363 0.086951 -0.179087 0.056135 0.175307 0.008394 -0.057952 -0.339385 0.049549 -0.352151 0.548206 -0.332528 0.221190 0.042928 -0.357374 0.272322 -0.191481 -0.004333 0.433607 -0.151749 0.161237 -0.125008 -0.146291 -0.156534 -0.300856 0.010289 0.265565 0.141116
warning 0.494738 -0.192832 -0.311046 0.403825 -0.227258 0.210172 0.204322 0.221956 -0.168538 0.042677 -0.029619 0.340113 0.353936 -0.491012 0.153260 -0.053467 -0.052860 0.184908 0.352797 -0.036399 0.100480 0.019643 0.207098 -0.014389 0.160562 -0.070226 -0.067853 -0.021925 0.039273 0.227579 -0.147022 0.447915 -0.606547 0.307211 -0.280079 -0.001732 0.377981 -0.119337 0.117801 0.005059 -0.209209 0.188328 -0.070230 0.032391 0.177245 0.051949 0.250738 0.019610 -0.155407 -0.132964
build 0.397789 -0.241840 -0.442427 0.389870 -0.328347 0.291083 0.241157 0.092548 -0.159416 0.144839 0.011028 0.325022 0.364901 -0.582738 0.135859 -0.145824 -0.106475 0.188763 0.273473 0.105759 0.019919 0.138881 0.284081 0.073135 0.106540 -0.168483 -0.042420 -0.035359 0.016921 0.114383 -0.147846 0.335845 -0.561573 0.213763 -0.160639 -0.036522 0.335710 -0.112106 0.167549 0.065576 -0.258641 0.054869 -0.060830 0.028680 0.046652 0.131422 0.294122 -0.115311 0.070844 -0.075004
index 0.167680 -0.124306 -0.270048 0.339215 -0.204568 0.302543 0.156154 -0.094325 -0.131426 0.119585 0.037503 0.265199 0.219330 -0.450097 0.129028 -0.189433 -0.026462 0.098127 0.104969 0.141645 0.015092 0.153802 0.283552 0.139847 0.015454 -0.133926 -0.005270 -0.003038 0.034435 -0.073026 0.028590 0.081704 -0.250554 0.011492 0.011048 -0.059058 0.142833 -0.103465 0.170831 0.111542 -0.104002 -0.140614 -0.078485 0.032284 -0.141233 0.133669 0.149429 -0.132050 0.182765 -0.001385
a -0.194968 0.152309 0.214398 -0.084614 0.037112 -0.038218 -0.156610 -0.191668 0.052665 -0.073512 0.038481 -0.048397 -0.230922 0.136326 0.104042 -0.019387 0.121147 -0.144372 -0.147589 0.038623 -0.006263 0.010254 0.069831 0.127004 -0.048355 0.058350 -0.045066 0.015521 -0.050097 -0.206687 0.164588 -0.228633 0.301287 -0.189581 0.016947 0.026778 -0.218124 -0.049670 -0.049603 0.121071 0.141677 -0.162969 0.027266 0.042553 -0.222248 0.044365 -0.063554 0.109451 0.054118 0.025325
conn 0.366118 -0.010114 0.044138 -0.423849 -0.034457 -0.275384 -0.153195 0.630223 0.089824 -0.344397 0.265490 -0.202839 0.352975 0.254444 -0.128238 0.069801 0.053442 0.229586 0.435555 -0.163717 -0.143108 -0.197202 -0.085381 -0.301142 0.597095 -0.239145 -0.075293 0.124659 0.093382 0.631156 -0.316535 0.332171 -0.347069 0.393233 -0.002816 -0.025277 0.436644 -0.190108 0.015892 -0.220577 -0.300957 0.797093 -0.071531 0.030868 0.517332 -0.063469 0.152510 0.075747 -0.473403 -0.074241
threads -0.517088 0.228078 0.515706 -0.007742 0.408219 -0.004755 -0.287724 -0.404578 0.192174 0.035572 -0.275291 -0.260539 -0.602072 0.351417 0.250141 -0.156275 0.158095 -0.364747 -0.176906 0.078511 -0.159632 0.056624 -0.061373 0.140416 -0.289798 0.008183 0.096205 -0.019393 0.011927 -0.572956 0.433375 -0.545427 0.591594 -0.566631 0.285924 -0.127072 -0.359162 0.007453 0.027485 0.269863 0.524881 -0.555075 0.168319 0.011928 -0.525465 -0.037527 -0.332713 -0.204702 0.065409 0.323841
users -0.178352 -0.176407 0.056265 0.238710 0.019167 0.035489 0.216466 -0.188587 0.024944 0.168233 -0.390280 0.075210 -0.250775 -0.136057 0.128619 0.118633 -0.266478 -0.257176 -0.266424 0.250351 0.040904 -0.114271 -0.108020 -0.050003 -0.157414 0.218396 -0.073000 -0.219980 -0.012515 -0.367231 0.088002 -0.039173 -0.124390 -0.165837 -0.385370 0.182271 -0.119206 0.307601 -0.220105 0.012694 0.287187 -0.217576 0.482126 -0.213200 -0.047274 -0.143061 -0.128783 0.191060 -0.024487 -0.098331
end 0.138835 0.113219 0.201548 -0.469100 0.079464 -0.271894 -0.224441 0.486464 0.113147 -0.369105 0.267263 -0.257315 0.230978 0.399596 -0.121260 0.057593 0.114157 0.116687 0.279504 -0.148759 -0.126775 -0.190575 -0.088732 -0.260391 0.532207 -0.195435 -0.033651 0.102063 0.085108 0.460794 -0.197330 0.136081 -0.072275 0.243157 0.091824 -0.050702 0.292942 -0.173341 -0.004840 -0.174585 -0.176837 0.645956 -0.079007 0.018185 0.350032 -0.086765 0.031077 0.091419 -0.376002 -0.027284
starting -0.163863 -0.061585 0.152735 0.052321 0.123092 0.121538 0.025858 -0.036388 -0.102190 -0.042826 -0.066253 0.036980 0.008311 -0.035874 0.007366 -0.022858 -0.036078 -0.132241 0.053360 0.059931 0.041438 -0.016263 0.068754 0.022179 0.180941 -0.064157 -0.001473 -0.118607 0.033035 -0.183000 -0.040454 0.130854 0.023104 -0.047738 0.027678 0.086226 -0.044904 -0.015071 -0.032350 0.005759 -0.015865 -0.002461 0.098357 -0.054663 -0.155228 -0.063681 -0.086985 0.026921 0.045566 -0.153110
c -0.087468 -0.003467 0.126505 -0.085649 0.168143 -0.031386 -0.089552 -0.135553 0.089709 0.042546 0.045419 -0.056952 -0.050289 0.060917 0.082277 -0.129904 0.182848 -0.055707 -0.020043 -0.069570 0.053100 -0.021894 0.001340 0.054513 -0.125819 0.079702 0.022595 -0.032811 -0.025643 -0.071125 0.200859 -0.224586 0.162729 -0.064537 0.095547 -0.036372 -0.131749 -0.046017 0.007518 0.047422 0.093730 -0.105601 0.033125 0.048808 -0.162667 0.006377 -0.027705 -0.099319 -0.042537 0.028417
configuration 0.094686 -0.056789 -0.002316 -0.024046 -0.115183 -0.109969 -0.089526 -0.014309 -0.056682 0.005374 0.120532 0.143096 0.005897 -0.158157 0.217525 -0.020047 0.053716 0.028190 0.088104 -0.007416 0.082367 0.022049 0.119196 -0.058401 0.135119 -0.105257 -0.111038 -0.032216 -0.039445 0.056744 -0.071027 0.156666 -0.176050 0.056844 -0.080108 -0.002390 0.165212 -0.098435 0.068999 -0.028012 -0.158022 -0.002951 -0.024346 -0.011397 -0.022654 0.159887 -0.001781 0.152195 -0.127755 -0.068139
current -0.207398 -0.060822 0.047605 0.259962 0.074191 0.218321 0.124562 -0.232151 -0.040744 0.169628 -0.228625 0.024294 -0.203185 -0.113943 0.013458 0.005431 -0.099304 -0.208012 -0.235282 0.006633 0.016857 -0.035859 0.045336 0.144844 -0.265625 0.210068 0.080850 -0.033281 0.046226 -0.504782 0.264042 -0.287607 0.301332 -0.161114 -0.154571 0.038399 -0.393323 0.270686 -0.008398 0.100395 0.290963 -0.373171 0.215215 -0.130237 -0.173187 -0.048576 -0.061779 -0.173799 0.264347 0.066331
dbpath -0.213896 -0.090704 0.142534 0.113408 0.137758 0.016290 0.102058 -0.074023 0.045700 0.058555 -0.312873 -0.001954 -0.191547 0.027304 0.036985 0.068759 -0.155622 -0.258414 -0.116072 0.133105 -0.046416 -0.092019 -0.121423 -0.031263 -0.032090 0.144029 -0.043936 -0.126167 0.038316 -0.277849 0.087181 -0.033672 -0.021695 -0.124324 -0.145513 0.172527 -0.165047 0.241346 -0.161122 -0.012560 0.249674 -0.110977 0.381311 -0.157784 -0.098968 -0.143961 -0.168867 0.114198 -0.050118 -0.179396
message 0.293992 -0.042077 -0.167054 0.066524 -0.017105 0.108695 -0.032581 0.094315 -0.005485 0.054585 0.145741 0.078728 0.191058 -0.126401 -0.028706 -0.109713 0.170319 0.080081 0.249766 -0.173320 0.060139 -0.001462 0.038747 -0.055070 0.021149 -0.025802 0.009197 0.088835 0.025395 0.193179 0.106706 -0.033848 -0.155980 0.116657 0.115810 -0.162510 0.079435 -0.110449 0.186179 -0.000337 -0.084794 0.083603 -0.197915 0.114760 0.070612 0.055942 0.183321 -0.187976 -0.059973 0.013211
on -0.035400 -0.086257 0.065248 -0.105980 -0.060098 -0.066726 -0.192577 0.020318 0.015506 -0.082143 0.135475 0.070121 0.038617 0.045691 -0.080014 -0.108063 0.058712 0.147640 0.119905 -0.015157 -0.061711 0.088200 0.056977 0.004094 0.113811 -0.124821 0.057219 0.128723 0.006540 0.142809 -0.030219 0.096855 -0.003518 0.044538 0.173305 0.045770 0.084449 -0.195327 0.037119 -0.034304 -0.181178 0.071023 -0.153900 0.085096 -0.115630 0.058840 -0.061579 0.001990 -0.036969 -0.076344
recover -0.327197 0.123259 0.200689 -0.137256 0.201149 -0.028130 -0.136488 -0.128293 0.093002 -0.016754 -0.045857 -0.160776 -0.165072 0.254932 -0.000191 0.014032 0.112379 -0.178935 -0.233210 0.032268 -0.036383 -0.028488 -0.079674 0.015835 -0.126982 0.124185 0.099753 -0.000761 0.027191 -0.229468 0.117236 -0.355903 0.359418 -0.200349 0.100397 -0.014659 -0.264192 0.104263 -0.060031 0.070198 0.196530 -0.169231 0.089204 -0.029280 -0.205608 -0.071888 -0.199819 -0.099728 0.084955 0.067277
txn -0.288526 0.111487 0.215791 -0.119613 0.196930 -0.047560 -0.166970 -0.157021 0.092914 -0.003384 -0.019977 -0.138427 -0.183328 0.238377 0.065911 -0.027725 0.156642 -0.178338 -0.201280 0.005847 -0.021420 -0.019732 -0.034592 0.039481 -0.130495 0.121014 0.062514 -0.008681 0.018970 -0.237574 0.157751 -0.368273 0.352931 -0.196672 0.084252 -0.019907 -0.253232 0.058418 -0.044328 0.090251 0.185067 -0.189252 0.084705 0.003399 -0.225692 -0.037416 -0.171968 -0.072832 0.051008 0.063075
v 0.240894 -0.097656 -0.271874 0.210765 -0.206828 0.109563 0.107093 0.062455 -0.135962 0.111554 -0.056963 0.139113 0.128558 -0.248790 0.058362 0.049922 -0.092593 0.198404 0.122354 -0.038693 0.094754 0.064479 0.113755 -0.014701 0.095440 -0.139180 -0.014508 -0.033348 0.036688 0.062862 -0.187743 0.243783 -0.279907 0.101858 -0.164789 -0.097264 0.261377 -0.023252 0.088096 -0.035582 -0.166209 0.072713 -0.123614 0.036883 0.203783 0.049074 0.131470 0.019677 -0.007224 0.046249
using 0.114217 -0.003866 -0.087892 0.175888 0.029597 0.155028 0.081969 0.065745 -0.012849 -0.014922 -0.041466 0.114798 0.124791 -0.120963 -0.000951 -0.060899 0.042504 0.026904 0.087759 -0.040961 0.013162 -0.023071 0.075968 0.001928 0.007123 0.058101 0.025650 0.071556 0.056238 0.025750 0.027231 0.054158 -0.129172 0.112249 -0.051714 -0.025308 0.012868 -0.005668 0.061823 0.012410 0.010476 0.005297 -0.056012 0.018264 -0.025324 -0.052433 0.049678 -0.060773 0.007232 -0.045480
active 0.249539 0.114016 -0.313877 0.091723 0.067029 0.155861 -0.040520 0.077176 0.042948 0.035349 0.205221 0.064215 0.218599 -0.077509 -0.196914 -0.107032 0.295892 0.010301 0.152382 -0.270889 0.028335 0.038628 0.033186 0.016380 0.032686 0.005437 0.031025 0.166595 0.123395 0.202328 0.162320 -0.105768 0.008423 0.156299 0.339312 -0.314830 -0.031707 -0.122328 0.236822 -0.041756 -0.172833 -0.008168 -0.400173 0.153967 0.003958 0.044840 0.169722 -0.336256 0.160542 0.058475
detected 0.191365 -0.209871 -0.137307 0.253049 -0.076769 0.060708 0.205406 0.167093 0.009461 0.112215 -0.241328 0.127264 0.045633 -0.254963 0.163559 0.101878 -0.187588 -0.061733 0.081494 0.033897 -0.001976 -0.106915 -0.056262 -0.075953 -0.018737 0.112976 -0.091458 -0.123965 0.022359 -0.041251 -0.097983 0.259586 -0.427962 0.180617 -0.348498 0.172988 0.093967 0.164194 -0.002119 -0.052091 0.061929 0.007989 0.314155 -0.153144 0.187101 -0.030605 0.086943 0.093517 -0.173475 -0.191833
recovery -0.202345 0.116198 0.119949 -0.082213 0.116627 -0.082912 -0.026950 -0.085385 0.045853 0.007800 0.050089 -0.100165 -0.166225 0.174817 -0.076884 0.001654 -0.110448 -0.111030 -0.154777 0.041116 -0.014799 -0.025693 -0.111322 -0.073042 -0.034781 0.021902 0.046113 -0.013720 0.010523 -0.128208 -0.009129 -0.195529 0.254281 -0.099977 0.119134 0.004754 -0.110482 0.074324 -0.019875 -0.043110 0.006309 -0.088666 0.027476 -0.093369 -0.022703 -0.060562 -0.157733 -0.020102 0.093422 0.060640
after -0.335420 0.020590 0.164912 0.260027 0.125836 0.224692 0.110208 -0.338179 -0.041414 0.149652 -0.236323 0.003694 -0.266004 -0.068058 0.051083 0.000645 -0.064318 -0.276245 -0.315625 0.067561 0.041328 -0.043719 0.029740 0.200792 -0.299759 0.216931 0.099516 -0.070506 0.031094 -0.616383 0.295572 -0.381729 0.420075 -0.249228 -0.105881 0.058770 -0.443264 0.278924 -0.055979 0.141500 0.373004 -0.455033 0.222304 -0.131469 -0.285895 -0.055318 -0.133764 -0.139012 0.318098 0.079307
allocator 0.226031 -0.114678 -0.170091 0.131761 -0.152259 0.048010 0.089974 0.155923 -0.085094 0.025794 0.011754 0.134454 0.129525 -0.243713 -0.013303 0.006037 -0.032793 0.064889 0.174542 -0.031715 -0.002224 -0.004451 0.064001 -0.043766 0.072337 -0.038941 -0.025626 -0.003266 -0.033270 0.153019 -0.080540 0.244882 -0.287825 0.145529 -0.088408 0.018361 0.157305 -0.061790 0.053824 -0.039216 -0.093280 0.135039 -0.020161 0.005539 0.109261 0.045282 0.135719 -0.011930 -0.073922 -0.065384
arch 0.268904 -0.051975 -0.090000 -0.000612 -0.198419 0.061780 -0.019952 0.109698 -0.131432 -0.007103 0.229545 0.106284 0.238174 -0.181686 0.065846 -0.136063 0.046233 0.149359 0.264418 -0.031994 0.069045 0.069589 0.158296 0.012434 0.093798 -0.174030 -0.013480 0.027999 -0.065557 0.191160 -0.069146 0.129307 -0.124218 0.072908 0.037384 -0.096678 0.187311 -0.201133 0.095466 0.079181 -0.166840 0.194452 -0.240768 0.103338 0.043779 0.101229 0.146109 -0.013504 -0.047471 0.025699
archive 0.068529 -0.000367 -0.051424 0.031402 -0.169030 0.002479 -0.018319 -0.020137 -0.144141 -0.076000 0.369403 0.216188 0.230804 -0.077776 -0.072789 0.081027 -0.008617 0.042807 -0.130562 -0.075196 0.323641 -0.096858 0.166506 -0.056903 0.136794 0.117539 -0.069183 -0.032168 -0.044123 0.148449 -0.145822 0.096054 0.078646 0.216242 -0.127135 0.105134 0.045207 -0.089503 -0.065045 -0.059724 -0.363899 0.118248 -0.176571 0.008596 -0.024208 0.047856 0.046224 0.259318 0.160095 -0.149142
b -0.012203 0.070871 0.109607 0.039321 -0.038892 -0.012219 -0.084027 -0.091744 -0.014185 -0.025035 -0.004443 0.027206 -0.120147 0.005714 0.141709 0.005748 0.074041 -0.061945 0.003985 -0.015584 0.023593 0.015605 0.127520 0.105071 0.018327 -0.029731 -0.067708 -0.016035 -0.002276 -0.121368 0.085229 -0.040361 0.079583 -0.064168 -0.074775 -0.003439 -0.036795 -0.097663 0.028631 0.099688 0.038531 -0.088071 -0.021363 0.054196 -0.093053 0.087911 0.032005 0.132188 -0.052719 0.029783
base -0.378921 0.134405 0.145720 -0.098301 0.075579 0.002913 -0.057885 -0.106391 0.087644 -0.075540 -0.120478 -0.212497 -0.321424 0.154269 0.020701 0.003441 0.049374 -0.098679 -0.134672 0.137448 -0.154142 0.028864 -0.031759 0.053675 -0.040431 0.052577 0.114846 0.038510 0.007196 -0.255732 0.114316 -0.252446 0.310393 -0.171047 0.103463 -0.011523 -0.191785 0.071392 -0.058545 0.081715 0.200777 -0.134667 0.002791 -0.035184 -0.135192 -0.046300 -0.166727 -0.096107 0.064905 0.137232
bit -0.261388 0.070090 0.209230 -0.034191 0.146915 -0.030131 -0.038420 -0.176982 0.057874 -0.020249 -0.077359 -0.080857 -0.169739 0.112044 0.007846 -0.004683 0.008222 -0.176598 -0.240051 0.170045 -0.022412 -0.068965 -0.080357 -0.009802 -0.065146 0.107608 0.007911 -0.040391 -0.004612 -0.192434 0.156786 -0.250156 0.228622 -0.199120 -0.010675 0.007739 -0.160227 0.062080 -0.119335 0.062413 0.223190 -0.111011 0.135480 -0.068630 -0.186808 -0.062247 -0.193758 0.069887 -0.006012 0.028872
cache -0.253748 0.285247 0.348154 -0.162206 0.299527 -0.171389 -0.140773 -0.126796 0.123114 -0.011129 -0.026615 -0.312547 -0.159764 0.391550 -0.030432 0.002156 0.180061 -0.133609 -0.146994 0.044483 -0.161664 -0.107119 -0.167139 0.059879 -0.156703 0.070945 0.108296 0.068301 0.049181 -0.140111 0.274889 -0.492277 0.405335 -0.253847 0.254694 -0.080709 -0.197490 0.168948 -0.074897 0.047473 0.391428 -0.177935 0.054926 0.041129 -0.135541 -0.050757 -0.270855 -0.059777 -0.042324 0.178525
checkpoint -0.571689 0.254028 0.397121 -0.193150 0.347212 -0.005395 -0.058456 -0.292751 0.163765 -0.005808 -0.238759 -0.363188 -0.382793 0.402720 -0.067390 0.005032 0.018037 -0.232466 -0.330409 0.136088 -0.144768 -0.023660 -0.198174 0.169444 -0.276654 0.111959 0.137278 -0.054836 -0.015955 -0.450106 0.236503 -0.468062 0.596607 -0.425098 0.198201 0.004984 -0.433968 0.234269 -0.158466 0.122810 0.539290 -0.322633 0.231598 -0.055063 -0.307204 -0.124191 -0.287662 -0.053553 0.161222 0.174742
cmd -0.214422 -0.035081 0.051009 0.187515 0.052022 0.191762 0.098336 -0.177356 -0.043713 0.116197 -0.189131 0.010429 -0.165106 -0.060902 0.018925 0.001709 -0.081658 -0.165797 -0.187661 -0.018636 0.000680 -0.018572 0.050664 0.095429 -0.199503 0.163359 0.088093 -0.014486 0.029204 -0.414652 0.214860 -0.243157 0.276987 -0.123034 -0.132505 0.021836 -0.337911 0.227394 0.024599 0.077568 0.249732 -0.303908 0.167612 -0.122848 -0.142380 -0.037301 -0.052731 -0.122308 0.202439 0.033947
code 0.246765 -0.084434 -0.224057 0.064685 -0.172817 -0.038377 0.098656 0.084316 -0.010593 0.055063 0.015159 0.047687 0.066733 -0.123566 0.005765 0.065514 -0.096662 0.099298 0.111002 -0.175533 -0.003535 0.022721 -0.059089 -0.015903 -0.127710 -0.023102 -0.037861 0.011186 -0.005927 0.139171 -0.080017 0.102617 -0.202542 0.135987 -0.104432 0.059924 0.096030 0.103527 -0.041196 -0.074816 -0.068154 0.013052 0.008718 0.019789 0.180626 0.020220 0.153399 -0.025053 0.029390 0.063714
compressor 0.327800 -0.097373 -0.124199 0.123445 -0.077978 -0.033754 0.003330 0.095984 -0.109606 0.034786 0.203308 0.266685 0.272036 -0.118323 -0.015934 0.025055 0.023306 0.058441 0.056138 -0.107381 0.224246 -0.016394 0.092009 -0.100706 0.112574 -0.025401 -0.132322 -0.059080 0.059175 0.221759 -0.103639 0.214132 -0.244926 0.135597 -0.146481 0.045337 0.137154 -0.074496 0.044403 -0.065542 -0.294657 0.091616 -0.054443 0.007920 0.110349 0.089597 0.142104 0.138189 -0.048111 -0.142474
core -0.231846 -0.046356 0.065484 -0.041447 0.046973 0.084636 -0.020260 -0.178177 -0.097477 -0.053344 0.018464 0.128623 -0.091774 0.014463 0.043964 0.019422 0.023231 -0.100703 -0.166286 0.067469 0.216455 0.082638 0.137349 0.064523 0.035580 0.031242 -0.040873 -0.134827 -0.086828 -0.208305 -0.026419 0.035387 0.177537 -0.148425 -0.067072 0.031575 -0.192789 -0.050636 -0.028952 0.070548 -0.079998 -0.105022 0.023033 -0.089672 -0.210573 -0.041931 -0.048050 0.093440 0.147890 -0.079472
create -0.148902 0.254701 0.288592 -0.189760 0.257290 -0.209732 -0.185438 -0.010631 0.129716 -0.026165 0.035152 -0.310490 -0.093653 0.367809 -0.045034 0.001971 0.205407 -0.087407 -0.034189 -0.001060 -0.168199 -0.117588 -0.150477 0.006151 -0.069477 0.036299 0.100914 0.098279 0.073212 -0.012728 0.217613 -0.410581 0.309023 -0.156172 0.238193 -0.088006 -0.112199 0.122954 -0.040223 0.022996 0.292847 -0.073343 0.016614 0.057230 -0.044334 -0.029391 -0.212634 -0.076716 -0.115400 0.174611
database 0.108600 -0.026259 -0.108265 0.021586 -0.102951 0.000399 -0.003930 0.065306 -0.033129 -0.031643 0.061896 0.069133 0.091530 -0.063075 -0.088126 -0.005051 0.019283 0.145090 0.119859 -0.082039 0.005189 0.038346 0.011819 0.000636 0.025079 -0.061220 0.024596 0.077038 0.022202 0.137066 -0.046950 0.063206 -0.077185 0.119575 0.009286 -0.035531 0.084977 -0.093289 0.032720 -0.038685 -0.133138 0.114514 -0.112213 0.053879 0.047976 -0.000729 0.094127 -0.034581 0.014275 -0.002523
diaglog 0.072925 -0.018112 -0.107716 -0.010715 -0.110975 0.018591 -0.009372 0.106565 0.026318 -0.030169 0.177881 0.046107 0.171968 -0.055440 0.028009 -0.014165 0.103877 0.008368 0.039355 0.027549 -0.061460 0.051848 0.097409 -0.071253 0.182665 -0.184877 -0.034319 0.030980 -0.010150 0.239484 -0.024292 0.105363 -0.108608 0.094188 0.136118 -0.149815 0.161213 -0.171189 0.007186 -0.021995 -0.158517 0.187999 -0.167536 0.033676 0.071298 0.081923 0.062172 -0.022134 -0.113895 0.022681
directory -0.138097 -0.019073 0.024189 0.167159 0.112976 -0.036492 0.230211 -0.106476 0.110927 0.143580 -0.339076 -0.052937 -0.255899 -0.002162 0.084110 0.176630 -0.185154 -0.282179 -0.230878 0.013253 0.006359 -0.128174 -0.208434 0.013140 -0.324574 0.240826 -0.089813 -0.162038 0.008245 -0.330947 0.126676 -0.172099 0.034616 -0.130266 -0.224188 0.147910 -0.287969 0.423285 -0.207425 -0.007087 0.363817 -0.269130 0.407868 -0.176114 0.021718 -0.113633 -0.073617 0.050943 0.065348 -0.017813
distarch 0.282072 -0.135593 -0.150213 0.121490 -0.189929 0.078955 0.094059 0.104940 -0.091667 0.042962 0.030678 0.164192 0.173965 -0.255330 0.069355 -0.025151 -0.048642 0.099851 0.191009 -0.033605 0.076051 0.017829 0.076462 -0.028289 0.063055 -0.042267 -0.043027 -0.017987 -0.036857 0.126208 -0.070265 0.209319 -0.276557 0.151334 -0.138491 0.018490 0.164580 -0.068809 0.071429 -0.031511 -0.115599 0.143397 -0.037050 0.007783 0.114600 0.070040 0.165892 0.026093 -0.101904 -0.080242
distmod 0.115186 -0.052523 -0.112645 0.160610 -0.070188 0.084080 0.073363 0.074213 -0.051767 0.001205 -0.051769 0.069273 0.080728 -0.156863 0.035946 0.054889 -0.016623 0.052364 0.056369 -0.024043 0.016132 -0.000240 0.059608 -0.024764 0.068934 -0.004292 -0.013168 -0.063919 0.032684 0.027953 -0.055529 0.137073 -0.170555 0.098287 -0.111757 0.020419 0.111311 -0.006462 0.033744 -0.002189 -0.034448 0.075903 0.022771 -0.034167 0.085706 0.021119 0.050217 0.025692 -0.031052 -0.053566
dochub -0.188753 -0.013488 0.124421 0.042925 0.097451 0.201149 0.032411 -0.187892 -0.037930 -0.037637 -0.100102 0.053601 -0.095991 0.017873 0.076521 -0.026726 -0.027159 -0.088885 -0.171959 0.126434 0.140044 0.009879 0.107601 0.054257 0.025903 0.001639 0.005503 -0.122855 -0.015972 -0.299138 0.076901 -0.009352 0.132325 -0.135935 -0.035504 0.124403 -0.176268 -0.069200 -0.009631 0.082755 0.049458 -0.183236 0.071447 -0.051981 -0.223428 -0.058623 -0.039879 0.000072 0.167689 -0.033078
ends -0.035108 -0.102877 -0.051832 0.149733 -0.032829 0.136905 0.132714 -0.025693 -0.056314 0.099667 -0.139414 0.039542 -0.051259 -0.108500 -0.005114 0.013419 -0.114877 -0.045758 -0.055273 -0.048757 -0.008116 -0.017127 0.020625 0.015496 -0.103575 0.100358 0.053938 0.001146 0.015020 -0.188547 0.079016 -0.045724 0.044168 0.015235 -0.168312 0.043820 -0.175962 0.178504 0.038319 0.002863 0.102353 -0.128092 0.135210 -0.091446 0.020487 -0.024206 0.037057 -0.079027 0.090999 -0.033339
environment 0.203349 -0.117907 -0.213037 0.142818 -0.161118 0.088429 0.106542 0.110085 -0.061078 0.061010 -0.011785 0.128053 0.200708 -0.230846 0.061906 -0.044986 -0.071167 0.107414 0.152911 0.033898 -0.002441 0.051370 0.100649 0.011330 0.100834 -0.104687 -0.036267 -0.035203 0.008331 0.118777 -0.129963 0.210443 -0.320802 0.145298 -0.123810 -0.005578 0.211212 -0.046862 0.059944 0.022525 -0.162306 0.087888 -0.001815 0.015785 0.085075 0.033070 0.146840 -0.019778 -0.015715 -0.047446
eviction -0.454154 0.228184 0.473510 -0.025072 0.390186 -0.013635 -0.245056 -0.392133 0.183721 0.027526 -0.236464 -0.255878 -0.530956 0.330656 0.210470 -0.130719 0.133675 -0.321839 -0.165787 0.072782 -0.145933 0.037161 -0.068939 0.122143 -0.268656 0.013689 0.083060 -0.017529 0.016677 -0.508840 0.393985 -0.521172 0.540211 -0.507690 0.267701 -0.095727 -0.322604 0.020570 0.008188 0.232596 0.485984 -0.496432 0.151683 0.013135 -0.461114 -0.031697 -0.321603 -0.168772 0.054616 0.297822
exiting 0.249064 -0.090785 -0.074952 -0.119485 -0.137209 -0.180481 -0.023972 0.224621 -0.021704 -0.084798 0.093988 -0.005426 0.140491 0.010411 -0.030449 0.041631 -0.037896 0.190543 0.189128 -0.019869 -0.033570 -0.020938 -0.034922 -0.095811 0.194801 -0.103824 -0.040717 0.053144 -0.010556 0.368266 -0.193874 0.283707 -0.262216 0.180997 -0.075633 0.036986 0.291115 -0.134201 0.010961 -0.111762 -0.229297 0.311323 -0.028476 0.034597 0.282975 0.035779 0.095697 0.099444 -0.226994 -0.043163
false -0.434662 0.119937 0.070044 -0.113610 -0.004923 0.062407 0.021589 -0.106938 0.036485 -0.101126 -0.091140 -0.151023 -0.267022 0.114539 -0.057219 0.036303 -0.008682 -0.075547 -0.223193 0.156810 -0.099617 0.047669 -0.000304 0.050816 -0.011788 0.090961 0.121553 0.030655 -0.026867 -0.269808 0.041791 -0.201437 0.312350 -0.136709 0.069504 0.019690 -0.224698 0.091410 -0.085104 0.049852 0.130077 -0.085200 -0.055958 -0.071533 -0.134790 -0.071948 -0.145715 -0.026220 0.184167 0.051342
fast -0.357407 0.094865 -0.027894 -0.137063 -0.128289 0.105120 0.081329 -0.065901 -0.063089 -0.153858 0.044984 -0.037134 -0.054368 0.058843 -0.160244 0.095683 -0.091805 -0.003529 -0.278613 0.124748 0.008309 0.021481 0.061200 0.031897 0.077738 0.087547 0.100561 0.026148 -0.096224 -0.130005 -0.113407 -0.066569 0.257129 0.000899 0.012027 0.073394 -0.154191 0.054842 -0.127214 -0.032745 -0.040981 0.073711 -0.141285 -0.073153 -0.074911 -0.074626 -0.068162 0.123714 0.275206 -0.087532
flush -0.040748 0.051294 -0.045711 -0.054266 -0.026429 0.044109 -0.072172 0.052078 0.075447 -0.055521 0.259733 0.019538 0.138565 0.031608 0.032416 -0.048558 0.214121 -0.078126 -0.056866 0.068770 -0.076439 0.073992 0.133261 -0.055455 0.207636 -0.230294 -0.047689 0.034884 -0.029484 0.198133 0.077311 0.006287 0.010601 -0.002633 0.284509 -0.251575 0.097889 -0.230410 0.007649 0.005533 -0.120113 0.132020 -0.253536 0.056800 -0.024636 0.120397 0.010492 -0.048767 -0.089989 0.067519
fs -0.090445 -0.087725 -0.040890 0.082903 -0.037867 0.121229 0.012652 -0.128314 -0.036487 0.109188 0.026978 0.117996 -0.026812 -0.093181 0.046093 -0.124565 0.005354 0.060854 -0.128583 0.105006 0.009241 0.175143 0.156613 0.046217 -0.097686 -0.060601 0.011584 -0.026424 -0.061651 -0.125295 0.031930 -0.041807 0.057357 -0.079601 0.046136 -0.093713 -0.083800 -0.099147 0.074559 0.064702 -0.020418 -0.162265 -0.109129 0.050892 -0.129247 0.075268 0.010390 -0.026355 0.090244 -0.022159
gb -0.809817 0.376086 0.415883 -0.301020 0.236593 0.019168 -0.030072 -0.309228 0.090917 -0.146303 -0.148300 -0.389165 -0.395467 0.510789 -0.181833 0.049396 -0.054483 -0.195032 -0.561627 0.261256 -0.211580 -0.014195 -0.159037 0.124662 -0.161921 0.112845 0.218239 0.042147 -0.066561 -0.440251 0.169355 -0.516741 0.727063 -0.405928 0.295110 0.003567 -0.466423 0.231552 -0.222134 0.051721 0.484087 -0.213950 0.042522 -0.106593 -0.306091 -0.165353 -0.399983 0.023833 0.351620 0.148057
git 0.171484 -0.004275 -0.124480 0.169759 -0.143560 0.156203 0.056500 0.063637 -0.107092 0.040051 -0.022581 0.125179 0.150698 -0.175062 0.079215 -0.000188 -0.025401 0.077870 0.141285 -0.018800 0.085827 0.023008 0.144955 0.015117 0.100241 -0.083703 0.004662 -0.044363 0.031851 0.010864 -0.087823 0.169236 -0.172089 0.093976 -0.091418 -0.074625 0.165778 -0.051018 0.103621 0.015861 -0.078126 0.079651 -0.087947 0.016811 0.091445 0.061801 0.109098 0.006141 -0.025723 -0.003947
got -0.056342 -0.044128 -0.036869 0.308337 -0.077768 0.100179 0.110594 -0.274392 -0.066817 0.175817 -0.193528 0.158067 -0.107308 -0.248491 0.119622 0.050222 -0.081725 -0.054347 -0.152731 0.150439 0.096699 0.053687 0.045548 0.176122 -0.200713 0.100365 -0.005950 -0.099184 -0.008237 -0.288387 0.061040 -0.154457 0.014111 -0.170804 -0.086234 0.029600 -0.110933 0.119388 -0.021527 0.122966 0.153630 -0.270852 0.060120 -0.036674 -0.198129 0.009332 -0.063205 0.025325 0.222034 0.023263
host -0.231119 0.114883 0.184987 -0.071870 0.142959 -0.044004 -0.085791 -0.170894 0.049893 -0.040794 -0.005821 -0.081539 -0.142491 0.121579 -0.017531 -0.029633 0.049403 -0.122303 -0.227597 0.139047 -0.027557 -0.033045 -0.054274 0.010322 -0.062474 0.076678 0.018647 0.001638 -0.007500 -0.127669 0.149895 -0.262132 0.270612 -0.184586 0.060835 -0.027580 -0.147490 0.016297 -0.074205 0.068488 0.178600 -0.101159 0.049200 -0.030699 -0.197694 -0.038876 -0.173880 0.035889 0.017704 0.072934
http -0.123587 -0.002187 0.084013 0.091325 0.067330 0.218103 0.048029 -0.155781 -0.013847 -0.017787 -0.093693 0.046700 -0.059607 -0.011856 0.068011 -0.021723 -0.024902 -0.063957 -0.170486 0.135065 0.095796 -0.014634 0.094704 0.035584 -0.013501 0.013640 0.010384 -0.090991 0.003691 -0.267475 0.111716 -0.044309 0.080017 -0.103878 -0.004806 0.099257 -0.127333 -0.058354 0.007313 0.091977 0.077031 -0.197466 0.040575 -0.034810 -0.192165 -0.042404 -0.033043 -0.014735 0.163358 -0.014218
idle -0.330520 0.149635 0.307188 -0.096211 0.355977 -0.059035 -0.096403 -0.226465 0.148680 0.060954 -0.206707 -0.236935 -0.235774 0.300482 0.055967 -0.028658 0.140690 -0.211492 -0.151200 0.072847 -0.071942 -0.001329 -0.122898 0.151153 -0.247748 0.024602 0.015457 -0.072517 0.011574 -0.301290 0.239167 -0.331899 0.361312 -0.381343 0.180045 -0.031047 -0.308365 0.110755 -0.077983 0.172584 0.434770 -0.330602 0.201486 0.035806 -0.289512 -0.070055 -0.167165 -0.085882 -0.014276 0.142036
initializing 0.066316 0.009192 -0.025209 0.173941 0.028846 0.177485 0.149158 0.062966 -0.044860 0.046587 -0.204014 -0.035116 0.081328 -0.072781 -0.030616 0.057465 -0.045165 -0.034418 0.065531 0.027652 -0.013532 -0.073683 -0.058928 0.044724 -0.089682 0.101269 0.094306 -0.077227 0.029475 -0.150001 -0.012682 -0.024472 0.000296 0.052321 -0.095404 0.055302 -0.063343 0.142504 0.005719 0.077402 0.138612 -0.016386 0.115206 -0.043742 0.017227 -0.105064 0.068803 -0.077114 -0.023982 -0.054027
journal 0.394594 -0.132475 -0.192016 0.152800 -0.165338 -0.039072 0.042156 0.149584 -0.133548 0.031902 0.272994 0.303041 0.324650 -0.179746 -0.038086 0.039565 -0.014861 0.116898 0.078145 -0.130501 0.250441 -0.018920 0.111685 -0.135482 0.161222 -0.008612 -0.138105 -0.056901 0.037069 0.304445 -0.173046 0.271634 -0.294809 0.232927 -0.192021 0.069334 0.209340 -0.076363 0.022550 -0.098439 -0.391694 0.163892 -0.097993 0.002273 0.161243 0.089596 0.180264 0.172176 -0.036350 -0.179845
lock 0.018274 -0.153266 -0.087068 0.117634 -0.091313 0.094176 0.080856 -0.010781 -0.041945 0.109758 -0.033160 0.115897 0.022779 -0.142484 0.053144 -0.067716 -0.069798 0.077486 -0.042651 0.074007 0.008567 0.115807 0.087723 0.006361 -0.053900 -0.031545 -0.005825 -0.038380 -0.038446 -0.046753 -0.032678 0.080525 -0.099722 0.012816 -0.061854 -0.007587 -0.007398 -0.044676 0.039996 0.021633 -0.028126 -0.056656 -0.007318 0.013631 0.005825 0.025007 0.062412 0.013236 0.010236 -0.067286
m -0.394208 0.302441 0.453413 -0.094596 0.387518 -0.099816 -0.142088 -0.316853 0.162165 0.005207 -0.138588 -0.289347 -0.343688 0.404558 0.074768 -0.058528 0.136858 -0.218869 -0.238319 0.070209 -0.174171 -0.059360 -0.181337 0.118889 -0.277626 0.061457 0.103901 0.014706 0.010349 -0.350368 0.367463 -0.563623 0.525016 -0.410085 0.292137 -0.078229 -0.294675 0.123646 -0.075054 0.124391 0.505604 -0.342895 0.124483 0.016433 -0.305126 -0.042219 -0.344945 -0.098078 0.021083 0.221534
manager -0.058733 0.060536 0.174254 -0.053096 0.228219 -0.055853 -0.131996 -0.140417 0.060858 0.034369 -0.048922 -0.045850 -0.025593 0.129898 0.067368 -0.061806 0.130743 -0.131309 -0.043269 -0.014574 0.040520 0.031883 -0.006493 0.035824 -0.118736 -0.054319 -0.086267 -0.056410 0.043795 -0.057999 0.148580 -0.068930 0.089784 -0.231736 0.075818 -0.068640 -0.114694 -0.037568 0.001672 0.093934 0.167708 -0.193419 0.086072 0.051482 -0.151536 0.044594 -0.052211 0.000327 -0.054223 0.067616
modules 0.287205 -0.147729 -0.137653 0.098350 -0.165203 0.049770 0.109873 0.069299 -0.070852 0.033421 -0.015059 0.160321 0.163943 -0.255180 0.100560 -0.039803 -0.079073 0.052376 0.155951 0.066195 0.039220 -0.003519 0.073235 0.008457 0.067505 0.007732 -0.062000 0.003019 -0.024090 0.112211 -0.077481 0.178418 -0.284193 0.145598 -0.160845 0.028139 0.167417 -0.062334 0.007844 -0.032095 -0.085470 0.126298 0.030083 0.008625 0.117070 0.050365 0.145362 0.022789 -0.084285 -0.072818
none 0.262829 -0.150319 -0.129401 0.050238 -0.162908 -0.008444 0.091758 0.078707 -0.067194 0.023951 0.003655 0.132010 0.142404 -0.212507 0.074677 -0.021160 -0.099975 0.071963 0.134121 0.029413 0.021114 0.008234 0.036591 -0.005826 0.057025 0.002324 -0.057538 0.016213 -0.026049 0.145366 -0.092659 0.179748 -0.269848 0.154568 -0.130124 0.048646 0.173229 -0.062240 0.006685 -0.058802 -0.108207 0.132704 0.035597 0.011002 0.150789 0.032717 0.139169 0.036385 -0.081827 -0.062093
not -0.059797 0.014172 0.107027 0.054911 -0.153224 -0.021479 -0.090618 -0.191207 -0.140967 -0.081765 0.070753 0.178756 0.040880 -0.086942 0.157278 0.000893 0.077985 0.097648 -0.012322 0.071072 0.195507 0.031824 0.176054 0.132710 0.037398 -0.029274 0.012717 -0.062258 -0.049909 -0.087466 -0.064041 0.008143 0.118484 -0.017138 -0.083098 0.046697 0.112798 -0.128642 -0.054327 0.056020 -0.123226 -0.014254 -0.055496 0.007100 -0.199568 0.110478 -0.073740 0.167494 0.039901 -0.029951
options 0.412907 -0.217309 -0.256167 0.150101 -0.275877 0.068800 0.131566 0.286668 -0.121649 0.038986 -0.010184 0.131998 0.277124 -0.335007 0.086553 -0.003153 -0.131888 0.215505 0.327033 0.021167 -0.012048 0.032259 0.099877 -0.052197 0.167859 -0.128654 -0.038476 -0.017970 -0.029466 0.291067 -0.222972 0.409694 -0.517637 0.272934 -0.194552 0.031565 0.368976 -0.127285 0.114111 -0.034261 -0.205766 0.278955 -0.025609 0.014463 0.302244 0.078384 0.254335 0.026102 -0.180547 -0.074966
org -0.228041 -0.054915 0.107979 -0.025986 0.077454 0.138000 0.006246 -0.193238 -0.085835 -0.054302 -0.036055 0.103684 -0.106047 0.010898 0.063155 -0.000522 -0.000124 -0.108034 -0.146577 0.099336 0.211501 0.066794 0.144274 0.065172 0.056366 0.006931 -0.016759 -0.148528 -0.073558 -0.261238 0.004899 0.059435 0.174061 -0.162767 -0.063610 0.070794 -0.210349 -0.068245 -0.013328 0.082788 -0.044910 -0.126010 0.063934 -0.080459 -0.230249 -0.048117 -0.043103 0.055743 0.157161 -0.066946
path 0.280483 -0.072451 -0.133951 0.115935 -0.182812 -0.038376 0.008013 0.080806 -0.149916 -0.014852 0.369471 0.286167 0.317330 -0.132242 -0.055024 0.058995 -0.002648 0.090906 -0.021144 -0.123445 0.314267 -0.058531 0.146775 -0.124496 0.161148 0.056966 -0.119016 -0.065766 -0.002800 0.268614 -0.160149 0.198268 -0.131380 0.248030 -0.169071 0.093383 0.145776 -0.090105 -0.025578 -0.090786 -0.433097 0.149051 -0.161326 0.020199 0.074452 0.077788 0.123168 0.241122 0.057492 -0.181851
pid -0.309431 0.056115 0.285492 -0.036250 0.196179 0.074389 -0.088237 -0.112284 -0.013128 -0.069073 -0.017690 -0.050436 -0.086919 0.128924 -0.014356 -0.048474 0.081635 -0.214481 -0.045388 0.033619 -0.031776 -0.023260 0.039500 0.049263 0.103936 0.001257 0.035107 -0.053554 0.036453 -0.232837 0.123727 -0.127874 0.263914 -0.150317 0.176200 0.021195 -0.181939 0.000420 -0.038511 0.046263 0.122645 -0.089254 0.045607 -0.027217 -0.266518 -0.064068 -0.180401 0.012197 0.066641 -0.106377
prodnotes -0.150750 -0.066276 -0.019070 -0.034820 -0.016148 0.035995 -0.004768 -0.101405 -0.097767 -0.040101 0.055801 0.150319 -0.017777 -0.027358 0.018149 0.045667 0.009209 -0.046591 -0.132046 0.014136 0.183996 0.078325 0.106081 0.051705 0.027765 0.028331 -0.063650 -0.098245 -0.080432 -0.096765 -0.076058 0.076984 0.091031 -0.060225 -0.087553 0.014601 -0.114136 -0.032192 -0.018382 0.028718 -0.128859 -0.029076 -0.010840 -0.082038 -0.113463 -0.029413 -0.015498 0.105641 0.121402 -0.099704
read 0.104489 0.005244 -0.045704 0.090802 -0.047046 0.132059 0.039010 0.030008 -0.082453 0.033035 0.016413 0.065781 0.050539 -0.162975 0.109177 -0.049783 0.000317 -0.046846 0.051281 0.055367 0.016113 0.034599 0.099897 0.021331 0.100184 -0.061965 -0.010331 -0.064969 0.011817 -0.032997 0.023730 0.073281 -0.081439 -0.038309 -0.040432 -0.040382 0.058756 -0.041752 0.074209 0.057094 0.020517 -0.002325 -0.031168 -0.021574 -0.023800 0.041287 0.029010 0.008419 0.011375 -0.020697
recommended -0.133408 0.138605 0.050298 -0.007312 0.051111 -0.067643 -0.055742 -0.110954 0.069670 0.038405 0.002192 -0.060956 -0.154524 0.070926 0.012515 0.044851 0.043898 -0.158420 -0.087601 -0.063875 -0.064606 -0.023418 -0.104432 0.044469 -0.204891 0.063378 -0.005361 -0.010209 0.020725 -0.156521 0.151391 -0.286843 0.193995 -0.143673 0.098153 -0.054266 -0.142148 0.162424 -0.079110 0.007371 0.200393 -0.142094 0.052097 -0.031634 -0.092962 -0.005061 -0.096905 0.007773 0.087846 0.114204
see 0.058801 -0.046071 -0.060497 0.200357 -0.027862 0.263771 0.112943 -0.035149 -0.046140 0.026795 -0.081923 0.110789 0.071100 -0.155127 0.057238 -0.019149 -0.034691 -0.021657 -0.045484 0.095804 0.078020 -0.013784 0.115269 0.015361 0.023081 0.009574 -0.005481 -0.074177 0.022976 -0.153337 0.074055 0.041885 -0.098269 0.017171 -0.051967 0.042626 -0.010042 -0.049339 0.071352 0.076205 0.029809 -0.114885 0.013212 -0.023731 -0.077469 -0.022933 0.052937 -0.041931 0.113119 -0.045923
session -0.407140 0.272655 0.473789 -0.054781 0.403217 -0.083269 -0.179739 -0.359012 0.180762 0.025655 -0.176341 -0.273646 -0.419937 0.369926 0.160174 -0.090277 0.143254 -0.266486 -0.193066 0.062974 -0.165833 -0.016620 -0.153573 0.115931 -0.284617 0.034256 0.096154 -0.001723 0.017984 -0.414972 0.394665 -0.545828 0.520231 -0.450268 0.279264 -0.075511 -0.292379 0.073969 -0.037187 0.174575 0.500916 -0.402935 0.156031 0.012241 -0.362024 -0.022133 -0.341970 -0.136509 0.010343 0.254186
setting 0.029071 0.185763 -0.115035 0.064524 0.099922 0.130636 0.011115 -0.062879 0.012365 0.025623 0.093832 -0.016184 0.066899 -0.015827 -0.108585 -0.054924 0.224575 -0.071855 -0.040523 -0.149705 0.036630 0.044983 0.026295 0.072105 -0.020904 0.047745 0.050787 0.076502 0.057796 -0.015278 0.157491 -0.209496 0.185436 -0.014953 0.296184 -0.242519 -0.128545 -0.008214 0.102427 0.029882 0.025649 -0.083014 -0.263353 0.096853 -0.079411 0.019244 0.059904 -0.228072 0.206726 0.105242
signal -0.202464 0.002682 0.083076 0.313586 0.019424 0.130066 0.109850 -0.354787 -0.032557 0.186813 -0.267200 0.110203 -0.199323 -0.171884 0.124047 0.072551 -0.091098 -0.174333 -0.258703 0.190081 0.100677 -0.001937 -0.001233 0.211233 -0.256959 0.184607 0.024857 -0.136137 0.009561 -0.465747 0.136973 -0.311415 0.191158 -0.256067 -0.096979 0.053669 -0.259073 0.213967 -0.075771 0.160040 0.293743 -0.353858 0.133695 -0.078434 -0.295845 -0.053969 -0.158203 0.007874 0.290540 0.026965
snappy 0.270844 -0.071621 -0.043883 0.080091 0.012342 -0.022473 -0.039440 0.037494 -0.072723 0.041276 0.095176 0.206428 0.212498 -0.076202 0.019860 -0.000064 0.052546 0.005262 0.068041 -0.096164 0.178945 -0.009243 0.071314 -0.068212 0.039108 -0.042447 -0.136157 -0.057734 0.078911 0.152155 -0.027090 0.175580 -0.204564 0.041662 -0.107376 0.012764 0.079935 -0.076030 0.070328 -0.026524 -0.169837 0.020340 -0.002605 0.034244 0.059252 0.074643 0.120726 0.095005 -0.067326 -0.087887
sock 0.059301 -0.098768 0.009239 -0.018824 0.015284 0.075650 0.095265 0.077800 -0.058534 -0.046394 -0.091453 0.049663 0.043217 -0.047241 0.000001 0.009029 -0.093629 -0.002183 0.077279 -0.004061 0.086055 -0.028896 0.021054 -0.049238 0.129312 -0.008607 -0.027829 -0.059901 0.019435 -0.036009 -0.062309 0.178877 -0.137526 0.068499 -0.169781 0.100744 -0.008697 0.009464 0.001048 -0.036189 -0.059156 0.132323 0.126239 -0.030942 0.052444 -0.060624 0.064064 0.002073 -0.010598 -0.092731
sockets 0.175539 -0.076053 -0.102394 -0.041478 -0.071949 -0.089395 0.014594 0.164553 0.030114 -0.024103 0.047435 0.006027 0.131234 -0.000191 -0.003857 0.016068 -0.009582 0.115568 0.187699 -0.037863 -0.015870 0.005704 -0.061255 -0.075022 0.103230 -0.066719 -0.052356 -0.010561 0.005545 0.270971 -0.144554 0.197844 -0.246600 0.163768 -0.021010 0.014387 0.214741 -0.083530 -0.016651 -0.032535 -0.124625 0.192769 -0.031339 0.043112 0.158947 -0.003944 0.103758 0.066190 -0.173195 -0.048422
strongly -0.199608 0.160753 0.116082 -0.055750 0.062708 -0.084232 -0.114572 -0.166638 0.032918 0.004939 0.059858 -0.033468 -0.150063 0.094697 0.039196 0.010111 0.104547 -0.137313 -0.103505 -0.025752 -0.022934 0.009237 -0.024377 0.074695 -0.118020 0.040584 0.008976 -0.019472 -0.008001 -0.175605 0.122946 -0.276201 0.253066 -0.168682 0.117045 -0.081825 -0.132136 0.087764 -0.061100 0.038642 0.145198 -0.118631 -0.008897 -0.023361 -0.180729 0.023949 -0.143778 0.047021 0.084864 0.086967
target 0.288015 -0.070172 -0.122127 0.075357 -0.214705 0.099115 0.029822 0.119578 -0.150681 0.008237 0.178290 0.142798 0.256111 -0.245656 0.078582 -0.115338 0.016795 0.126841 0.259869 -0.006024 0.064634 0.066501 0.180504 0.023591 0.118454 -0.162746 -0.016372 0.003930 -0.042070 0.157197 -0.085738 0.163614 -0.176976 0.085559 -0.012998 -0.086640 0.208087 -0.182491 0.099867 0.079633 -0.155413 0.183466 -0.198598 0.072038 0.054438 0.097595 0.145458 -0.004671 -0.034617 0.002245
tcmalloc 0.186772 -0.127287 -0.150646 0.065584 -0.140798 -0.026551 0.067274 0.143564 -0.051849 0.010632 0.017553 0.093529 0.083419 -0.182623 -0.044496 0.021346 -0.059051 0.075713 0.131953 -0.035775 -0.018004 -0.002256 0.016501 -0.054261 0.056505 -0.025525 -0.028589 0.019990 -0.028122 0.179485 -0.104973 0.242670 -0.261110 0.136216 -0.082220 0.042370 0.151565 -0.047117 0.014978 -0.066777 -0.106155 0.135922 0.005867 0.005285 0.124749 0.030571 0.108797 0.015027 -0.095615 -0.065123
terminate -0.367398 0.053058 0.199593 0.276875 0.144625 0.206620 0.122607 -0.386142 -0.042328 0.147055 -0.247122 0.008952 -0.286056 -0.065908 0.075917 0.003896 -0.053967 -0.285562 -0.351646 0.113315 0.058219 -0.057058 0.001747 0.227736 -0.320376 0.220535 0.083505 -0.091896 0.029692 -0.636186 0.279367 -0.413687 0.427211 -0.278559 -0.082066 0.063179 -0.450118 0.280143 -0.097088 0.153894 0.394478 -0.485670 0.216289 -0.129568 -0.331112 -0.062332 -0.164160 -0.106735 0.354942 0.082768
terminated -0.294262 0.038789 0.161938 0.308531 0.088384 0.154474 0.101352 -0.391915 -0.021450 0.169271 -0.276247 0.066800 -0.253765 -0.109447 0.113827 0.056887 -0.078623 -0.246886 -0.325035 0.192115 0.093574 -0.033903 -0.013397 0.239507 -0.292157 0.206872 0.053214 -0.131717 0.019841 -0.558089 0.190621 -0.397175 0.324091 -0.293971 -0.083061 0.057158 -0.353837 0.243740 -0.107514 0.166709 0.353054 -0.417278 0.165681 -0.101819 -0.341876 -0.069438 -0.196852 -0.025572 0.339759 0.057357
tmp -0.158888 0.081141 0.208154 -0.053856 0.198034 0.063911 0.003843 -0.162349 -0.039623 -0.035735 -0.150381 -0.022770 -0.101087 0.134477 0.032390 -0.019969 -0.016345 -0.164579 -0.101299 0.010708 0.124920 -0.051018 0.007642 0.000107 -0.026769 0.081086 0.014164 -0.098813 0.057374 -0.258651 0.093376 -0.083341 0.190106 -0.159200 -0.103863 0.095252 -0.241606 0.078745 -0.020788 0.035931 0.152797 -0.108245 0.173073 -0.059674 -0.162145 -0.082072 -0.090041 0.020902 0.101602 -0.022219
unrestricted 0.158475 -0.062625 -0.102823 -0.067355 -0.177000 -0.100407 -0.044939 0.052852 -0.080859 -0.019393 0.173418 0.111626 0.117905 -0.132508 0.051777 -0.037771 0.040640 0.163981 0.136688 -0.044454 0.042627 0.034249 0.107246 -0.051043 0.169587 -0.117471 -0.053957 0.045213 -0.027526 0.214556 -0.144179 0.192962 -0.204756 0.164757 -0.031307 -0.022898 0.219663 -0.128931 0.080233 -0.078143 -0.260792 0.139849 -0.138145 0.044684 0.095100 0.140067 0.061521 0.078013 -0.069213 -0.055388
waiting -0.079577 -0.005693 0.047307 -0.170711 -0.123708 -0.061317 -0.279904 -0.043499 -0.019356 -0.130946 0.227102 0.105316 0.017152 0.070284 -0.056588 -0.089683 0.143446 0.218272 0.071489 -0.066898 0.025923 0.129246 0.105987 0.039088 0.073681 -0.151263 0.067538 0.172241 -0.053811 0.150041 -0.036202 0.045822 0.090582 0.060159 0.146083 -0.037919 0.092947 -0.340109 0.077506 0.011651 -0.260636 0.057941 -0.330325 0.083159 -0.153229 0.119451 -0.026668 0.032283 0.036295 0.003526
will -0.370741 0.067855 0.221420 0.292898 0.139350 0.178704 0.109291 -0.407973 -0.031119 0.142789 -0.258748 0.021771 -0.291516 -0.061403 0.093095 0.018740 -0.057008 -0.286836 -0.366537 0.160193 0.077451 -0.054419 -0.013674 0.249988 -0.316423 0.222125 0.081448 -0.110084 0.026285 -0.624943 0.256846 -0.440402 0.424302 -0.311803 -0.067403 0.059455 -0.432872 0.269495 -0.112637 0.168330 0.396068 -0.477876 0.194103 -0.124359 -0.360279 -0.070736 -0.203638 -0.067789 0.373527 0.082134
wiredtigerkvengine 0.179935 -0.039140 -0.344052 0.203548 -0.207585 0.100034 0.031499 -0.181658 -0.081348 0.150220 0.075092 0.173108 0.042136 -0.332689 -0.023061 -0.057639 -0.024596 0.153218 -0.000607 -0.057540 0.068072 0.201852 0.145959 0.090516 -0.206515 -0.047449 0.029303 0.099864 -0.032325 0.067362 -0.016784 0.106043 -0.115836 0.008339 0.050726 -0.037166 0.056341 -0.087171 0.116488 0.015904 -0.201743 -0.234167 -0.181752 0.062739 -0.063231 0.138861 0.138524 -0.116590 0.202596 0.092483
write -0.113657 0.111628 0.108903 -0.033200 0.128837 0.066365 -0.071972 -0.092315 0.004403 0.001069 0.055219 -0.045251 -0.095309 0.044265 0.095628 -0.062412 0.077025 -0.172018 -0.120171 0.054012 0.003022 0.045657 0.073731 0.059873 0.032102 -0.052610 -0.017435 -0.086360 0.004361 -0.147729 0.150654 -0.104615 0.190826 -0.216582 0.117090 -0.086364 -0.082120 -0.019825 0.003823 0.092555 0.112381 -0.172386 -0.018888 0.004621 -0.160592 0.032750 -0.095111 0.002884 0.064043 0.081774
xfs -0.213770 0.136690 0.101023 -0.015162 0.144738 0.032114 -0.058374 -0.136830 0.021911 -0.020966 0.020346 -0.009498 -0.090629 0.110708 -0.011105 -0.035219 0.119270 -0.086214 -0.120028 -0.033841 0.047716 0.005393 0.031123 0.059657 -0.060293 0.060086 0.034862 0.036196 0.023567 -0.161574 0.087743 -0.190026 0.274683 -0.106503 0.075409 -0.064107 -0.191251 0.032985 -0.009344 0.035919 0.123110 -0.119391 -0.048174 -0.011265 -0.193528 -0.060847 -0.115319 -0.030919 0.120554 0.011611
recovering -0.356608 0.124896 0.161164 -0.184137 0.125030 -0.011928 -0.043676 -0.087116 0.076695 -0.053747 -0.050159 -0.188926 -0.144073 0.259913 -0.108939 0.069446 -0.003136 -0.116921 -0.276118 0.084904 -0.072932 -0.017960 -0.090874 -0.002258 -0.086589 0.093664 0.109653 0.012826 -0.013973 -0.163378 0.021670 -0.250868 0.325261 -0.159497 0.094886 0.016637 -0.233294 0.131667 -0.103217 0.019545 0.177115 -0.077250 0.063827 -0.074673 -0.126636 -0.088093 -0.185020 -0.034308 0.129605 0.045269
through -0.093130 -0.025661 -0.027422 -0.136285 -0.046337 -0.041856 0.070782 0.093234 0.035649 -0.035725 -0.043284 -0.108412 -0.004639 0.089236 -0.151752 0.089356 -0.136310 0.044121 -0.100904 0.053126 -0.091834 -0.007941 -0.096862 -0.072357 0.001469 0.012957 0.043086 0.034202 -0.027873 0.081371 -0.153740 0.056710 -0.012609 0.049542 -0.014679 0.059352 -0.013016 0.099688 -0.076200 -0.080154 -0.003880 0.109630 0.048980 -0.050259 0.131814 -0.078596 -0.027876 0.016270 0.050745 -0.020236
by -0.247324 0.184505 0.164054 -0.086638 0.187159 0.011253 -0.118198 -0.148933 0.099700 -0.033073 0.023341 -0.106267 -0.142243 0.202277 -0.078948 -0.040688 0.155329 -0.138739 -0.129517 -0.025811 -0.020820 -0.001044 -0.031195 0.070905 -0.096967 0.040847 0.101581 0.055619 0.035744 -0.195314 0.215754 -0.377533 0.347307 -0.189165 0.213699 -0.104899 -0.222841 0.069629 0.014350 0.033825 0.183275 -0.157302 -0.078898 0.021798 -0.223033 -0.034482 -0.126055 -0.130715 0.139769 0.102150
created -0.347821 0.140197 0.245253 -0.061239 0.193479 -0.020822 -0.077036 -0.214921 0.102549 -0.006700 -0.112874 -0.130296 -0.254809 0.215005 -0.010595 0.020715 0.047378 -0.215547 -0.228740 0.082510 -0.015500 -0.045908 -0.072681 0.053555 -0.130588 0.091521 0.075219 -0.041337 0.008427 -0.321103 0.207339 -0.361017 0.327645 -0.266007 0.074937 -0.004518 -0.253431 0.155953 -0.081923 0.049131 0.272307 -0.223826 0.126890 -0.058439 -0.236219 -0.080026 -0.210607 -0.020884 0.096133 0.077522
files -0.299109 0.002866 0.226922 0.061145 0.183007 -0.061059 0.064461 -0.095472 0.128199 0.065020 -0.303511 -0.100535 -0.275614 0.140471 0.130702 0.134809 -0.137008 -0.241802 -0.237003 0.119272 -0.066816 -0.126681 -0.162468 0.023113 -0.210564 0.181898 -0.004368 -0.146370 0.014959 -0.344105 0.078609 -0.114935 0.088691 -0.160872 -0.191678 0.198378 -0.234929 0.293058 -0.135558 0.012121 0.369770 -0.261285 0.403629 -0.182534 -0.095226 -0.115782 -0.188030 0.100813 -0.039782 -0.078063
in -0.346848 0.020969 0.256510 0.054019 0.205665 -0.067024 0.057242 -0.133240 0.122809 0.065698 -0.324809 -0.120371 -0.299273 0.161968 0.123374 0.137238 -0.136074 -0.260001 -0.271002 0.126633 -0.057268 -0.129854 -0.172275 0.034924 -0.219250 0.193638 0.004292 -0.149803 0.015559 -0.390183 0.106545 -0.155620 0.137812 -0.201758 -0.189887 0.199523 -0.275533 0.302703 -0.150711 0.018698 0.393630 -0.288055 0.418332 -0.188258 -0.121276 -0.136605 -0.208070 0.107556 -0.023689 -0.067814
so -0.061111 0.235059 -0.016188 -0.045115 0.139951 0.086685 -0.101479 -0.111289 0.019824 -0.027897 0.167795 -0.047974 0.035148 0.112249 -0.135373 -0.080060 0.278850 -0.064214 -0.064437 -0.151674 0.018579 0.043917 0.033620 0.077850 0.001919 0.036085 0.081781 0.109078 0.059067 -0.031481 0.196498 -0.277800 0.309277 -0.058347 0.382321 -0.256445 -0.161096 -0.063675 0.115783 0.031844 0.008732 -0.115179 -0.314536 0.122377 -0.164749 0.039782 -0.012265 -0.237642 0.234752 0.130832
g -0.011303 0.013168 -0.026179 0.047069 0.055630 0.004742 0.040294 0.034416 -0.018871 0.003024 0.004840 -0.018761 0.065214 0.011292 -0.059011 0.027904 0.016102 0.037117 0.015750 -0.061940 0.024926 0.023796 -0.024696 -0.019547 -0.013197 -0.057509 0.055715 -0.032931 0.054738 0.021819 -0.029402 0.033009 -0.000825 -0.009706 0.089587 -0.043132 0.008697 0.044647 0.032994 -0.022969 -0.034299 -0.003504 -0.061743 -0.027486 0.041429 -0.000560 -0.027636 -0.071291 0.042268 0.022646
mar 0.095788 -0.062858 -0.105439 0.049450 -0.020486 -0.016264 0.070674 0.111416 -0.018901 0.011199 0.014545 0.016631 0.104855 -0.051034 -0.064959 0.032539 -0.030895 0.100304 0.084452 -0.069506 0.013961 0.024869 -0.030611 -0.046531 0.010315 -0.061354 0.019193 -0.004503 0.035373 0.129403 -0.092255 0.150646 -0.133235 0.077893 0.025423 -0.012734 0.087960 0.024601 0.017672 -0.055772 -0.113791 0.073143 -0.053851 -0.018719 0.122428 0.011946 0.035201 -0.048145 -0.007213 -0.017864
min -0.415990 0.176421 0.401563 -0.006374 0.312358 -0.004044 -0.223946 -0.318018 0.131760 0.031547 -0.199898 -0.177082 -0.451899 0.281803 0.184403 -0.114593 0.120619 -0.284945 -0.169336 0.061196 -0.098485 0.041542 -0.035838 0.110158 -0.230814 0.012559 0.072280 -0.024310 0.003980 -0.448146 0.325150 -0.415159 0.474179 -0.451473 0.213051 -0.104275 -0.297155 0.016289 0.018796 0.200474 0.393613 -0.432081 0.123557 0.002364 -0.427370 -0.037174 -0.248422 -0.140767 0.083069 0.228867
mmapv -0.072044 0.044638 0.030346 0.003062 0.120031 0.040740 -0.060071 -0.091491 0.049611 0.029704 0.012868 -0.013461 -0.060498 0.084951 -0.034642 -0.034967 0.107086 -0.105493 -0.097087 -0.012721 0.027885 -0.033744 -0.002422 -0.010047 -0.050631 0.098768 0.009460 -0.037423 0.038325 -0.106026 0.154275 -0.139999 0.159343 -0.082035 0.114276 -0.089210 -0.118355 0.028693 -0.014204 0.033432 0.058220 -0.135686 -0.030714 0.016853 -0.096208 -0.030596 -0.049696 -0.067306 0.086411 0.074616
progress -0.034360 0.013551 -0.000432 -0.062730 -0.010943 -0.083542 0.057784 0.029898 0.023758 0.014781 0.031651 -0.069593 -0.071033 0.080840 -0.093338 0.012109 -0.181713 0.009743 -0.064150 0.017723 -0.040552 0.003354 -0.111278 -0.104351 0.002415 -0.006373 0.023289 0.008450 -0.005822 0.031558 -0.102313 -0.002783 0.030047 0.018521 0.026490 0.035726 0.017819 0.070293 -0.005709 -0.082056 -0.068857 0.036957 0.041276 -0.084581 0.122872 -0.039473 -0.047879 0.014023 0.026769 0.017817
ubuntu 0.126262 -0.074768 -0.120959 0.085238 -0.085058 0.011121 0.054100 0.106357 -0.034978 0.004717 -0.013873 0.038787 0.057266 -0.124995 -0.010872 0.054645 -0.035699 0.085315 0.062931 -0.045005 -0.008301 0.007636 0.008745 -0.045224 0.058401 -0.006409 -0.026605 -0.012223 0.021074 0.099687 -0.090465 0.160868 -0.180364 0.121145 -0.079883 0.027026 0.127585 -0.005087 0.004773 -0.039112 -0.078390 0.115356 0.015604 -0.017177 0.125170 0.024853 0.065315 0.038296 -0.040645 -0.033172
verbose -0.364916 0.182186 0.209979 -0.145214 0.145439 -0.047127 -0.024686 -0.161528 0.065883 -0.040560 0.009306 -0.173401 -0.238389 0.259740 -0.111997 -0.002760 -0.109288 -0.130894 -0.266776 0.109926 -0.056285 -0.016608 -0.111558 -0.010831 -0.077118 0.027860 0.084996 0.000311 -0.020329 -0.216973 0.029132 -0.261740 0.400354 -0.185432 0.162864 0.008961 -0.199811 0.115567 -0.070396 -0.017846 0.141019 -0.123773 0.045275 -0.107395 -0.106209 -0.068723 -0.210429 0.017429 0.180470 0.097419
may 0.123312 -0.116503 -0.130761 -0.017432 -0.073786 -0.034945 0.045952 0.108996 -0.018278 0.023005 0.020052 0.010007 0.098519 -0.068907 -0.051515 0.019392 -0.079468 0.085941 0.104837 -0.033561 -0.013619 0.011259 -0.024790 -0.076640 0.034191 -0.050112 0.015775 0.014849 0.006998 0.172757 -0.131522 0.159830 -0.187464 0.138325 -0.059777 0.033879 0.134910 0.005835 0.024952 -0.077073 -0.137658 0.100605 -0.005208 -0.004158 0.149853 -0.004341 0.090370 -0.015146 -0.024995 -0.050653
admin -0.276115 0.219844 0.212761 -0.084507 0.132417 0.028568 -0.163161 -0.210092 0.017756 -0.042045 0.090936 -0.097856 -0.131672 0.226542 -0.012708 -0.054262 0.162865 -0.064309 -0.156028 0.026823 0.014952 0.025738 0.053568 0.095510 -0.021606 -0.005804 0.056996 0.008412 0.022402 -0.183903 0.166501 -0.295302 0.415969 -0.207124 0.224929 -0.112685 -0.152870 -0.061573 0.011707 0.084702 0.108146 -0.154330 -0.147341 0.056631 -0.230177 0.032761 -0.153511 -0.054280 0.116279 0.117003
at -0.073077 -0.002629 0.047951 0.009379 0.081037 -0.016735 -0.002824 -0.029475 -0.032802 0.018267 -0.012439 -0.013459 -0.016166 0.012187 -0.011846 0.007233 -0.010948 -0.033376 -0.006628 -0.013366 0.012593 -0.016221 -0.023545 -0.014070 0.027906 -0.015615 -0.002579 -0.037568 0.015268 -0.047188 -0.026797 0.019019 0.025818 -0.019473 0.033431 0.010348 -0.013242 0.013913 -0.018983 -0.027841 -0.010220 -0.041981 0.024511 0.000862 -0.043620 -0.025821 -0.050377 0.001461 0.021210 -0.021448
loop -0.273308 0.135585 0.191930 -0.037037 0.182131 -0.027281 -0.070337 -0.155602 0.006907 -0.011201 -0.029815 -0.079948 -0.147229 0.174025 -0.020070 0.013413 0.008379 -0.149875 -0.163059 0.051924 0.017010 -0.033300 -0.048606 0.031799 -0.035768 0.021844 0.028688 -0.050847 0.016836 -0.207688 0.054126 -0.196945 0.290349 -0.179855 0.126841 0.008749 -0.168622 0.055634 -0.074363 0.027960 0.114137 -0.158900 0.032540 -0.043539 -0.182046 -0.052107 -0.177829 0.007481 0.103334 0.034330
main -0.340114 0.166440 0.234351 -0.086658 0.201960 -0.032515 -0.109812 -0.182298 0.053267 -0.024684 -0.013627 -0.106903 -0.176033 0.218482 -0.005120 0.009935 0.044857 -0.180268 -0.215765 0.063272 0.000836 -0.038220 -0.070599 0.032889 -0.098523 0.058900 0.061901 -0.039788 0.012171 -0.257417 0.117780 -0.320143 0.375698 -0.222071 0.127814 -0.008153 -0.221986 0.071251 -0.067710 0.048084 0.160565 -0.191172 0.036903 -0.041980 -0.202625 -0.068423 -0.227722 -0.033656 0.108333 0.087608
system -0.228815 0.204323 0.172526 -0.074135 0.102573 0.032716 -0.155309 -0.183732 -0.011668 -0.030540 0.083974 -0.090841 -0.103793 0.200120 -0.006769 -0.043282 0.155981 -0.035928 -0.119593 0.002765 0.039583 0.030524 0.056306 0.079095 -0.002434 -0.022312 0.040697 0.004100 0.015905 -0.142850 0.126323 -0.247357 0.372873 -0.179478 0.204396 -0.122931 -0.109040 -0.066845 0.029294 0.078537 0.083756 -0.123916 -0.156270 0.065162 -0.179283 0.027742 -0.120315 -0.039628 0.092139 0.119434
ad -0.210607 0.087121 0.181188 -0.078261 0.164175 -0.021245 -0.109827 -0.159027 0.086510 -0.007755 0.001567 -0.097187 -0.127459 0.164442 0.056321 -0.053772 0.111477 -0.120355 -0.139443 -0.010581 0.025715 -0.021629 -0.011299 0.054351 -0.100023 0.065420 0.034826 -0.021477 -0.014462 -0.177368 0.139713 -0.269447 0.273994 -0.173015 0.100844 -0.022112 -0.177363 0.022333 -0.043561 0.060041 0.147766 -0.152904 0.028735 0.000115 -0.193472 -0.015865 -0.115205 -0.028296 0.026832 0.045580
baacfbd 0.014942 -0.009390 0.025380 -0.032533 0.013169 -0.022394 0.003601 0.021859 0.018418 -0.007813 -0.006635 -0.032756 -0.008554 0.023501 -0.011214 -0.003982 -0.044183 0.024060 -0.011365 0.014031 -0.027452 -0.006174 -0.052586 -0.020782 -0.000732 0.000767 -0.004964 0.014854 -0.008543 0.027749 0.000438 -0.024090 -0.009011 0.003915 0.037567 0.017506 -0.002336 0.020692 -0.037815 -0.007365 -0.002298 0.018085 -0.016927 -0.023791 0.001749 -0.015006 -0.022636 -0.004806 0.006587 -0.008995
carts -0.069227 0.034354 0.063109 -0.004338 0.049997 -0.021072 -0.009872 -0.076726 0.018649 -0.000725 -0.037339 -0.012890 -0.063961 0.027330 0.001164 0.000904 -0.014382 -0.056410 -0.094651 0.079127 0.001680 -0.017122 -0.020489 0.001162 -0.025257 0.030194 -0.004939 -0.013219 -0.014833 -0.053767 0.055858 -0.102405 0.072124 -0.089609 -0.024551 0.003028 -0.034492 0.034159 -0.039020 0.013163 0.080318 -0.051191 0.064588 -0.045934 -0.050358 -0.031769 -0.088902 0.029294 -0.008397 0.020406
conf -0.110221 0.091227 0.032701 -0.036068 0.111528 0.047554 -0.029520 -0.083628 0.028090 -0.014823 -0.015026 -0.037745 -0.047326 0.070338 -0.025013 -0.024281 0.076761 -0.059123 -0.046194 -0.014637 0.008743 0.018986 0.003392 0.039955 -0.009547 0.009644 0.047772 0.023548 0.022663 -0.103333 0.099613 -0.122485 0.149210 -0.074065 0.115847 -0.039069 -0.124068 -0.007327 0.013965 0.020260 0.043403 -0.098636 -0.052161 0.025563 -0.112041 -0.027733 -0.026847 -0.078649 0.111189 0.045551
dc -0.087938 0.045653 0.096401 -0.068657 0.079476 -0.013098 -0.044444 -0.047993 0.037856 -0.027437 0.002487 -0.059159 -0.072374 0.092102 -0.003070 -0.029354 0.012411 -0.037388 -0.079834 0.029316 -0.022164 -0.003708 -0.050805 0.008467 -0.037549 0.015417 -0.003609 0.009977 0.003068 -0.046700 0.068010 -0.122088 0.132214 -0.075910 0.091536 0.012593 -0.083175 0.011642 -0.035062 0.030788 0.060939 -0.044132 -0.023591 -0.012495 -0.089222 -0.008902 -0.082721 -0.007824 0.032503 0.015051
debian 0.096830 -0.076165 -0.095525 0.052689 -0.083298 0.014708 0.047862 0.075897 -0.021876 0.000010 -0.029379 0.029659 0.053316 -0.094528 -0.000691 0.041226 -0.043092 0.081764 0.073611 -0.020055 -0.000441 0.011098 0.016433 -0.034975 0.041540 -0.021338 -0.019456 -0.023096 0.010590 0.077493 -0.070297 0.140037 -0.147314 0.093597 -0.063940 0.014380 0.110219 -0.021093 0.020160 -0.030529 -0.074165 0.073463 0.012665 -0.011101 0.106162 0.017188 0.062715 0.022042 -0.045723 -0.040642
done -0.187888 0.067636 0.039563 0.148873 0.064790 0.122671 0.092647 -0.241214 -0.017047 0.060008 -0.116326 0.025119 -0.130266 -0.048095 0.105828 -0.036663 0.000988 -0.111364 -0.152478 0.128757 0.015743 0.038128 0.044021 0.125285 -0.164553 0.051400 0.026717 -0.068370 0.023086 -0.329892 0.165787 -0.215856 0.188580 -0.203845 0.049419 0.002387 -0.165663 0.105223 0.000759 0.080140 0.206411 -0.294227 0.083220 -0.023167 -0.217908 -0.020500 -0.102919 -0.065851 0.169233 0.069801
etc -0.178416 0.114830 0.128572 -0.067279 0.123958 0.014178 -0.087282 -0.081689 0.041101 -0.032840 -0.009702 -0.085036 -0.107425 0.142631 -0.000424 -0.031122 0.081495 -0.063202 -0.058459 0.037738 -0.023545 0.015202 -0.002870 0.043521 -0.002863 -0.010645 0.067421 0.006487 -0.003084 -0.124275 0.086117 -0.145196 0.195099 -0.123108 0.111823 -0.026663 -0.122126 -0.009495 0.019659 0.051969 0.084069 -0.097371 -0.010842 0.018134 -0.128259 -0.019629 -0.080026 -0.069912 0.078715 0.077494
fc -0.079754 0.047098 0.105738 -0.039686 0.096175 -0.005864 -0.083680 -0.102092 0.051585 -0.000283 0.029766 -0.038012 -0.057526 0.057568 0.058633 -0.064022 0.097357 -0.061016 -0.027962 -0.028836 0.050631 -0.009354 0.005092 0.027105 -0.066764 0.032507 0.020783 -0.008219 -0.013948 -0.075175 0.118738 -0.149100 0.131813 -0.084551 0.075708 -0.023549 -0.090087 -0.036883 0.016528 0.036366 0.068186 -0.097672 -0.008359 0.018957 -0.119037 0.004037 -0.024409 -0.038832 -0.009656 0.023372
fd -0.152451 0.075356 0.136698 -0.041587 0.093513 -0.032986 -0.101572 -0.119363 0.036538 -0.004295 -0.002740 -0.050460 -0.151331 0.122368 0.042441 0.003772 0.088313 -0.107516 -0.086810 -0.002170 -0.011300 -0.008842 0.028491 0.059814 -0.059361 0.035811 0.009256 0.006861 0.006745 -0.141405 0.128260 -0.181375 0.207551 -0.105612 0.040573 -0.008581 -0.141621 -0.016801 -0.008301 0.080152 0.107898 -0.139291 0.005686 0.020485 -0.134469 0.020572 -0.071405 0.014975 0.022181 0.059061
fda -0.145233 0.079087 0.136045 -0.056547 0.084936 -0.042933 -0.095673 -0.128549 0.027388 -0.002599 -0.008577 -0.049816 -0.131544 0.115233 0.063079 -0.022166 0.101267 -0.089671 -0.104173 0.011619 0.003752 0.009194 0.026675 0.050757 -0.060960 0.051101 -0.018760 0.007287 -0.004884 -0.149065 0.142033 -0.180572 0.187998 -0.122507 0.024648 -0.007065 -0.139667 -0.020777 -0.021434 0.080064 0.109806 -0.125444 0.032630 0.012856 -0.154219 0.007357 -0.069838 0.021367 0.017637 0.061429
fe -0.063301 0.028469 0.093513 -0.035656 0.093292 -0.005124 -0.063213 -0.114362 0.044673 0.026710 0.039538 -0.021726 -0.044073 0.042464 0.052300 -0.080437 0.124745 -0.027633 -0.014678 -0.040351 0.043644 -0.009964 0.009223 0.036485 -0.079610 0.038769 0.000140 -0.025731 -0.016555 -0.074605 0.145088 -0.158355 0.127581 -0.071935 0.060443 -0.038595 -0.069966 -0.033299 0.004364 0.037587 0.052149 -0.083737 -0.007182 0.040267 -0.104337 0.001515 -0.021976 -0.043607 -0.012648 0.047153
key -0.220916 0.167817 0.129521 -0.026233 0.112018 0.028256 -0.111164 -0.177351 0.010014 -0.016363 0.014294 -0.042821 -0.114235 0.124095 0.025503 -0.027892 0.110580 -0.085594 -0.137276 0.018283 0.035495 0.045826 0.034204 0.074316 -0.052664 -0.007023 0.041253 -0.017034 0.002454 -0.215567 0.126095 -0.234776 0.302001 -0.205824 0.134306 -0.104957 -0.156917 0.000746 0.018854 0.085181 0.105191 -0.180120 -0.092902 0.016021 -0.183136 0.014196 -0.127791 -0.017583 0.127686 0.102296
name -0.240933 0.183261 0.158803 -0.072944 0.146495 -0.002814 -0.101019 -0.157535 0.028776 -0.026537 -0.009995 -0.081387 -0.157933 0.170979 0.019354 -0.010216 0.100282 -0.131624 -0.153195 0.017773 0.012320 0.002244 -0.012092 0.060480 -0.056981 0.038376 0.041657 -0.011447 -0.006563 -0.217819 0.138949 -0.255962 0.303309 -0.194670 0.146145 -0.070542 -0.173918 0.022381 -0.032751 0.084966 0.146847 -0.157286 -0.040408 0.000360 -0.180745 -0.000168 -0.140357 -0.034644 0.093129 0.092792
non -0.078416 0.073767 0.031979 -0.021140 0.093995 -0.004788 -0.098786 -0.084409 0.032223 -0.007857 0.048637 0.020984 -0.031569 0.059825 0.004883 -0.020044 0.137401 -0.075153 -0.011254 -0.039644 0.046089 0.005480 0.016834 0.030924 -0.042846 0.031948 0.013574 0.017039 0.020514 -0.050706 0.100684 -0.131557 0.128113 -0.034324 0.104761 -0.045052 -0.072152 -0.042735 0.021509 0.034176 0.002401 -0.117447 -0.078575 0.012447 -0.128645 0.008881 -0.033470 -0.050881 0.046641 0.032420
ns -0.228166 0.136282 0.168328 -0.049414 0.124555 0.010941 -0.084241 -0.155126 0.041696 0.000972 -0.021785 -0.091061 -0.145901 0.139638 0.023654 0.005577 0.069389 -0.099954 -0.150976 0.029634 0.010921 -0.014874 -0.012375 0.046350 -0.053705 0.023251 0.034146 -0.017954 0.019236 -0.194676 0.129363 -0.231623 0.279321 -0.176417 0.104218 -0.061023 -0.132678 0.027968 -0.036679 0.074913 0.130107 -0.135909 -0.035187 -0.010559 -0.148022 0.005635 -0.135691 -0.013885 0.071258 0.065406
orders -0.084977 0.030652 0.063416 -0.009785 0.037576 -0.011027 -0.021738 -0.081139 0.016192 0.004728 -0.051788 -0.016946 -0.077556 0.025238 0.012343 0.004613 -0.018772 -0.071428 -0.107239 0.077933 -0.002754 -0.038384 -0.022505 -0.015593 -0.036731 0.043790 -0.005590 -0.020939 -0.007028 -0.065548 0.050421 -0.091508 0.084657 -0.065907 -0.024197 0.005860 -0.042697 0.038532 -0.032137 0.027947 0.076068 -0.028021 0.050665 -0.023316 -0.075971 -0.028345 -0.083813 0.037945 0.005322 0.021570
properties -0.200468 0.133438 0.093760 0.046400 0.081708 0.074891 -0.087427 -0.219501 -0.012223 0.024375 0.001568 -0.019969 -0.138802 0.082104 0.053049 -0.027593 0.087439 -0.059411 -0.138339 0.030312 0.038705 0.059654 0.078615 0.110037 -0.075001 -0.004669 0.045201 -0.034550 0.009620 -0.230899 0.119028 -0.230072 0.282035 -0.191606 0.110790 -0.103619 -0.135749 -0.006824 0.009779 0.088215 0.107271 -0.232847 -0.092798 0.029801 -0.198290 0.019242 -0.119691 -0.033362 0.152815 0.115838
records -0.211688 0.091542 0.046963 0.128661 0.129877 0.100820 0.109284 -0.237397 -0.011237 0.078625 -0.160278 0.026781 -0.158210 -0.011812 0.070500 0.020230 -0.001505 -0.132820 -0.214094 0.115601 0.018277 0.021274 -0.003573 0.117827 -0.176903 0.082112 0.015619 -0.079566 0.029516 -0.359307 0.153049 -0.235010 0.244304 -0.230389 0.026203 0.014339 -0.221049 0.145092 -0.042688 0.062031 0.219412 -0.290078 0.135645 -0.026115 -0.194555 -0.068420 -0.131708 -0.048235 0.181531 0.053509
scanned -0.240211 0.102929 0.080745 0.142113 0.122753 0.114156 0.090770 -0.268500 -0.001003 0.061057 -0.134821 0.012630 -0.174144 0.001563 0.105360 -0.009289 0.012406 -0.144852 -0.203653 0.123674 0.019583 0.027351 0.011537 0.136039 -0.188346 0.071739 0.029706 -0.081158 0.021216 -0.390483 0.191160 -0.267591 0.266547 -0.250092 0.051851 0.003179 -0.231208 0.127079 -0.030115 0.078748 0.250161 -0.321840 0.104863 -0.027645 -0.242933 -0.036417 -0.149832 -0.054046 0.185806 0.087556
secs -0.081088 0.009000 -0.048511 0.135135 0.045201 0.076336 0.136480 -0.132993 -0.024399 0.091920 -0.138198 0.053467 -0.086621 -0.086403 0.053171 0.024866 -0.050567 -0.053441 -0.117974 0.081445 0.006712 0.029197 0.003433 0.071864 -0.143984 0.067265 -0.000748 -0.055496 0.026633 -0.218698 0.056903 -0.086620 0.079815 -0.119792 -0.040196 0.022336 -0.104772 0.121085 -0.030921 0.020877 0.127355 -0.189127 0.123771 -0.013813 -0.088962 -0.042932 -0.051992 -0.040285 0.117855 0.012412
smallfiles -0.232810 0.097602 0.185608 -0.085113 0.112079 -0.016007 -0.095083 -0.158745 0.029035 -0.036551 0.032320 -0.044174 -0.112369 0.181416 -0.004176 -0.009107 0.064860 -0.113180 -0.184251 0.046470 0.058045 -0.039251 -0.006308 0.019699 -0.061192 0.089975 0.026962 -0.052420 -0.019232 -0.161500 0.097484 -0.180826 0.289347 -0.148826 0.091731 -0.004896 -0.156300 0.035780 -0.080464 0.051460 0.087312 -0.146395 0.019103 -0.019493 -0.161008 -0.035692 -0.130020 0.059018 0.089779 0.054188
total -0.250391 0.112079 0.080219 0.130373 0.149437 0.112085 0.095699 -0.261713 -0.012858 0.078814 -0.148438 0.016502 -0.181695 0.012271 0.090938 0.005055 0.014620 -0.159706 -0.221457 0.125546 0.025020 0.027132 0.002516 0.133128 -0.195160 0.091721 0.033272 -0.085617 0.024821 -0.399155 0.184518 -0.275214 0.282136 -0.259818 0.043818 0.015658 -0.254928 0.146787 -0.039163 0.070225 0.247973 -0.318154 0.125377 -0.032216 -0.227314 -0.061425 -0.152912 -0.049785 0.192097 0.076493
user -0.077103 0.019915 0.051898 -0.012384 0.049551 -0.023945 -0.029683 -0.076073 0.014468 -0.002718 -0.027021 -0.009841 -0.072118 0.033545 -0.008122 -0.005456 0.003536 -0.045411 -0.100456 0.083598 -0.001783 -0.012121 -0.029951 -0.006567 -0.038711 0.049594 -0.001226 -0.016932 0.003095 -0.048584 0.062280 -0.102810 0.068188 -0.069097 -0.013472 0.006705 -0.058532 0.028254 -0.057301 0.014165 0.094276 -0.060591 0.055392 -0.032609 -0.076463 -0.024973 -0.065729 0.024608 -0.000722 0.031193
w 0.085072 -0.050219 -0.124083 0.025236 -0.052511 0.044427 0.041795 0.058659 0.007473 -0.010093 0.031803 0.034790 0.049212 -0.072390 -0.040387 -0.002324 -0.031687 0.064475 0.036571 -0.041376 -0.010327 0.003005 -0.003605 -0.008530 0.044777 -0.003518 0.001450 0.042491 -0.007007 0.088005 -0.042069 0.080724 -0.119711 0.103638 -0.011621 -0.008368 0.048074 -0.000109 0.023936 -0.066638 -0.089071 0.062611 -0.049252 -0.002568 0.091794 0.008331 0.052947 -0.027647 0.033334 -0.030018
when -0.154558 0.088429 0.089193 -0.018498 0.163255 0.028940 -0.078886 -0.139497 0.056444 0.036645 -0.010079 -0.060247 -0.120098 0.127937 -0.035943 -0.033150 0.112538 -0.140273 -0.128226 -0.004681 0.008234 -0.027735 -0.003058 0.032221 -0.084029 0.103756 0.023761 -0.016285 0.044404 -0.178372 0.190321 -0.230425 0.259073 -0.138096 0.123472 -0.078542 -0.195773 0.063562 -0.014999 0.050444 0.138449 -0.173055 -0.015220 0.010010 -0.151213 -0.032261 -0.094808 -0.103296 0.125479 0.086722
building -0.033508 0.026096 0.041875 0.021682 0.036569 0.055252 0.002287 -0.058171 -0.014461 0.003284 -0.001305 0.004866 0.013622 -0.014638 0.013600 -0.043690 0.017003 -0.032921 -0.026544 0.039681 0.014444 -0.008712 0.015435 0.027174 -0.027951 0.002912 0.028944 0.000654 0.017399 -0.075612 0.058839 -0.061153 0.050003 -0.049221 0.036509 0.006683 -0.035279 -0.005826 0.022565 0.048783 0.053989 -0.054161 0.018160 -0.004553 -0.094513 0.000589 -0.024892 -0.024205 0.049840 -0.004900
bulk -0.165616 0.086052 0.136304 -0.045483 0.123851 0.000533 -0.044795 -0.143581 0.025866 -0.019007 -0.012613 -0.045890 -0.091132 0.104531 0.013642 -0.037232 0.056528 -0.094927 -0.109680 0.023679 0.008684 -0.009420 -0.005784 0.041774 -0.082150 0.036788 0.038732 0.002393 -0.001787 -0.146806 0.117062 -0.192118 0.231526 -0.119133 0.081797 -0.008479 -0.125719 0.017941 -0.033685 0.039159 0.105544 -0.146635 0.025696 -0.017045 -0.173822 -0.030749 -0.111588 0.003913 0.080041 0.050319
command 0.056608 -0.010094 -0.062643 0.072428 -0.019246 0.047605 0.088257 0.005495 -0.024872 0.030418 -0.059924 0.034851 0.014094 -0.087191 0.029819 0.011038 -0.041485 -0.009696 -0.008478 0.003030 0.025699 -0.010874 0.007538 0.016007 -0.002634 0.018788 -0.012826 -0.020912 -0.000114 -0.011495 -0.020048 0.018971 -0.050882 0.018700 -0.057316 0.007519 -0.002779 0.046061 0.001375 -0.006030 0.020999 -0.018423 0.036933 -0.019996 0.032049 -0.019293 0.020490 -0.006037 0.014522 -0.021027
customers -0.215913 0.068453 0.110594 0.056750 0.085672 0.084251 -0.017958 -0.201636 0.022754 0.051704 -0.091433 -0.007849 -0.157995 0.036575 0.059174 0.004045 0.012056 -0.150114 -0.165255 0.075312 0.024890 0.003367 0.015064 0.067077 -0.129701 0.063919 0.023533 -0.077685 -0.007471 -0.254234 0.144446 -0.196221 0.206086 -0.186118 0.011264 -0.024498 -0.180922 0.073179 -0.047692 0.082856 0.170931 -0.225360 0.053568 -0.035909 -0.196905 -0.021919 -0.105522 -0.003060 0.113489 0.045655
featurecompatibilityversion -0.035842 0.035849 -0.008104 0.029188 0.055615 0.033449 0.034802 -0.067741 0.007768 0.027051 -0.022938 -0.014700 -0.032032 -0.015411 0.012803 0.014753 0.047727 -0.058407 -0.076657 0.011685 0.014568 0.023827 0.009535 0.031605 -0.047229 0.025705 -0.014481 -0.031553 0.010552 -0.076618 0.050426 -0.063982 0.070540 -0.064125 0.065364 -0.050701 -0.079113 0.026809 -0.004478 0.030342 0.065302 -0.075316 -0.012390 -0.004490 -0.045000 0.015630 -0.005496 -0.036531 0.054981 0.017733
incompatible -0.201318 0.150806 0.130007 -0.045602 0.130371 -0.007149 -0.069326 -0.135567 0.040787 -0.023321 -0.025142 -0.064972 -0.145814 0.142032 0.016433 0.008682 0.064035 -0.120155 -0.155864 0.016669 0.014803 -0.018077 -0.027345 0.041077 -0.061093 0.061966 0.045043 -0.034366 -0.001871 -0.194155 0.123074 -0.213884 0.260487 -0.168704 0.083426 -0.039043 -0.159981 0.042783 -0.048960 0.056654 0.146144 -0.151002 0.003285 -0.008410 -0.139026 -0.014700 -0.118777 -0.005332 0.079954 0.077305
megabytes -0.205329 0.106822 0.144287 -0.070982 0.112326 -0.017588 -0.090247 -0.111341 0.032278 -0.015804 0.016837 -0.069938 -0.104569 0.129761 -0.006255 -0.010165 0.080327 -0.114819 -0.140500 0.034925 -0.019120 0.008413 -0.005492 0.053576 -0.043688 0.032294 0.011803 -0.005250 -0.014545 -0.110416 0.099903 -0.185593 0.227868 -0.134826 0.118500 -0.049587 -0.137624 0.001398 -0.019428 0.052277 0.103229 -0.119287 -0.019192 0.005429 -0.132187 -0.003380 -0.093197 0.002680 0.047621 0.045750
method -0.155610 0.075219 0.125107 -0.037781 0.100156 0.011190 -0.033602 -0.137626 0.021650 -0.016231 -0.004558 -0.026421 -0.077766 0.083132 0.005382 -0.037543 0.054134 -0.081367 -0.088532 0.038041 0.003155 0.004301 0.004781 0.047794 -0.074148 0.038375 0.042164 0.006995 -0.001631 -0.131278 0.094070 -0.163667 0.193045 -0.103711 0.074090 -0.003407 -0.113039 0.027783 -0.025974 0.042884 0.080769 -0.134881 0.029947 -0.021925 -0.168078 -0.015416 -0.080759 -0.012052 0.088388 0.034360
of -0.207411 0.115093 0.157846 -0.076522 0.122473 -0.037421 -0.091856 -0.126831 0.030162 -0.017397 0.001849 -0.087675 -0.117951 0.145123 -0.013167 -0.001904 0.057305 -0.105127 -0.142916 0.030547 -0.016458 -0.001254 -0.029508 0.054196 -0.057782 0.039525 0.020398 -0.007766 -0.001288 -0.135233 0.108400 -0.210313 0.238919 -0.131032 0.101907 -0.028842 -0.164384 0.027527 -0.014172 0.045333 0.130411 -0.131040 0.009073 -0.008616 -0.139232 -0.016674 -0.099413 0.003904 0.068854 0.036440
ram -0.132343 0.078936 0.095477 -0.047819 0.066774 -0.032452 -0.062002 -0.079296 0.029879 -0.010569 0.000971 -0.053854 -0.072310 0.093035 -0.007664 0.015263 0.035739 -0.057241 -0.074686 0.017113 -0.017325 -0.012932 -0.029478 0.036833 -0.039682 0.031943 0.015541 -0.006561 0.008211 -0.079730 0.063377 -0.119646 0.149399 -0.085729 0.063222 0.003704 -0.089855 0.020091 -0.001167 0.027234 0.075589 -0.079260 0.006743 -0.001041 -0.086210 -0.010900 -0.061410 0.009795 0.047072 0.022325
temporarily -0.197463 0.091581 0.141736 -0.069188 0.104459 -0.018110 -0.077347 -0.129112 0.056703 -0.018065 0.005695 -0.074136 -0.109730 0.140693 -0.013828 -0.011653 0.040734 -0.127138 -0.122272 0.030477 -0.000968 -0.008686 -0.006462 0.022801 -0.069532 0.043835 0.054375 -0.031312 -0.013991 -0.144715 0.089812 -0.185589 0.223086 -0.121991 0.080806 -0.013125 -0.132254 0.029539 -0.033591 0.039754 0.094031 -0.143367 0.001272 -0.024584 -0.148504 -0.030505 -0.086125 0.004862 0.078725 0.029507
up -0.199266 0.091773 0.153779 -0.063872 0.135463 -0.004260 -0.084229 -0.131001 0.064636 -0.034462 0.032927 -0.071160 -0.115297 0.151175 0.003867 -0.033026 0.062185 -0.134520 -0.140464 0.021594 -0.017828 0.007394 -0.011744 0.041901 -0.065242 0.032766 0.026128 -0.027174 -0.010960 -0.130305 0.122914 -0.191858 0.241654 -0.144791 0.108945 -0.043233 -0.156016 0.000225 -0.026396 0.040017 0.105224 -0.125082 -0.006057 -0.004533 -0.151956 0.002038 -0.097966 -0.015461 0.064324 0.051862
use -0.212628 0.100160 0.175344 -0.075855 0.138421 -0.026360 -0.089084 -0.151389 0.069374 -0.032328 0.007755 -0.087482 -0.132143 0.178476 0.000756 -0.016468 0.051806 -0.139420 -0.152583 0.015874 -0.011202 -0.008515 -0.007383 0.037719 -0.075291 0.047737 0.044423 -0.030841 -0.010222 -0.151529 0.117158 -0.221302 0.266282 -0.149461 0.092932 -0.018541 -0.169877 0.019079 -0.040934 0.037431 0.114583 -0.147678 0.011941 -0.024170 -0.173581 -0.028132 -0.105712 0.001257 0.085551 0.033920
username -0.223768 0.129239 0.163108 -0.038229 0.131797 0.021164 -0.068166 -0.141036 0.020843 0.001548 -0.041906 -0.069478 -0.137566 0.126951 0.030281 -0.008282 0.059685 -0.153551 -0.134262 0.031744 0.000423 -0.011936 -0.011262 0.055728 -0.095275 0.048198 0.024801 -0.013872 -0.004788 -0.209112 0.142406 -0.224135 0.260512 -0.162481 0.093625 -0.043183 -0.177261 0.046093 -0.046513 0.075670 0.151003 -0.157604 0.008107 -0.015125 -0.176039 -0.020641 -0.126016 -0.023115 0.080173 0.052776
